-0.550527
-1.35423
0.453067
0.589489
-0.828997
-0.085285
0.458755
0.0704958
0.467749
-0.468228
0.650706
-0.536943
-1.27832
-0.156354
0.761212
-0.769487
-1.23136
0.910628
-0.0907818
0.537385
-0.54987
0.234168
-0.920206
2.02747
-0.0880744
0.318482
-0.990361
0.297111
0.619627
0.989664
-1.73781
1.4899
1.84952
1.15791
1.57148
-0.0130764
-0.906427
1.86772
1.08742
-1.59359
-0.226824
-0.230173
0.212631
-0.945418
0.988409
-1.25833
-0.315614
-0.909529
0.921355
0.142559
-0.381299
-0.71935
0.873848
-0.908317
-1.88203
2.27879
0.929073
-0.966419
-1.70493
-0.652824
0.715198
1.16155
1.18464
-1.03882
-1.15134
-0.0499512
-0.612398
-0.585046
0.33928
-0.51639
0.4686
-1.20684
1.07458
1.47315
0.0378746
0.283339
1.70619
0.976371
0.197729
-0.0394907
-0.0528887
-0.0926071
0.969516
-0.360611
-0.167718
0.274018
0.400525
-1.31911
-1.04574
-0.792329
0.551518
1.0622
0.36865
0.109906
-1.01184
-1.20117
-0.380271
-0.744793
-1.09683
1.78733
0.628713
-0.700273
-1.61849
-0.440852
0.696224
0.383712
0.391606
-1.42421
-2.09363
-0.618288
1.20258
-1.52831
1.41486
-1.622
1.26468
0.623581
-2.05182
-1.86363
0.668056
-0.0741602
0.714395
-1.64907
0.859796
-1.06739
0.419076
-0.99752
-1.40601
1.97705
2.07278
0.0757327
0.812752
0.574508
-0.188614
-1.43503
1.27575
0.219741
1.17961
0.697935
-2.11495
-2.32615
0.205226
-0.0744675
-0.87839
-0.026292
3.41469
-3.24395
0.710876
-2.88407
-0.656458
4.718
4.97298
-0.164469
0.145195
0.33285
-0.253861
-1.95582
2.01064
-0.5624
1.72877
0.335493
-3.02362
-3.07432
-0.0171793
-0.217071
-0.192676
0.0950775
0.205373
-0.773626
1.15843
-0.487342
-0.561595
0.57138
-1.01522
0.103713
0.708013
-0.186383
-0.637672
-0.304387
0.625621
0.573967
-0.623639
-1.8517
0.583055
-0.16078
0.479151
1.51531
0.501037
0.913818
1.39732
-0.726471
-0.514937
0.343621
0.35533
0.488465
0.161129
-0.601423
-0.675779
-0.793423
0.560702
1.28399
-0.878149
0.954865
0.300169
0.270938
0.958216
-1.46428
-0.479321
0.539543
-0.698894
1.2305
0.0299351
-0.649576
-0.203316
0.994821
1.11114
0.402966
-0.295216
0.32108
-0.27561
0.0927658
0.39743
0.620605
-0.385022
-0.818709
0.872609
0.463709
-1.50817
0.0662988
0.456767
0.307187
0.740873
-0.137676
-0.566892
-0.835771
-0.965676
1.07253
0.638319
0.328179
0.107759
0.874636
-0.254044
0.334803
-0.824566
-0.101969
0.866086
0.281668
-0.918917
-1.53394
0.0961939
0.0514604
-0.15346
0.776511
-0.258229
-0.267229
0.491021
-0.923257
0.456357
0.929715
0.27353
-0.559791
0.282027
2.32648
-0.75565
0.195101
0.535845
0.579478
-0.481856
0.794001
-0.30588
-0.0652997
0.390254
-0.544371
1.32015
0.570151
0.0151951
-0.332345
-0.243133
-0.0272411
-0.395281
0.131951
0.0879587
0.148146
0.119421
0.0587767
-0.152487
-0.452045
-0.133262
0.188911
0.345279
0.415826
0.0627583
-0.232126
0.377671
-0.0930046
-0.47957
-0.321447
-0.388072
0.17916
0.0853566
-0.0252238
0.335983
0.123882
-0.00248174
0.111047
-0.135877
0.169586
0.0455961
-0.244599
-0.158861
0.59729
-0.115846
-0.227116
0.125155
-0.176076
-0.413127
0.128421
-0.168308
-0.108554
0.259591
0.246808
-0.514422
-0.16875
-0.0096197
0.0249201
-0.508212
0.369397
1.1592
-1.27514
-0.841671
-1.36124
-1.11261
0.068526
-0.233568
0.914953
-0.451596
0.220737
-0.205871
-0.0331398
0.200611
0.373841
0.311274
0.225681
-0.403515
-0.0674072
-0.192826
0.0636602
-0.131587
0.10263
0.390124
0.454953
0.153475
-0.0285416
0.0182153
0.0343183
0.389089
0.0130925
-0.241019
0.18773
0.305753
0.505703
0.102454
-0.291264
0.335548
-0.225674
-0.150099
0.294724
-0.237681
0.344103
-0.0838683
0.453677
0.132675
0.059772
0.0238205
0.0539262
-0.69729
-0.0076704
-0.201314
-0.117415
0.289799
0.0817838
0.417284
-0.136629
0.63291
-0.201937
-0.557099
-0.212345
-0.299619
-0.560285
0.558421
0.79991
0.274534
0.93886
0.187884
0.29763
-0.614372
0.261447
-0.0589984
0.201079
-0.309179
-0.366959
-0.527392
-0.398332
0.0610856
-0.0496116
0.169447
0.0698101
-0.191865
-0.409488
0.347686
-0.235921
-0.312337
-0.082369
0.196715
-0.0660852
0.135702
-0.177058
-0.240935
0.0427566
0.139453
-0.0790284
0.0277598
-0.2195
-0.16106
0.448936
0.04072
-0.162089
-0.0755149
-0.00769077
-0.372686
-0.00177353
0.141683
0.349306
0.412721
-0.146866
-0.0662947
-0.453867
0.0292229
-0.119343
5.17254e-05
-0.309639
0.17423
0.0453898
-0.0226617
0.325478
-0.169472
-0.221222
0.30565
-0.141681
-0.0818762
0.215545
0.269265
0.306261
0.0802087
-0.0314972
-0.222643
-0.0137884
-0.320908
-0.0996299
-0.0685706
0.086849
0.557297
-0.0502932
-0.195891
0.485663
-0.0966485
-0.363011
-0.0664176
0.0698455
0.445199
0.652578
0.33142
-0.214187
-0.500136
0.189375
-0.360725
-0.209918
-0.191325
0.110542
-0.200659
0.328655
0.342486
0.0667859
-0.192254
-0.504237
0.00094485
0.0113257
-0.151713
0.162926
-0.0806176
-0.250628
0.269951
0.131785
-0.201144
-0.238514
0.216722
0.149556
0.248685
0.0913784
1.00945
-1.27933
-0.910383
-0.286905
-0.738236
-0.0420276
-0.769245
0.466594
0.144745
0.239308
0.238801
-0.324947
-1.08904
0.57721
-0.571962
-0.147265
0.07977
0.292335
-0.483759
0.0878106
-0.147813
-0.326625
-0.40677
0.0819736
0.143819
0.151904
-0.240817
0.0616899
0.261555
0.162594
0.282774
0.0833248
0.0433751
-0.341345
-0.359626
0.0336078
-0.184673
0.176231
0.532803
-0.305374
0.318589
-0.290158
-0.202789
0.134506
0.407647
-0.164972
0.186556
-0.00379582
0.484867
0.536096
-0.0104121
-0.0537263
-0.414869
-0.0869708
-0.361508
-0.352173
0.0508474
0.362404
-0.378206
0.343879
0.34899
-0.157753
-0.101545
0.0896252
-0.261126
0.290745
-0.328265
0.0653681
0.00236023
-0.204496
0.14303
0.155075
0.028249
0.0869809
0.15578
0.0927176
0.0512165
0.160209
0.116004
0.233829
-0.259258
0.0219504
0.0512426
-0.195481
0.310569
0.0474192
0.232059
-0.0939193
0.0638761
-0.088933
0.137647
-0.052044
-0.00449028
0.172312
0.198029
0.291786
0.260729
0.00312244
-0.369777
-0.00385007
0.0845638
-0.430213
-0.380103
-0.26128
-0.0722411
-0.0590436
-0.524601
0.237642
0.200066
-0.66083
-0.0407569
0.115907
-0.0461665
0.845902
-0.389625
0.651032
0.131796
0.23425
-0.275185
0.0641615
-0.21819
-0.221961
-0.000180792
0.353364
0.08204
-0.0237391
-0.114558
0.335306
-0.053556
0.300349
0.00925693
0.143405
-0.657068
0.474663
0.14058
0.0951771
-0.0396596
-0.0365255
-0.207344
-0.192334
0.130435
0.561048
-0.641984
-0.303498
-0.666959
-0.016141
0.332222
-0.161368
0.116924
-0.260092
0.0411354
0.619699
-0.579422
0.50757
0.271305
0.201193
-0.00722775
-0.0921895
-0.231362
-0.085336
0.0754422
-0.206446
0.215443
0.218653
0.125348
0.249914
0.125917
-0.188326
-0.192894
-0.0151494
0.0312302
-0.0492511
0.110529
0.231049
0.212518
0.601548
0.0327351
0.0642652
-0.27459
0.0867558
0.242005
0.0562017
0.253383
0.264576
0.628101
0.113598
0.0214588
0.376482
-0.508558
-0.705761
0.335753
-0.167294
-0.304514
0.113557
0.229269
-0.127567
0.0108474
-0.3895
-0.044654
-0.289274
0.145751
0.138624
-0.230392
0.292796
0.152582
0.214904
-0.0864752
-0.460102
-0.279206
0.0369848
0.221821
0.00194546
-0.427301
-0.0843374
0.777712
0.413676
0.0981764
-0.519992
-0.108508
-0.271549
0.438553
-0.150492
-0.307459
0.420303
0.465616
-0.196299
0.456788
0.0346769
0.43709
-0.359822
0.0770279
-0.216893
-0.299329
0.30341
0.14874
0.298171
0.319851
0.349184
0.404203
-0.372891
-0.452266
-0.270639
0.425719
-0.0925096
-0.31722
-1.09778
-0.297587
-0.0503295
-0.370777
0.50358
0.342814
-0.0507223
-0.888125
0.582679
0.212744
0.45827
0.246349
-0.197847
0.0412684
-0.333274
0.632347
-0.100244
-0.317592
0.525409
0.496542
-0.113866
0.209569
0.142727
-0.0687063
-0.141552
0.423548
-0.241618
0.0869304
0.033798
0.637496
-0.444525
-0.320835
0.344824
-0.349661
0.386976
0.15353
0.315922
-0.088857
0.165987
0.244945
0.518618
-0.0145528
-0.094583
0.00799145
-0.18357
-0.0970836
0.117909
0.0731146
0.340496
-0.25827
0.245423
0.085707
-0.178926
0.300774
-0.218478
-0.0765111
0.46447
-0.10033
0.732811
0.00311247
0.285055
0.120856
-0.365923
-0.0201616
-0.167723
-0.26467
-0.13363
-0.0300772
0.158034
-0.0492347
-0.0757833
0.228469
-0.51569
-0.196488
0.13318
0.208316
-0.00794361
-0.632157
0.589097
0.336985
-0.243836
-0.148267
-0.228629
0.341425
0.0325714
0.253019
-0.103761
-0.46911
0.0132353
-0.342172
-0.256094
-0.073503
0.201802
-0.296638
0.43066
-0.0735494
-0.0328748
-0.36511
-0.00174006
0.0524888
0.329998
0.114122
-0.341271
-0.200508
0.227937
0.0593461
-0.36855
-0.140164
0.0397654
0.180569
0.228396
0.244162
-0.000413905
-0.0345709
-0.0239848
-0.278963
-0.227545
0.387101
0.138821
-0.288739
0.25326
0.0155777
-0.197048
-0.0398966
0.281703
-0.0871372
-0.46989
0.278379
-0.119496
-0.0965802
0.0831835
0.515208
-0.136716
-0.195786
-0.419925
-0.291491
-0.398615
-0.10561
1.19633
-0.992315
-0.404337
-1.87569
-0.965825
0.253574
-0.490236
0.934102
0.117228
-0.348397
-0.00508825
0.0346378
0.308054
0.0889434
-0.226205
0.000706001
0.265188
0.236483
-0.0163221
0.0650529
0.325692
0.0194684
0.425247
0.570515
0.0748825
0.215056
0.229476
-0.0976355
-0.291217
0.535728
0.175614
0.0215026
-0.0521376
-0.0725979
0.206411
-0.119942
0.279413
-0.278791
-0.797563
0.218181
0.311895
-0.0447685
0.13044
0.312383
0.238987
-0.213604
-0.136921
-0.197429
-0.140392
0.088323
0.256683
-0.28767
-0.0547251
-0.534884
0.275382
0.0746411
0.479421
-0.0773741
0.0710458
0.0311856
-0.51841
0.40166
-0.0391783
0.125187
-0.786476
-0.011537
0.33824
0.0114627
0.42834
0.553423
-0.188952
0.171459
-0.341509
-0.56076
-0.418601
-0.108627
0.221525
0.0736351
0.248237
0.213277
-0.0457841
0.332553
-0.323769
-0.27377
-0.37631
0.353527
0.499885
-0.0869382
0.107589
0.538004
-0.256422
0.224578
-0.257868
-0.351248
-0.29179
-0.0744095
0.0133614
-0.0518201
0.21729
0.43757
0.130982
0.302134
-0.245127
-0.442609
-0.218026
-0.0981669
0.0746293
-0.213564
0.304282
0.130962
0.0715654
0.360974
-0.0984391
0.0210722
-0.434132
-0.0932741
-0.229275
-0.0223161
0.116513
0.0344269
-0.173867
-0.0656291
0.436752
-0.0701442
-0.106646
0.0958859
0.136429
0.232094
0.021392
0.0317325
0.0258535
-0.0269545
-0.0642605
-0.00445556
-0.0424789
0.123597
0.243229
0.000549076
-0.193894
0.0866676
-0.415731
0.122014
0.175575
-0.0279102
-0.193023
0.129775
0.396506
-0.118208
0.10427
0.267546
-0.243976
0.212356
0.00275571
0.296025
-0.16702
-0.166793
0.263364
-0.0282809
0.0656981
0.27788
-0.403861
-0.180744
-0.189054
0.307389
0.0273262
0.113446
-0.153328
0.182061
0.0830844
0.00496037
-0.00486481
0.281466
0.56496
-0.917172
-1.37565
-0.000713868
-0.648598
-0.107688
-0.29166
0.268233
-0.120152
0.404284
0.220332
0.256604
-0.272343
0.246986
-0.402605
-0.425619
-0.245187
0.0675909
0.0702645
0.262189
-0.164885
0.302675
-0.101685
0.00532276
0.311944
0.0372781
0.073403
-0.48068
0.100326
0.123154
-0.0168822
0.11475
-0.297582
0.432322
-0.045902
-0.0146658
0.0425684
-0.0882304
-0.247245
0.218506
-0.172192
0.325148
0.0182322
-0.0288496
0.429845
-0.0780905
-0.0740218
-0.349041
0.328712
0.612947
-0.0211414
0.207897
-0.187559
-0.0600907
0.151692
0.041161
0.0630836
-0.152076
-0.207947
4.72969e-05
-0.364761
-0.101032
0.104663
0.014806
0.223497
-0.357463
-0.0944809
-0.125191
0.353926
0.0938124
-0.400036
0.26762
0.646229
-0.0807413
0.305941
0.187125
0.156956
-0.309266
0.101767
-0.105498
-0.238899
0.00749566
-0.0599671
-0.291509
0.146323
-0.200678
0.174176
-0.0434811
0.317814
-0.169311
-0.189253
0.160754
-0.530848
-0.285234
0.159046
0.202538
0.0988929
-0.0268729
-0.00778768
0.0678674
0.242304
-0.185075
-0.0987475
-0.34587
0.0236973
0.259995
-0.0528772
-0.0521476
0.398089
-0.340683
0.307681
-0.171732
-0.25922
0.174429
0.214654
0.145849
0.147778
-0.471331
-0.107255
0.329838
0.374301
0.128843
-0.145379
0.408916
0.0369274
0.460116
0.369892
-0.0105259
-0.452107
0.326472
0.38228
0.230528
-0.65135
-0.050357
-0.154655
0.031439
0.416556
-0.161369
-0.0921253
0.191363
0.209289
0.0286759
0.221357
0.544125
0.0163437
0.431368
0.251914
-0.248873
-0.179594
0.259363
0.635778
-0.0560726
-0.219596
0.25437
-0.0320618
0.438723
0.836887
-0.38892
-0.421349
0.038604
0.549451
0.616668
-1.06275
-0.116348
-0.261593
0.173178
0.407966
-0.561108
0.148068
0.0942814
-0.200003
-0.158977
0.311595
0.450525
-0.0463424
0.345128
0.415205
-0.0892904
0.0268162
0.431814
0.00297921
0.274313
-0.157624
-0.0332758
0.0495482
0.100853
0.0692402
-0.200084
0.0901421
0.269537
0.174821
0.289772
-0.230304
0.271775
-0.30993
0.25341
0.130538
-0.574738
-0.0550098
0.466106
0.371829
0.257307
-0.522101
-0.296402
-0.246053
0.613432
0.21435
-0.839067
0.124439
0.421222
-0.0209104
0.360824
-0.224713
-0.00114397
-0.0637919
0.0728419
0.29526
-0.415301
0.376437
0.338241
-0.0460878
0.41399
-0.514482
0.0780416
0.23806
0.0976294
0.276659
-0.0368505
0.449426
-0.525092
-0.945574
0.36435
0.0234591
-0.192503
0.315684
-0.0400727
-0.109711
0.0747061
-0.110662
-0.175957
-0.265979
0.450501
0.47066
-0.347688
0.288695
-0.287871
-0.341918
0.0312559
0.280822
-0.160093
-0.666752
0.471291
0.169608
-0.0989572
0.35444
-0.0239186
0.176234
0.223893
0.228983
-0.469207
-0.416668
0.359497
0.409003
-0.38364
0.412832
-0.279036
0.0771385
0.513695
-0.110633
-0.0543937
-0.288149
0.530921
-0.0503713
-0.0859795
0.0606773
-0.0466654
0.410047
0.346023
0.161786
-0.235725
-0.116581
0.0927816
0.104329
0.145028
0.271959
0.0022825
0.341539
0.277921
-0.0920075
0.138204
-0.228223
-0.0830733
0.264343
-0.0515111
0.345222
-0.339202
0.115825
0.576409
0.253318
-0.088145
-0.0913566
-0.0441221
-0.530869
-0.0573068
0.601786
0.174545
0.0663703
0.0097817
0.11204
-0.157215
-0.229631
0.286494
0.100153
-0.187911
0.32163
-0.195252
0.122602
0.163368
0.119426
-0.561724
-0.490195
-0.248401
0.175789
-0.0640167
0.377087
0.0392039
-0.0262466
-0.00818586
-0.0298273
-0.142702
-0.263723
0.11925
-1.7558
-0.96272
-1.4294
1.69711
-0.702691
0.101185
1.85034
0.882937
0.882927
0.311667
0.49043
-0.0819077
0.458009
-0.00355614
-0.0936871
0.845099
-1.32119
-0.313944
-1.1077
-0.0299955
-1.69086
0.934215
0.00876539
-0.338148
-0.0701477
-0.0417162
-0.806162
1.37432
0.256621
1.02181
-0.0473021
1.66059
-0.829135
0.995412
0.620961
0.0608679
-0.583535
-0.380324
0.385943
-1.02121
-0.0515391
-2.78556
0.0322717
-0.819041
-0.0320111
-0.332135
-0.00828183
0.0135038
-0.668604
1.18342
0.257749
1.02359
-0.0749374
1.66475
-0.748139
-1.37554
-1.07365
-0.977723
0.138984
-0.219858
0.0418103
1.10059
0.185628
0.353157
0.474266
0.80386
0.363229
-0.562474
0.0172686
-0.0701024
-1.70174
-0.506145
0.900772
0.402624
-0.455615
-0.875712
-3.12161
0.382154
-0.448977
-0.154077
-0.201107
-1.28204
-0.203162
0.596282
0.201107
-0.565262
-0.63808
-2.85362
0.374457
1.24457
1.0435
-0.31913
-0.896551
0.46062
0.590776
-0.0876299
-0.161744
0.546517
1.24845
0.069721
1.55602
0.441899
0.502226
-0.581242
0.0346559
-0.715274
-0.383709
1.25163
0.438918
1.50083
0.0046113
0.753793
-0.440386
-0.275138
-0.460643
-0.380186
-0.165212
0.664807
-0.405455
-0.10669
0.124819
0.207883
0.00327334
0.178428
-0.419756
-0.469808
-0.259319
0.374078
-0.208201
-0.0256365
-0.251704
0.146002
0.0474252
-0.178604
-0.189459
-0.304969
-0.063168
0.295223
-0.484325
-0.332784
-0.413945
0.222968
-0.409885
-0.128952
-0.410497
-0.120438
-0.25131
0.339887
-0.610363
-0.637536
-0.0416873
-0.0903856
0.026119
0.146464
-0.0294311
-0.0880775
-0.083423
0.00761453
-0.297823
-0.318494
0.165839
-0.36495
0.455817
0.467626
0.0953283
0.31993
0.346869
-0.393702
-0.212327
0.0824262
-0.198119
0.000606735
0.0322093
0.127086
0.102
-0.192848
0.379925
-0.0484878
0.216828
0.33387
-0.136694
-0.247216
-0.173762
-0.283865
0.316765
0.0302541
0.149642
-0.395966
0.0537429
0.229138
0.216252
0.299472
-0.290893
0.648258
-0.0757129
-0.520763
0.283505
0.103918
0.18278
0.410043
0.178926
0.0376573
-0.239743
0.0768111
0.299574
-0.444031
0.347191
-0.114434
-0.0769191
0.0198266
-0.220895
-0.0709868
0.0776073
-0.218658
-0.0844226
-0.593677
-0.190644
0.080971
-0.313935
-0.402495
-0.412493
0.174369
0.748938
-0.392863
-0.0608899
-0.274249
-0.378914
-0.257364
0.424411
0.0602842
0.43496
0.487184
0.397968
-0.205507
0.176459
-0.0412169
0.317376
0.362042
0.0825284
0.728259
0.586526
0.327402
0.262581
-0.0575752
0.0197709
0.107964
0.089757
0.265024
-0.0919193
-0.18321
0.172967
-0.231793
0.381149
-0.689315
-0.27803
0.0710934
-0.041038
-0.0223893
8.42814e-05
-0.0918689
-0.0346192
-0.0495012
0.449565
-0.0949347
-0.022849
-0.0346968
0.142005
0.00947045
0.280046
0.0647308
0.207543
-0.222406
0.458747
-0.312694
-0.221643
0.114148
0.646642
0.262023
0.0145479
0.0423718
-0.0313437
-0.247581
0.283966
-0.0824323
0.00940229
-0.0107829
0.0807077
-0.125366
0.142133
0.0412128
0.299023
0.324879
0.268459
0.326869
0.195901
0.0294417
0.0297229
-0.00143879
0.0021949
0.0727067
0.273562
0.280449
0.162653
0.11598
0.344127
0.134087
0.249145
0.22129
0.0115015
0.179132
0.404152
0.253912
0.348598
0.280313
0.3247
0.134788
0.155951
0.000173243
-0.0176057
-0.210277
-0.0233314
-0.144806
0.164509
0.0858343
-0.14286
-0.0644574
-0.105463
0.109177
0.168666
-0.00339649
-0.0559711
0.527919
0.122044
0.667108
-0.0937474
0.0986478
-0.474922
-0.196725
-0.41576
0.570179
-0.259511
0.206371
0.352877
0.249811
-0.247193
0.361019
-0.288831
0.232307
0.0648428
0.254657
0.335394
0.390225
-0.00294322
0.0605507
0.070075
-0.0208302
0.110506
-0.120253
-0.0455394
0.0441404
-0.365851
-0.107339
-0.220497
0.333285
-0.398713
-0.0440612
-0.309812
0.0667359
-0.198949
0.273697
-0.157899
-0.149729
-0.168456
0.324266
-0.101324
-0.249359
-0.188358
-0.182719
-0.340522
0.154389
-0.0371836
-0.131525
0.113973
-0.140663
0.0149122
-0.118411
0.154775
0.38659
-0.236254
-0.396778
-0.0696246
0.175743
0.223949
0.341784
0.0897671
0.136137
-0.21077
-0.00262536
-0.0839469
0.340226
-0.148454
0.294648
0.222462
0.496316
-0.217254
-0.150625
-0.278453
0.14744
-0.538734
0.306444
-0.378204
0.0481125
-0.000690572
-0.238672
0.330805
0.361972
0.172143
0.230565
0.250457
-0.131427
0.172729
0.0997228
0.237867
0.112204
0.377823
0.310912
0.0270743
0.0700881
0.131188
0.0058402
0.240833
0.0744477
-0.179446
-0.129925
0.236805
0.0629677
-0.0313359
-0.0457906
-0.331207
-0.0266697
-0.419329
-0.350551
0.0983314
-0.000147287
-0.255399
-0.00952645
-0.114128
0.511287
0.0732649
0.410742
-0.396244
0.43851
0.268752
0.0647957
0.0681966
-0.0098493
0.416191
0.261074
0.25821
0.109011
-0.132403
0.143633
0.161794
-0.253202
-0.137069
-0.282109
-0.53939
0.130438
0.000681354
0.270962
-0.15956
0.376862
-0.0566741
0.15932
0.128867
0.083455
0.00502556
0.15722
0.212852
0.194513
-0.0881884
0.304773
0.280603
0.103505
-0.228308
0.053611
0.401189
0.108999
0.0542614
0.311858
-0.150378
0.0500202
0.208162
-0.103848
-0.232482
0.07615
-0.0219535
0.222108
-0.185808
0.386369
-0.208147
0.40107
0.00550166
0.10112
-0.0642467
0.00388372
0.066942
0.126143
0.160076
0.318099
-0.189583
0.293584
0.196976
-0.175271
0.0319993
-0.173446
-0.0283056
-0.061235
-0.0409027
-0.0914619
0.14876
0.0575139
-0.0164629
0.0207503
-0.0574429
0.0371841
0.00402742
0.0297197
-0.29095
-0.159495
0.00104815
0.00309781
0.0467613
-0.0792529
-0.207838
-0.0496133
-0.174178
0.215708
0.0637739
0.161192
-0.136104
0.255466
0.0229815
-0.0871074
0.101577
-0.0599375
-0.0268171
0.0441908
-0.0398905
-0.0823005
0.137701
-0.115953
-0.0203513
0.44381
-0.310128
0.208686
0.232556
-0.133815
0.193492
0.407181
-0.00406947
0.110664
-0.213894
-0.327279
-0.166414
0.147344
-0.350854
-0.303173
-0.110238
0.796672
0.192628
0.0555433
-0.00215783
-0.123009
-0.647309
0.311163
-0.260946
-0.617217
-0.284116
0.267471
-0.19042
0.350655
0.169788
0.124105
0.123216
0.153783
-0.168866
-0.108894
0.0452122
0.250514
-0.0637398
0.108318
-0.163156
-0.15631
-0.522082
-0.167386
-0.113945
-0.896845
0.0399225
0.00924075
0.0538255
0.0519589
-0.390889
-0.452841
-0.38731
0.324013
-0.24793
-0.431675
-0.0736632
-0.0189557
-0.406367
0.380148
0.0343451
-0.166346
0.0311576
0.358211
0.0347305
0.0466263
-0.164012
0.0257315
-0.218574
0.378857
-0.14385
0.156628
-0.0496612
0.115965
0.0431686
0.00622671
-0.331948
0.0909234
-0.138255
0.24476
-0.213191
-0.143686
-0.172047
-0.0451008
-0.0579751
-0.339095
0.101988
0.104422
-0.225185
0.0889799
-0.623463
-0.157975
-0.583605
-0.0601585
0.0124088
-0.627802
0.00959081
0.347244
0.0521408
-0.0330761
-0.185388
-0.215913
-0.442834
0.0942522
0.0175691
-0.0521712
-0.258686
-0.0932394
-0.0287672
0.202038
-0.266525
-0.384432
0.233073
0.342239
-0.225646
0.481572
0.43404
0.15567
-0.628244
-0.172337
-0.0921009
-0.176161
0.0494084
0.197792
-0.203342
0.311489
0.306311
0.0537307
-0.409697
-0.0865698
-0.107008
-0.0218263
-0.0723028
0.272241
-0.139423
0.256851
0.402033
0.171524
-0.256105
0.0228038
-0.162227
0.0780203
0.109407
0.259148
-0.242541
0.170549
0.431229
0.125086
-0.0865953
0.125805
-0.0572286
0.0950332
0.129652
0.362266
-0.193324
0.0233075
0.420627
0.0703211
-0.136897
0.261921
-0.0200649
-0.0699004
0.0970289
0.313178
-0.044218
0.0379849
0.382227
0.174125
-0.218608
0.140124
-0.0973478
0.156974
0.365033
0.252849
-0.154593
0.160653
0.394264
0.112773
-0.0719412
0.0544217
-0.0467895
0.00806824
0.168384
0.271466
-0.0140999
0.148031
0.358935
0.0804184
-0.0325826
0.0452456
0.0578539
0.253944
0.186503
0.214549
0.0907118
0.226939
0.145677
0.121565
-0.312666
0.0219892
-0.0282242
0.0688291
0.0697823
0.151442
-0.0559224
0.0887256
0.110059
0.16404
-0.117027
-0.0341692
-0.115212
-0.115974
0.0117003
0.149378
0.0393388
0.118693
0.102824
0.21865
-0.577463
-0.133672
-0.106005
-0.192639
0.00396272
-0.97984
0.34519
-0.756244
0.320813
0.511759
0.580796
0.192232
0.241133
-0.732436
0.330577
0.216194
0.11691
-0.468205
0.198193
0.0852743
0.816835
0.215677
0.424014
-0.724167
0.278623
0.123563
0.153007
-0.30955
0.464159
0.377401
0.424741
0.475102
0.443545
-0.290648
0.104555
0.123147
0.165456
0.129386
0.0383485
0.252985
0.132762
-0.165055
-0.14655
0.0125135
-0.145456
0.0657011
0.423255
-0.217389
0.253368
0.198282
0.156244
0.352671
0.281163
-0.354067
0.408658
0.168775
0.24814
-0.162165
0.315656
0.539152
0.242024
0.0500187
0.413511
-0.159413
0.300258
0.169435
-0.153837
0.14011
0.122676
-0.099027
-0.123461
-0.319748
-0.135906
0.221681
-0.0753735
-0.260458
0.165607
0.0331681
-0.010499
0.124678
0.179126
-0.0469975
0.00511249
-0.00327141
0.294518
0.0509049
0.261048
0.072747
0.261096
0.251908
0.159625
0.202036
0.218905
-0.0963593
0.0793905
0.161705
-0.0980633
-0.0649141
0.277369
0.160346
0.11524
-0.163135
-0.150437
-0.158147
0.0415454
-0.271703
0.39783
-0.04721
-0.0796699
-0.00524397
0.235703
0.425185
0.188701
-0.0760138
0.0794962
-0.0215876
-0.212455
0.223926
-0.0240161
0.0719298
0.335129
-0.00349573
-0.778922
-0.27453
0.0448141
-0.0832427
0.362399
0.0816481
-0.145246
0.29421
0.216406
0.0966495
-0.596623
-0.321842
-0.112891
0.129628
0.147232
0.076905
-0.0909473
0.0715435
0.107086
0.112246
-0.4428
-0.203485
-0.0267172
-0.0600619
0.0558931
0.00845168
-0.271805
0.0818829
0.0998241
-0.133349
-0.200989
-0.148132
0.0307533
-0.02539
-0.0468564
0.271248
-0.07368
-0.010815
0.348296
0.038142
-0.0746838
0.0925447
-0.0914403
0.0761864
0.181628
0.376437
0.0563956
0.123964
0.346832
0.0913375
0.0658815
0.129644
-0.077574
0.0749483
0.384722
0.163923
-0.0940569
0.0582436
0.274783
0.0411162
-0.0718791
0.0966201
-0.07887
0.0346533
-0.00401168
0.29141
-0.0810089
-0.00456131
0.162114
0.123166
0.0778214
-0.104638
-0.0329396
0.113384
0.0536849
0.129986
-0.0342813
0.17987
0.0900264
0.166379
0.0661603
-0.0899381
-0.215608
0.0550745
-0.0248212
0.0586792
-0.0429145
0.0240691
0.095092
0.135545
0.308971
-0.0370158
-0.189018
0.0679815
0.0581165
0.151614
-0.110069
0.0199831
-0.0063858
0.258363
0.176882
-0.0839757
-0.218974
0.0875875
0.189418
-0.271798
-0.0834783
-0.166583
0.121745
0.0428466
0.22278
0.138807
0.37148
-0.100622
0.361794
0.0490234
-0.273265
0.0914558
-0.102358
0.0234041
0.00804395
0.142995
0.290515
0.138869
-0.0137678
0.0275764
-0.133656
0.077434
-0.0401753
-0.467679
-0.0189593
0.167822
0.0510435
-0.0575566
0.332491
0.160528
0.286363
0.0666273
0.31452
0.0136462
0.397631
0.28477
0.193762
-0.351111
0.432285
0.637217
0.218708
0.0731104
-0.0123348
0.204245
0.26318
0.436348
0.591857
-0.0673314
0.609508
0.942834
-0.022804
0.217604
0.0626304
-0.327707
0.196985
-0.145758
-0.0541223
0.137403
0.310155
0.232303
0.490939
0.755673
-0.0325895
0.0688272
-0.297476
-0.0690938
-0.257942
0.459072
0.0211695
0.20512
-0.0110758
0.0408904
0.0287705
-0.173595
-0.0163892
0.243321
0.0792681
0.0641934
0.502276
0.0968433
-0.0351637
0.640308
-0.151176
-0.391524
-0.174324
-0.292142
-0.0110369
0.416387
0.0140803
0.124193
0.159086
0.45711
-0.19262
-0.114493
-0.337891
-0.146576
-0.293141
0.532954
0.0358259
0.0421776
-0.0400595
0.43718
-0.271506
-0.222423
-0.200989
0.170192
0.141469
0.330363
0.0881875
0.188127
0.21601
0.376801
-0.358749
0.605807
0.457116
0.164374
-0.973992
-0.0133234
-0.162162
-0.0497066
0.119703
0.360053
-0.238547
0.555606
0.499821
0.0991519
-0.636016
-0.105824
-0.204279
0.093997
-0.0898701
0.316703
-0.170971
0.342672
0.459581
0.209772
-0.474865
0.0092362
-0.217594
0.0727422
0.190906
0.289576
-0.248576
0.205554
0.600883
0.0365996
-0.139045
0.141026
-0.11425
0.105309
0.14535
0.478091
-0.260225
0.0544882
0.689135
0.0495423
-0.260273
0.269383
-0.0901747
0.0478685
0.197134
0.38351
-0.0849916
0.00839669
0.57898
0.312658
-0.224908
0.106584
-0.222347
0.200112
0.454366
0.289772
-0.176992
0.216297
0.499826
0.100325
-0.231304
0.00852349
-0.102633
-0.0562906
0.118338
0.353928
-0.00507737
0.304665
0.435108
0.0568184
-0.068358
0.0629634
0.111471
0.408764
0.248101
0.207134
0.106854
0.31576
0.226933
0.132146
-0.383228
-0.0660439
-0.0407149
0.119365
0.0366606
0.206789
-0.0265837
0.183793
0.290694
0.193372
-0.0971081
-0.00335203
-0.147278
-0.0202694
0.12973
0.275642
-0.0349267
0.25184
0.191356
0.356211
-0.562764
-0.142126
-0.175384
-0.133862
0.0586939
-1.40294
1.07376
0.538561
0.0131759
-1.30189
-0.469005
0.449629
0.00903715
0.535193
-0.165073
0.560251
0.0948974
-0.650897
1.5509
0.218013
-0.0757848
0.236725
-0.408669
1.47776
0.406135
0.414766
0.0920478
0.0211501
-0.0480809
-1.13418
1.00942
0.481007
-0.699148
0.746873
-0.974752
-0.524578
-1.56336
-1.4598
0.0242453
-0.106373
-0.105057
0.321036
0.232735
0.14946
0.688289
-0.379501
-0.740668
-2.39925
-0.378813
-0.113096
1.14484
-1.18223
-0.399037
0.450026
-0.43939
0.860958
0.207533
-0.364884
-1.41179
-0.0667918
0.592286
0.752366
-0.231021
-1.08684
-0.180226
0.823487
0.208544
-1.02064
-0.736915
-0.932938
0.443987
-0.669616
-0.43857
0.913579
-1.32759
-0.919694
-0.17977
-0.0175728
-0.770822
-0.567992
0.10492
-0.369657
0.207896
0.0680793
-0.650362
0.207244
0.225552
-0.505101
-1.46534
-0.147011
-1.05179
-0.196379
-0.711166
-0.216722
-1.07777
0.71968
0.118812
0.821073
-0.36691
0.329847
0.123901
0.0886482
0.794933
-0.453979
0.100266
-0.893881
0.431172
-0.738171
0.177024
2.05325
-0.428656
-0.624362
0.882231
-0.712823
0.607527
0.296111
0.162462
1.12805
-0.0964164
-0.891803
0.6437
0.353987
-0.018991
0.347394
-1.18946
0.257645
-1.06085
0.811522
0.135571
-0.0526719
-1.36774
0.0543104
1.17329
1.37004
0.430489
0.435744
-0.340837
0.402035
-0.168595
-0.633379
-0.552601
2.26155
1.81371
-0.379347
0.103176
0.556087
-0.541403
0.270551
-1.64106
-0.193116
0.290242
0.39483
0.586691
-0.991986
-0.364015
-0.491094
-1.44237
-1.03836
0.0651508
-0.256026
-0.441346
0.00707294
-0.060101
-0.381448
-0.901957
-0.326647
0.372268
-1.14544
0.444464
-0.307698
0.636496
0.749344
-0.438842
-0.0447724
0.292667
1.12268
1.26219
1.46658
-0.551375
-0.241252
-0.829337
-1.08072
-0.382321
0.204257
-0.359722
-0.22606
-1.09422
-2.11603
-1.44501
0.353179
-0.54909
-1.00323
-0.261365
0.650982
0.328471
0.0830783
-0.457672
-0.135961
-1.16354
1.1493
0.908515
-0.454068
-0.818585
0.152399
-1.80277
0.326954
0.361047
0.148917
0.874599
-0.654313
-0.644076
0.218661
0.016753
0.946543
-1.36639
-0.0105905
0.550905
-0.428079
-0.2127
0.677781
0.0953192
-1.00569
1.6414
-2.28301
0.614264
-0.418048
0.749724
0.480294
0.289554
0.300384
-0.23937
0.756862
-0.690755
-0.32959
0.211663
0.454123
0.0958173
-1.10722
-0.128263
-0.723552
0.940101
-0.234664
-0.888833
-0.64725
-1.02877
-0.204627
0.492392
0.844852
0.907216
0.280866
0.245442
0.434903
0.648599
-0.428375
0.715605
0.300719
1.16264
0.802853
-1.42848
-0.0018864
0.794253
-0.29135
0.484898
-0.113358
-0.740779
0.584548
-0.131072
1.24368
-0.660626
1.17618
-0.542937
-1.66192
-1.31923
-0.807408
-0.203809
-1.32189
0.754782
0.163591
-0.984339
1.33717
1.00709
-0.987986
0.836379
-0.251842
-0.9721
0.901188
-0.187109
-0.35946
0.609569
0.52279
0.678203
0.566268
0.270905
0.577049
-0.483917
-0.617657
0.0216009
-0.535529
-0.826854
0.0428361
-0.665286
0.692741
1.17743
0.186129
-1.73524
-0.406855
1.6911
-0.230775
0.12677
-1.82325
0.0444623
0.809233
0.897459
1.44276
1.73117
2.50986
0.160129
-1.42356
-1.46953
-0.0808319
-0.239238
1.83861
-0.728685
0.745572
0.446679
0.98517
0.966747
-0.0156703
1.03766
-0.225389
-0.354915
-0.620248
-0.666972
-0.808671
0.662013
0.586673
0.0379668
-0.313984
-0.443605
0.732023
-0.554894
-0.204641
1.14286
-0.0226709
-0.657844
0.240863