-0.063568
-1.4416
0.033803
0.0164641
-0.797656
-0.547651
0.912216
-0.233716
0.887733
-0.0563923
2.11919
0.484353
-1.20568
-0.0119158
-0.064643
-1.13829
-0.821525
1.34242
-0.469531
1.18871
-0.458013
1.5978
-0.712346
1.13464
0.676159
-0.703266
1.53207
0.550302
-1.74204
0.55425
-1.16655
-0.321766
-1.78482
0.97605
0.36183
-1.4586
-0.585278
-0.146576
0.273591
0.268493
-0.708822
0.0232111
0.255493
0.275551
0.195025
0.346201
-1.1064
0.535407
0.411585
0.573548
-0.40091
-0.195506
-0.753897
0.465674
-1.37076
-0.632505
0.404981
1.76759
0.76761
0.292994
0.104999
-0.47286
1.08333
-0.408495
-0.0147425
-0.809155
0.785712
-0.516965
0.175732
-0.332429
0.17153
-0.810697
0.366254
-0.465143
-0.230547
0.020882
0.407624
-0.256441
-0.0902443
-0.102468
0.0674994
-0.00169083
0.309665
0.839705
0.857182
0.294252
0.591796
0.615099
-2.14923
1.51805
-1.16678
1.44934
-1.11338
2.27325
0.295418
1.72588
1.22421
-0.290295
2.10665
-0.220618
0.0620991
-0.0375678
-0.0320975
-0.170231
0.324508
-0.919234
0.253182
0.183766
-1.71132
1.07696
2.70087
-2.11313
1.60618
-1.80542
1.47545
-3.11266
-0.107916
-2.76256
-1.40122
0.294979
-0.734833
1.49441
-1.11818
0.813478
-0.887708
0.709541
-1.63034
-0.155493
-1.59796
-0.881749
0.424065
-0.0815506
-2.98623
2.42327
-1.82612
1.97871
-1.60696
3.34798
0.220419
2.95499
1.48116
-0.161209
0.797439
-0.68086
0.400482
-0.170024
0.531023
-0.000723734
1.06171
-0.66951
0.632531
0.458804
-0.169183
3.13047
-2.7953
2.13583
-1.80339
1.90427
-1.63922
3.0402
0.0937639
2.68976
1.42475
-0.198456
0.28179
0.918241
-0.689233
0.730221
-0.757626
0.591519
-1.01551
-0.494022
-1.4086
-0.501166
-0.108448
-0.555342
-0.876056
-0.256466
-0.120356
0.46476
-0.454664
0.217272
-0.528077
-0.107246
-0.421592
0.0298871
-0.142442
-0.20183
0.217467
0.016481
0.0826545
-0.330759
-0.767818
-0.220354
0.666766
0.139013
0.526057
-0.165954
0.409441
0.296706
-0.408637
0.274968
0.533485
0.675893
0.683082
-0.670032
0.114877
-0.362092
0.00317271
0.36637
0.134282
-0.159878
-0.12463
0.424854
0.418893
0.615803
-0.681031
0.149973
-0.218383
0.208478
0.535037
0.632214
-0.421078
1.06845
0.221476
0.187222
0.761667
0.236309
0.349952
-0.0753609
0.436082
-0.303734
0.00977717
-0.487925
0.00373065
-0.295994
-0.159911
-0.907737
0.0296649
1.38857
0.516927
0.405989
0.57742
0.280458
-0.0900825
-0.0398702
0.419759
0.0669619
0.740018
0.170948
0.523318
-0.120098
0.543627
-0.246968
-0.0488367
0.281076
-0.0609877
-0.555106
-0.727932
-0.365498
0.60144
-0.00120336
0.443276
-0.0248889
0.488305
0.877632
-0.543818
1.23479
0.394141
0.325071
0.628442
0.359269
0.638708
-0.118468
0.429289
0.233503
0.391058
-0.188525
0.268264
0.437448
0.197274
0.462583
-0.00124592
0.354291
-0.0549906
0.278577
-0.464452
-0.447482
0.459722
0.349581
0.0729347
0.275421
0.294934
0.692884
-0.157814
-0.57738
-0.0712262
-0.100462
0.411669
0.0565625
0.292819
0.16028
-0.0610972
0.0502453
-0.0127573
-0.00987265
-0.19779
-0.0881366
0.38546
-0.0016042
0.0471961
0.173543
0.0299234
-0.0339762
0.0485735
-0.102125
0.324404
0.199824
-0.0108226
-0.00468065
-0.0280869
-0.238442
-0.194787
-0.0929137
-0.056641
-0.024584
0.0762946
0.062314
0.00745866
0.183474
0.197766
-0.0624271
-0.00164674
0.00104375
-0.278852
-0.443048
-0.093512
-0.0779694
-0.055639
0.19018
0.135031
0.164848
-0.0925639
-0.194189
-0.125285
0.0744475
-0.0395097
0.0452779
-0.157444
0.558013
0.203087
0.034186
0.0805474
0.07758
-0.171878
-0.398525
0.0599106
0.505855
-0.145979
-0.120324
-0.236769
-0.295286
-0.188079
-0.402055
0.271295
0.388484
-0.0909339
-0.177187
0.00925861
-0.0760852
0.20286
0.232635
0.117205
0.1219
-0.194392
0.199113
-0.314229
-0.189097
0.0783268
0.515223
0.263045
0.294143
0.140716
-0.0865189
-0.229396
-0.145867
-7.90467e-05
-0.0459854
-0.0452063
0.345349
0.210125
-0.142021
0.219443
0.270659
-0.214667
-0.400485
0.0814766
-0.168598
-0.136784
0.166732
0.0428779
-0.0617772
-0.0816032
0.118402
0.366453
0.0342808
-0.292844
-0.21376
0.180149
0.0300368
-0.222779
-0.367079
-0.270787
-0.116709
-0.0512246
0.249222
-0.0306748
0.15277
0.0143518
0.0359515
-0.138628
0.104641
-0.104
-0.0239158
0.060179
-0.0590776
-0.0982141
0.221306
-0.379781
-0.004952
0.0022118
0.23995
-0.0414186
0.186674
0.532916
-0.210649
-0.21206
-0.154321
-0.245452
-0.0729346
0.121661
-0.116642
-0.060765
0.202101
0.48556
0.0412196
-0.443321
-0.0837824
0.186132
-0.0218944
-0.0740428
-0.205302
-0.205306
-0.195271
-0.169098
0.234314
0.209038
-0.249409
0.190579
0.0555536
-0.244182
-0.147915
-0.0883391
-0.119392
0.0133307
0.264356
0.110331
0.090237
-0.287491
-0.0584961
0.202612
0.28131
-0.010596
0.126762
0.206017
-0.297404
-0.240521
-0.0706813
0.0393654
-0.033936
0.0884869
-0.062781
-0.0150705
0.0166995
0.000508705
0.092892
-0.020417
-0.133613
0.120021
0.0644879
-0.0985154
-0.152205
-0.111575
-0.152218
-0.237431
0.108932
0.00570766
-0.367545
-0.0577031
-0.0034967
0.121
-0.218518
0.0150081
0.0930371
0.129927
0.246337
-0.0615618
0.00618814
0.151989
0.0735463
-0.179729
0.240994
0.119173
-0.0792684
0.0323596
-0.122211
-0.0132474
0.0148399
-0.0346048
0.136032
0.007451
-0.0195258
0.083428
0.078489
-0.0416951
-0.290424
0.0288986
0.123307
-0.0707554
-0.0754412
0.0991894
-0.0476759
0.14687
0.255417
0.0163134
-0.214517
-0.0223645
0.262585
0.0285159
-0.0503583
0.103655
-0.143762
0.0489624
0.0980314
0.000392036
-0.131214
-0.065084
0.141619
-0.00347494
0.13989
0.0419219
-0.157032
-0.128785
0.0715663
-0.0846518
-0.265529
0.201515
0.258988
0.155129
0.0839253
0.0340256
-0.148256
0.112033
-0.0357791
-0.122859
-0.315975
-0.0253786
0.141707
0.114959
0.1087
0.0504163
0.088366
0.0299014
-0.106284
-0.0542686
-0.341021
0.0682601
0.238752
0.0415763
0.333804
-0.0114323
-0.237001
-0.165223
-0.109466
-0.189192
-0.438238
0.265531
0.404603
-0.202208
0.00187317
0.0853207
0.0560905
-0.00486499
0.0848068
0.0270424
-0.124363
0.067638
0.0759632
-0.335781
-0.277139
0.0776301
0.422353
0.152069
0.261367
0.289637
0.299448
-0.239925
-0.250853
0.0820127
0.116335
-0.0143023
-0.251257
-0.0405414
-0.00855206
-0.137304
-0.198722
0.0257841
0.276511
-0.104488
-0.112137
-0.369643
0.139043
0.00368131
-0.00313371
0.0243358
0.174265
0.559167
-0.0931571
-0.430997
0.11832
0.0381583
-0.00549174
0.0493771
-0.0630072
-0.28817
-0.0424593
0.274027
0.00409666
-0.431332
-0.271578
0.514341
0.0620109
-0.252687
-0.451477
-0.179955
-0.301548
-0.368238
0.592805
0.173896
-0.115269
-0.100449
-0.17585
0.0856431
-0.249547
-0.231475
0.124175
0.589225
0.131669
-0.420632
0.027912
-0.19382
-0.144601
0.163527
0.035709
-0.120242
0.0345644
0.322138
-0.0943092
-0.411457
-0.28015
-0.0405056
-0.200107
0.389124
-0.113207
-0.147468
0.0650821
0.179819
0.11075
-0.409265
-0.153099
0.139753
-0.0859706
-0.186157
-0.109715
-0.036858
-0.065075
0.00216286
0.25054
0.151805
-0.221232
-0.248325
-0.17061
0.0161347
-0.289728
-0.163549
0.251903
0.610339
0.0324928
-0.59184
0.126735
0.0226871
-0.151856
-0.201617
-0.270021
-0.267922
-0.0994889
0.0459655
0.148148
-0.248198
-0.0220506
0.0737863
-0.249933
0.131317
-0.185655
-0.113723
0.0327642
0.0956397
0.0848467
-0.343279
-0.153893
-0.18127
-0.0776472
0.137754
-0.199543
-0.049059
0.136273
0.31236
0.094364
-0.382652
0.0800649
-0.704538
-0.293048
0.925846
-0.12229
0.116639
0.303181
0.182478
0.347702
0.0141453
-0.0661348
-0.358933
-0.236849
0.760627
0.136435
0.126485
0.323576
0.0160138
0.0691719
-0.123358
-0.217836
-0.380213
-0.0375861
0.513728
0.31423
0.0889409
0.352841
-0.0564524
-0.18071
0.0494326
0.0180122
-0.445257
0.0594621
0.254103
0.0328585
-0.130057
0.0250069
-0.0418271
0.0697228
0.0571995
-0.25688
-0.219257
0.233201
0.215433
0.190287
0.076088
0.147848
-0.0463124
-0.3073
0.0202131
0.0292466
-0.0521186
-0.0957408
0.0152275
0.0886138
0.173736
-0.0829957
0.121093
0.299392
-0.31759
-0.227893
-0.129072
-0.151924
-0.0185473
0.396878
0.214565
-0.0453944
0.0200748
0.139237
-0.0946212
-0.260354
-0.105517
0.220321
0.0654535
0.543268
0.140791
0.0770682
-0.0776955
-0.32131
0.0297241
0.199254
0.245321
-0.0979351
-0.00499513
0.142041
0.396038
-0.0125532
0.0841561
-0.00391111
-0.29598
-0.0183513
0.0626139
-0.288758
0.0867173
0.53965
0.503672
0.0902829
0.0879972
0.0220279
-0.386894
-0.139056
0.208522
-0.191513
0.0936253
0.65414
0.519365
0.0465176
0.111133
0.0428093
-0.293946
-0.349614
-0.310649
-0.161936
-0.345143
0.544395
0.155716
0.275877
0.101893
0.0444689
0.297892
-0.193083
-0.107512
-0.066557
-0.116752
0.53674
-0.0135781
0.323857
-0.062221
-0.138268
0.085153
-0.308671
-0.147374
0.0879013
-0.0827623
0.519274
0.224764
0.404871
0.00783489
0.0152466
0.0248441
-0.376402
-0.300053
0.0203723
-0.249495
0.611599
0.08158
0.31715
0.0104811
-0.00103537
0.216921
-0.201458
-0.208181
-0.152523
-0.230411
0.679866
-0.218086
0.215902
0.0285717
-0.00392631
0.11713
-0.150109
-0.322218
-0.327337
-0.409137
0.276646
-0.107515
-0.00730755
0.109658
0.0423016
0.298728
-0.13993
-0.447014
0.147907
-0.212755
0.359207
-0.199563
0.286727
0.105663
0.136577
0.267482
-0.396631
-0.140843
-0.162867
-0.143416
0.388367
-0.268426
0.0329885
0.108793
0.174731
0.241353
-0.172755
-0.240408
-0.0911356
-0.077856
0.390147
-0.0341429
0.141346
0.10716
0.157493
0.182251
-0.199087
-0.0829155
0.0229442
-0.019712
0.305523
0.0598251
0.0100845
0.19084
0.295004
0.26396
-0.134991
-0.106778
-0.0565576
-0.066905
0.321618
0.142911
0.0890054
0.0705366
0.196501
0.167699
-0.200257
-0.39871
-0.537741
-0.195463
0.0962941
0.328337
-0.502316
-0.133518
0.114594
-0.01335
-0.0458207
0.198893
0.300254
-0.334447
0.00917723
0.110519
-0.0946805
-0.0947238
0.0614335
0.124762
0.165007
0.276392
0.180942
-0.223761
-0.13137
0.0551376
-0.273945
-0.135098
0.111595
0.00759555
0.131162
0.2497
0.0430945
-0.0804583
0.11002
-0.0629461
-0.10593
-0.0878086
-0.0026534
0.0339254
0.00610495
0.137142
0.128393
-0.171659
0.250771
-0.153038
0.165521
-0.232816
-0.0394609
-0.0386133
-0.0884882
0.330584
0.0843254
-0.0887768
0.141604
-0.0851429
0.0165485
-0.0471157
-0.0403988
-0.118173
-0.233752
0.254702
0.215004
-0.598971
0.265871
0.0780532
-0.350729
-0.291993
-0.0549088
0.0276889
-0.15562
0.149358
0.210215
0.154418
-0.327405
-0.0488585
-0.205139
0.135295
0.0694443
0.259123
0.282783
-0.192703
-0.0538619
-0.125462
-0.00447729
-0.0553656
0.0123395
-0.0534216
-0.0274424
0.00793463
-4.79628e-05
0.0306729
0.0570564
-0.676157
0.121637
0.134986
0.000121112
-0.37385
0.18866
-0.0789487
-0.305595
0.467589
-0.000390612
-0.577813
0.0707209
-0.0207409
0.132048
-0.295836
-0.0202542
0.0310811
-0.0856607
0.385553
-0.0374628
0.101608
0.215914
0.0273342
-0.758499
0.177361
-0.072216
-0.14556
0.0260389
0.140953
-0.0770393
-0.265712
0.162767
0.0940252
-0.510412
0.280978
-0.0113852
-0.131499
-0.0355637
-0.104096
-0.0270263
-0.144257
0.0256574
0.158932
-0.371454
0.10644
-0.306917
-0.111514
-0.0273364
0.0157199
0.284998
0.117503
0.108769
0.123472
-0.208515
-0.408339
-0.300921
-0.174821
-0.0854855
0.00253412
0.19235
0.276757
0.0386939
0.00575501
-0.0872931
-0.2154
-0.287087
-0.0408244
0.0643087
0.178312
0.21335
0.294401
-0.120312
0.0337698
0.131699
-0.315374
-0.362133
0.074401
0.197581
0.268292
0.112968
-0.0580342
-0.147894
-0.0571033
0.0803211
-0.15013
-0.239982
0.162495
0.0670696
-0.0644978
0.169257
0.156519
0.138414
0.0168786
0.0343144
-0.269984
-0.0333987
0.0258398
-0.0578166
0.0913632
0.138131
0.0664094
0.0298838
0.101332
0.0427539
-0.494176
-0.217775
-0.0872552
-0.109602
0.20473
0.0296176
-0.277188
0.0169764
0.00440856
0.0454504
-0.0960646
-0.182106
0.0194375
-0.0254921
0.162017
0.00283304
-0.262738
0.0422278
-0.206996
0.0261609
-0.289121
-0.0669505
0.174666
0.069925
0.327294
-0.0284411
-0.184691
-0.107193
0.199555
-0.109197
-0.284101
0.237193
0.11608
-0.08865
-0.018583
0.190576
-0.188346
0.051621
0.253586
-0.133882
-0.243808
0.264158
0.229986
-0.0905035
-0.0179088
0.257785
-0.317265
-0.132931
0.176362
-0.0802171
-0.313669
0.373637
0.245983
-0.142479
0.0434053
0.144411
-0.302722
-0.172526
0.387422
-0.0764685
-0.223715
0.124287
0.329857
-0.116266
-0.0690196
0.21433
-0.460622
-0.17295
0.351986
0.0282417
-0.217421
0.0135079
0.0715006
-0.164276
-0.10492
0.0510105
-0.157638
0.0119864
0.464696
0.1453
-0.157753
0.0188661
0.238176
-0.197925
-0.223324
-0.0359135
-0.205466
0.164734
0.172116
-0.0806721
-0.0266624
0.138172
0.363744
0.0871483
-0.0361884
0.110425
-0.2648
0.0199884
0.106141
-0.0595807
-0.0638297
0.141015
0.168128
-0.112489
-0.0313792
0.102609
-0.19757
-0.0477931
0.46276
-0.205213
-0.166849
0.285512
0.484154
-0.0048867
0.0205741
0.131007
-0.457642
-0.160016
0.359742
-0.058052
-0.162893
0.0285988
0.0810603
-0.106922
-0.0607861
0.051441
-0.154568
-0.0841556
0.289878
-0.101253
-0.105834
0.30563
0.273335
0.0166925
-0.0852017
0.135323
-0.26124
-0.15912
0.215204
-0.090537
-0.156021
-0.0311478
0.136194
-0.0557447
0.0165175
0.113952
0.193604
-0.0555764
-0.216148
-0.028449
0.119618
-0.129194
0.0474283
-0.11721
-0.0792651
-0.0291338
-0.0123081
-0.0255382
-0.0336724
0.243866
-0.00159242
0.0282249
-0.0598564
0.127011
0.00171815
-0.0688879
0.0902004
-0.0886398
0.0266809
-0.0123753
-0.0541724
-0.0381502
-0.0189837
-0.089574
-0.12698
0.0266467
0.190068
-0.0909906
-0.273589
0.237772
-0.177471
-0.0655844
0.101495
0.132161
-0.0504337
0.0289202
0.200018
-0.173031
-0.323304
0.205199
0.0139567
-0.0771784
-0.186065
-0.0532137
-0.112695
-0.0549781
0.0662786
-0.0458136
-0.157201
0.267064
-0.0416203
-0.0567036
0.0929575
0.0722417
-0.108524
-0.0693095
0.0430498
-0.168214
-0.17976
0.18049
-0.131203
-0.0437477
0.117297
0.111838
-0.0292391
0.0450397
0.184562
-0.124984
-0.198865
-0.0558418
-0.115395
0.0148518
-0.0309132
-0.178343
0.0238182
0.025427
0.159004
0.0149962
-0.263232
0.128238
-0.00919289
-0.0417196
-0.0733932
-0.0945655
-0.0445061
0.0293196
0.143438
-0.0576522
-0.198147
0.221115
-0.103652
0.0496631
-0.288833
0.126154
0.210827
-0.050232
0.121685
-0.0938998
0.144149
0.129173
-0.208774
0.350175
-0.0953809
0.411586
0.148752
-0.0475009
-0.0726997
0.0443363
-0.0755143
-0.303254
2.38906
-0.129136
0.216568
-0.142005
-0.128519
1.18051
-0.0490508
-0.221405
-1.25122
-0.100339
-1.05678
-0.488115
-0.0159877
-0.119753
0.0141309
-0.0598044
-1.08986
0.016016
0.047887
1.07557
-0.0551315
0.934569
0.465538
0.0196481
0.087793
-0.125781
0.0748357
1.13738
0.065675
-0.167797
-1.09324
-0.0768091
-0.948449
-0.565973
-0.0468989
-0.101558
0.0197745
0.0516513
-0.913824
-0.047833
0.138957
1.13109
-0.133197
0.996808
0.468789
0.0639478
-0.308828
0.0169484
-0.462456
-0.199895
-0.281231
0.157131
0.0351747
-0.00913356
0.325271
-2.43252
0.617092
-0.467387
0.362818
-0.839919
-0.349118
-0.4116
0.0514269
0.229967
-0.222715
0.512735
0.69779
0.33638
-0.293691
0.338729
-1.0364
-0.383083
-0.184388
0.152939
0.00411172
-0.149154
0.376809
-2.11779
0.0666983
0.164179
-0.0476769
0.0587421
1.05917
0.0753875
0.000864884
-1.13017
0.00076467
-0.811908
-0.58502
0.593702
-0.440474
0.408282
-0.103788
-0.53515
-0.417901
-0.128547
0.523005
-0.302352
0.700982
1.57236
-0.013304
-0.119414
0.0707547
0.0679567
-0.19504
-0.278052
-0.012209
-0.0891142
-0.267087
-0.033454
0.0122476
-0.155446
0.111496
0.0259243
-0.235856
-0.2057
-0.0617535
-0.134259
-0.304574
-0.0811136
-0.023205
-0.082263
0.0121128
0.0366759
-0.294481
-0.276209
-0.118878
-0.0361269
-0.352036
-0.0707221
-0.00667979
-0.0576772
0.00469576
0.0340639
-0.292714
-0.23677
-0.0424312
-0.0173469
-0.370176
-0.104885
-0.0335748
-0.0911677
-0.00523629
-0.0265421
-0.278372
-0.246771
-0.0811299
-0.0234649
-0.343229
-0.077999
0.0178716
-0.00304224
-0.0305159
0.0125479
-0.253343
-0.249862
-0.111782
-0.0313972
-0.347195
-0.0712465
-0.0261605
0.00945156
-0.0312541
-0.0505681
-0.221119
-0.226617
-0.0470489
-0.0294384
-0.30593
-0.0921315
0.0459322
-0.0716575
-0.0123404
-0.0740671
-0.25694
-0.206404
-0.105744
-0.00379977
-0.337583
-0.0432096
-0.00482815
-0.0615049
0.028283
-0.0248022
-0.285183
-0.259716
-0.0646392
-0.0703683
-0.308268
-0.0344055
0.0218934
-0.0330811
0.0436375
0.0440138
-0.175782
-0.233632
-0.0621441
-0.022322
-0.267754
-0.00764972
-0.0308384
-0.0868948
0.0855947
0.0484808
-0.20972
-0.211291
-0.057947
-0.0537263
-0.211345
-0.00864384
-0.204423
-0.0963689
0.134057
-0.0956064
-0.0371334
0.147218
0.200051
0.0120817
0.141969
0.15787
-0.00691369
-0.0753477
0.0901952
-0.0116977
-0.0368557
0.158817
0.194541
0.079073
0.0635987
0.24686
0.0566019
-0.0514426
0.000291795
-0.0148383
-0.0232673
0.193725
0.25581
0.0804084
0.0148147
0.270072
0.127894
-0.0694968
0.0444777
0.0439484
0.0341944
0.215892
0.23493
0.0507009
0.0291212
0.269075
0.0656817
0.0310542
0.00124688
0.0851161
0.0842394
0.188228
0.246058
0.0471915
-0.00247869
0.256874
0.140599
-0.054381
-0.0189304
0.00295025
0.0790866
0.229709
0.254886
0.0924808
-0.059196
0.215466
0.0639421
-0.0534061
-0.0641445
-0.00122072
0.0905571
0.21054
0.238535
0.0754867
-0.00218169
0.24009
0.107208
0.00849528
-0.0423874
0.0271817
0.0868657
0.165967
0.227775
0.0970543
-0.0539599
0.245216
0.103415
0.0159544
-0.0118632
0.00280103
-0.00267917
0.173374
0.194051
0.110648
0.0191592
0.240492
0.116881
0.0185005
0.0126546
-0.058515
-0.036895
0.149746
0.232941
0.0608972
0.0649569
0.189966
-0.00492519
0.00143122
0.0364626
-0.0742512
-0.0665548
0.11972
0.177074
0.0509148
0.0978607
0.177097
-0.0277298
0.0828202
0.0159802
-0.0571064
0.0726796
0.00749111
-0.10727
-0.219722
-0.0543383
-0.0466927
-0.224318
-0.0665133
0.0411424
-0.00294631
-0.00376519
0.0171553
-0.163609
-0.151321
-0.064459
-0.0498093
-0.249899
-0.0610553
-0.00883516
-0.0128245
0.0223866
-0.027221
-0.145838
-0.241263
-0.105488
0.00633426
-0.272397
-0.100435
-0.00601387
0.00447297
0.0267508
-0.0421708
-0.213647
-0.178421
-0.0786388
-0.0111421
-0.284947
-0.048577
0.0190641
0.0334783
0.00472731
-0.0718364
-0.182993
-0.229583
-0.00632931
-0.0490493
-0.263788
-0.0843699
0.00911036
0.0173576
-0.0523896
-0.0655269
-0.216721
-0.245089
-0.088393
-0.0306615
-0.205411
-0.0478793
0.0154957
-0.0254676
-0.0140991
-0.0577935
-0.164525
-0.17518
-0.017291
0.0217891
-0.237891
-0.0775327
0.0248517
-0.0388876
-0.0273915
-0.0633396
-0.201686
-0.157252
-0.0873373
-0.0367816
-0.192903
-0.0271487
0.0225068
-0.0147083
0.00817423
-0.00815333
-0.163482
-0.17973
-0.0390385
0.00842917
-0.202194
-0.0485889
0.00383426
-0.0445067
0.0405481
0.0369963
-0.138955
-0.206396
-0.0130215
-0.0431317
-0.145751
0.0254643
0.0203588
-0.0498423
0.00333392
0.0677335
-0.118899
-0.166622
0.023644
-0.024307
-0.159141
0.0306014
-0.235198
0.00759115
-0.0434588
0.00783164
0.0452483
0.0968101
0.328844
-0.0799037
-0.0242241
0.187358
0.055602
0.0799023
0.0135192
0.0518902
0.0659458
0.0632432
0.355035
-0.043976
-0.0154056
0.211833
0.0261293
0.012984
-0.0493973
0.0359293
-0.00110312
0.0923609
0.39279
-0.0569205
-0.0325593
0.189006
0.0769863
-0.00698529
-0.00485679
-0.0169324
-0.0243737
0.022141
0.415085
-0.0716575
-0.00900712
0.163371
0.0446346
0.0577421
-0.00988265
0.0222482
-0.060536
0.0202869
0.310797
-0.013616
-0.00130047
0.172602
0.0226991
0.0292401
-0.0509946
0.0371798
-0.00484449
0.0427485
0.360937
-0.0389266
-0.0413816
0.205079
-0.024466
0.0498063
0.0405055
0.0141169
-0.0385023
0.00798713
0.425963
-0.083718
-0.0343256
0.147978
0.0401182
0.0390759
-0.0448705
-0.00684066
0.00422386
-0.0315446
0.415415
-0.0595173
0.0350455
0.103332
-0.0203961
0.0950676
0.0064402
0.00133383
-0.0306859
-0.015431
0.402178
-0.0482041
0.0115532
0.0826531
0.00963264
0.0969322
-0.0142634
0.0211828
-0.0452831
0.0233552
0.409215
-0.112261
0.0402887
0.0797526
0.0207025
0.120342
-0.0156729
0.0553029
-0.0568743
0.0362936
0.312979
-0.154919
0.0131938
0.0524111
-0.0352201
0.113485
-0.104358
0.644135
-0.688839
-0.535453
-0.261588
0.138135
-0.108334
0.664052
-0.124534
-0.220709
-0.155646
0.298397
-0.389031
-0.249197
-0.260988
0.107527
-0.103294
0.275801
-0.195557
-0.158196
0.0351149
0.13444
-0.223111
-0.170784
-0.12035
-0.10197
-0.136519
0.105755
-0.119062
-0.0880426
0.277018
0.0213998
-0.119996
-0.0799746
0.0187036
-0.248055
-0.167345
0.034159
0.0509618
-0.0298589
0.355515
-0.0731563
-0.0035426
-0.0235165
0.00687294
-0.21159
-0.110319
-0.0389293
-0.0769377
0.0231618
0.287997
-0.0775783
-0.03212
-0.0492496
0.00841393
-0.202068
-0.140393
-0.0479076
-0.0553442
0.0359401
0.374672
-0.0238201
0.0667983
-0.0457601
0.115332
-0.147947
-0.205303
-0.0556006
0.0423566
-0.0588282
0.228608
-0.00288817
-0.0824399
-0.0989416
-0.109615
-0.120818
-0.205999
-0.00482985
-0.137644
-0.124472
0.262076
0.0881976
-0.175921
-0.169102
-0.206874
0.0340576
-0.135675
0.137284
-0.157695
-0.0651723
0.0636066
0.202617
-0.277301
-0.193389
-0.172298
0.115611
-0.113487
0.251484
-0.184137
-0.109576
-0.0124108
0.416912
-0.47052
-0.352498
-0.231091
0.28704
-0.131725
0.476529
-0.234053
-0.243643
-0.218863
-0.045317
0.0634131
-0.0524356
0.00765669
0.21271
0.180946
0.00816891
0.0743286
0.21224
0.00745772
-0.0561095
0.0317973
-0.0113577
-0.0316819
0.19091
0.214205
0.0362316
0.0427976
0.214686
0.0879876
0.0226098
0.0138007
-0.00842723
0.0235378
0.211124
0.204458
0.04261
0.0733765
0.3272
0.0560064
0.00758239
0.00684682
0.0188507
0.0382508
0.232343
0.204085
0.0491518
0.0672328
0.272
0.0927978
0.0458321
0.0243293
0.045512
0.0175894
0.219577
0.187829
0.038403
0.0607776
0.232012
0.068671
0.0102826
0.0619938
0.0151892
-0.00605729
0.198258
0.147732
0.099047
0.0376736
0.21101
0.10305
0.0123078
0.02611
-0.0455181
0.0412628
0.156624
0.208565
0.0546495
0.0453114
0.237938
0.0913256
-0.0316056
0.0237999
-0.0265632
0.0159887
0.227874
0.214887
0.0263163
0.000889039
0.271297
0.0221848
0.0015175
0.0219483
0.0293941
-0.00657269
0.190574
0.177181
0.0540936
0.0358395
0.211144
0.0555999
-0.0219219
0.00625349
-0.0656801
-0.0202964
0.176744
0.166831
0.000295337
0.0258696
0.177919
0.0563211
-0.0470631
0.0843908
-0.0620553
-0.0503953
0.111682
0.124585
-0.00864678
0.0468812
0.180568
-0.0407493
0.173719
-0.0110017
-0.0203113
-0.00178267
0.0193717
-0.0139067
-0.000306289
-0.0255655
0.00245236
-0.0287459
0.0198566
0.058289
-0.00973623
0.0168659
-0.0142875
0.0854324
-0.0525168
0.0251021
0.000615714
0.037363
0.000580988
-0.0270626
0.0271349
0.00983286
0.0048213
0.0536045
-0.0633176
0.0649129
0.0809966
0.0435215
0.0486234
-0.0532942
0.0779713
-0.0405854
-0.00522962
0.0337334
-0.0365623
0.0191334
0.0531687
-0.0285161
-0.0025083
-0.0494943
0.00303612
-0.0257871
-0.0613255
0.0276041
-0.0267617
0.00973276
0.016583
0.0561482
-0.0478303
-0.012565
0.01677
-0.037467
-0.0124105
0.0732375
-0.0909309
0.0393072
0.0832744
-0.0236429
-0.0188497
-0.00521531
0.0250716
-0.0577006
-0.033333
0.0710017
-0.035017
0.0521363
0.0287156
0.00646897
0.0288451
0.00363682
0.0512495
-0.000284826
-0.01086
0.0718341
-0.0822077
-0.00984618
0.0102286
0.0200743
0.0534255
-0.052955
-0.0154588
-0.0471054
0.0218539
0.0666633
-0.105121
0.0616098
0.01331
-0.00389525
0.0498161
-0.00351052
0.0568586
-0.0314955
0.0468119
0.0237146
-0.105782
0.0525262
0.061217
0.0491319
-0.0202845
0.00514145
-0.0166782
0.04074
0.0161624
0.0901324
-0.0751018
0.0522932
0.0432581
0.07837
-0.019023
0.149176
0.0854148
-0.734601
0.67523
0.544347
0.273198
-0.155957
0.183894
-0.67759
0.119779
0.255349
0.172096
-0.304165
0.401278
0.316411
0.24027
-0.157624
0.0897089
-0.306941
0.201056
0.140354
-0.124862
-0.155506
0.163807
0.158373
0.150374
0.0716676
0.107603
-0.0797867
0.144606
0.104358
-0.291193
-0.0800349
0.057831
0.166791
0.0135912
0.227189
0.134745
-0.0333241
-0.0935072
0.0506565
-0.385872
0.0425388
0.0120282
-0.0380385
0.0259398
0.243121
0.0870266
0.048168
0.0402351
0.0297847
-0.255327
0.0623286
0.0207917
-0.0159188
0.0314369
0.206471
0.130076
0.00647085
0.0118249
-0.0378877
-0.429335
0.0419663
-0.0700461
0.0369193
-0.127493
0.136269
0.257067
0.0187096
-0.0762996
0.0365592
-0.221081
-0.0357411
0.035545
0.0793968
0.106872
0.156026
0.197798
-0.04978
0.165731
0.147516
-0.225372
-0.117344
0.162714
0.181104
0.211422
-0.0485587
0.123497
-0.147245
0.149448
0.100635
-0.0909198
-0.171702
0.322742
0.156539
0.176101
-0.0839895
0.139687
-0.25447
0.153
0.158817
0.00286728
-0.457015
0.48064
0.444574
0.241967
-0.314729
0.127848
-0.488389
0.291508
0.231979
0.336587
-0.0198961
0.0522313
0.0440658
-0.0155787
0.132915
0.0817245
0.0219878
0.0515432
0.166935
0.0693146
-0.024856
-0.00893058
-0.0149785
0.035673
0.137329
0.0953827
0.0465942
0.0689114
0.151221
0.0242181
-0.0216646
0.074586
-0.0190397
0.0155286
0.131381
0.154345
0.0706616
0.0687465
0.193628
0.01827
-0.00967827
0.0686081
0.0262729
0.0161803
0.111426
0.138937
0.07326
0.0145383
0.179625
0.0233493
-0.0443777
0.0567527
-0.0330601
0.0102311
0.144647
0.182843
0.0578529
-0.0174873
0.223235
0.0794312
-0.0403651
0.0153407
0.0216546
0.0202654
0.172381
0.112109
0.0218936
0.0263366
0.13939
0.0486165
-0.029646
0.0356632
-0.00990571
0.00560708
0.0982458
0.162035
0.0807079
-0.0261925
0.212385
-0.00123629
-0.0633828
-0.0163348
0.0214626
0.013684
0.150871
0.134519
0.0365359
0.00862784
0.16728
0.00575731
-0.0476571
0.0317955
-0.012328
-0.0284912
0.114064
0.126545
0.00802066
0.0288457
0.214949
0.0074578
-0.0504985
0.0117258
0.0277919
0.0191768
0.154473
0.0911854
0.00491336
0.042023
0.12571
-0.00343136
0.0100002
0.00621368
-0.025005
0.00276399
0.151432
0.150996
0.0655621
-0.00537151
0.135459
-0.00441167
0.209285
0.13583
-0.588534
0.664086
0.485545
0.187069
-0.158863
0.18537
-0.553302
0.172003
0.181466
0.195577
-0.262021
0.380561
0.272377
0.19331
-0.148564
0.11018
-0.315512
0.145498
0.0706121
-0.0188812
-0.101869
0.171991
0.143006
0.113627
0.0669926
0.10013
-0.103636
0.134008
0.118715
-0.274278
-0.0255284
0.0520183
0.112372
-0.0447516
0.205295
0.149107
-0.064764
-0.0567546
0.0611911
-0.300315
0.0607402
-0.0167
-0.0127853
-0.0186213
0.215342
0.0925751
0.00834073
0.0616427
0.0245673
-0.257159
0.0517039
-0.00768472
0.0176856
0.041653
0.162775
0.0742035
-0.000756572
0.0349697
0.0196027
-0.333185
0.059679
-0.0444806
-0.0106689
-0.0945967
0.106737
0.220817
-0.012853
-0.0137693
0.0361584
-0.16209
0.0352641
0.0784277
0.0358529
0.09077
0.170145
0.191193
-0.0230695
0.186867
0.0716256
-0.241694
-0.0913218
0.155088
0.11944
0.206716
-0.0525418
0.0921051
-0.122964
0.124271
0.0842708
-0.106573
-0.16538
0.214634
0.138928
0.137353
-0.137942
0.0534183
-0.223874
0.15395
0.139172
-0.00316674
-0.386476
0.450928
0.277791
0.193117
-0.30674
0.0784358
-0.424203
0.214741
0.129972
0.251816
1.3881
0.11223
0.347911
-0.653612
-0.323333
0.615732
0.376113
-0.282508
-0.122956
0.289283
0.598742
0.0837472
0.71932
-0.115348
-0.760049
0.49184
-0.511683
-0.0185773
0.225445
0.581419
0.242092
0.488641
-0.100108
0.120906
-0.386625
0.761557
0.408892
-0.233663
-0.208282
0.0776874
-0.66716
0.11447
-1.18156
-0.00345827
-1.66903
0.101427
-0.801852
0.00539521
-0.0800607
-0.139143
-0.135401
0.57173
-0.480334
0.127189
1.24017
-0.997325
-0.205538
-0.198184
-0.255028
0.0910796
0.0860249
-0.0399255
-0.91807
0.37411
-0.179083
0.304884
-0.441825
-0.559836
0.751576
0.248905
0.0364054
-0.661192
0.214226
-0.316887
-0.0618572
-0.276972
-0.166507
-0.222467
-0.132175
0.0141364
-0.572111
-0.0980345
-0.423228
-0.228035
-0.181664
-0.483058
0.000405004
-0.289778
-0.176014
0.725888
0.405897
-0.711265
-0.0510881
-0.216994
-0.731753
-0.428947
-0.921104
-0.543859
-1.05237
0.485669
-0.384535
0.273849
0.486905
-0.0349502
0.0446898
0.268161
0.899028
0.117029
-0.0436497
-0.0351514
0.782265
-0.904548
0.218308
0.31569
-0.248879
0.245804
0.883399
-0.098495
1.1913
0.231099
0.225463
0.567367
0.0657699
-0.105112
-0.20131
0.462186
-0.00152054
8.43823e-05
-1.19215
-0.00141476
-0.738115
0.436127
0.988676
0.448779
-1.55982
-0.182559
0.497199
1.03504
0.318157
0.173383
-0.363524
0.0893491
0.0977733
-0.777677
-0.414437
1.83518
1.16623
0.179216
-0.0123387
0.486992
-1.28761
0.650398
-1.83098
-0.646738
0.199858
0.399435
0.186956
0.327509
-0.625706
-0.995706
-1.66638
-1.48685
-0.329564
-0.224341
-0.0499068
-0.2231
0.381004
-0.487561
-0.613245
0.344907
0.802366
-0.383832
-0.150208
0.584999
-0.275477
1.07574
0.0759482
-0.162042
0.0931763
0.196727
0.233251
-0.75297
-0.586585
0.394394
0.346993
0.330296
-0.3945
0.327452
-0.360904
-1.19386
0.0392307
-0.358065
-0.747766
-0.0160203
0.340105
-0.866196
-0.0577958
0.239961
-0.0787752
0.232724
-0.645687
-0.339999
-0.818079
-0.415315
-0.319919
-0.201077
-1.11407
0.435371
-1.04333
0.299124
0.185757
0.181189
0.277284
0.621388
0.384421
0.119273
-0.654944
0.0734135
0.0496547
-0.237734
0.61276
-0.946908
0.133179
0.608073
-0.170639
-0.0393213
0.776436
-0.0090999
0.492105
-0.178298
-0.150657
0.00791386
0.321889
0.531253
-0.235286
0.600977
-0.173167
0.169467
0.247298
-0.147665
-0.080758
-0.42555
-0.398013
-0.36521
0.450519
0.135407
-0.489908
-0.128435
-0.264119
-0.623155
0.125964
0.544563
-0.0750012
-0.017517
0.457142
0.41588
0.0695437
0.0617797
0.62528
-0.0260518
0.607537
0.817177
-1.02552
-0.305872
0.487502
0.224973
0.0664323
0.0470586
-0.202425
0.890874
0.087154
0.743462
-0.40094
0.0491518
-0.155091
-0.496193
-1.0803
0.140147
-0.116339
-0.242435
0.168261
-0.659593
0.160361
1.08028
0.404688
-0.990637
0.356307
0.254678
-0.534914
0.852814
-0.502181
-0.0315196
0.39207
0.503163
0.667757
0.533327
0.466329
0.551745
0.081749
-0.435062
0.496826
-0.463839
-0.0119612
-0.043375
0.219664
-0.717689
0.865912
0.39838
-0.651615
-0.846674
1.23399
0.239147
0.17368
-0.395756
0.826261
0.80332
-0.319132
0.315316
1.1355
0.684934
0.0295324
0.194425
-0.844618
0.904961
-0.0559619
0.154284
-0.376927
0.0877808
0.652718
1.19695
0.972259
-0.756742
0.515033
0.511268
-1.0322
0.0785602
-0.974892
-0.577318
0.782178
0.855051
0.650181
-0.0821928
0.812716
0.350788
-1.18882
-0.882007
-0.0418857
0.0703731
-0.331219
0.17201