0.63979
0.540118
-0.348451
-1.46942
1.29198
0.378841
1.61183
0.33899
0.398952
0.138031
1.31382
0.377378
-0.425344
0.207753
-1.48711
1.36312
0.739607
1.1119
0.3864
0.36656
-0.516601
0.00117357
-0.686919
1.42907
0.490976
2.52202
-1.88464
0.169913
-2.65841
0.451907
0.843628
-0.0897768
1.49358
0.832238
-0.149169
-0.0900234
-0.59891
0.525413
0.804792
1.03153
1.23062
0.262432
1.45335
0.0140811
0.974505
-0.658314
-0.188983
0.368581
-0.483675
-0.257078
-0.263907
0.776392
-0.366055
0.477292
-0.645394
-0.806537
-0.444241
-0.412515
0.926538
-0.898155
-0.858305
-1.69951
-2.00055
-1.17757
-0.4216
-0.295311
-1.08796
-0.556463
0.132109
-0.309803
0.0741324
-0.856726
0.867911
-1.12331
-0.636437
-1.05774
-1.78922
1.76871
-0.726507
0.621519
-1.11623
1.41163
-0.58134
-1.33189
0.266269
-1.02864
-1.34282
0.451387
0.619273
-0.716881
-0.982945
1.12416
-2.51149
-1.7927
0.158552
-0.157705
0.794964
-0.107837
-0.178227
0.740422
-0.16654
-1.13161
0.261765
0.216654
-0.300665
0.167595
-0.0891356
-0.16806
0.452882
-0.394157
0.430975
-0.53854
0.365666
0.0716263
0.23958
0.709746
0.0370165
0.113235
-0.087711
-0.306862
-0.317131
0.122583
-0.140109
0.110514
1.65223
0.0130891
-1.35864
1.35367
-2.31311
2.87309
-1.21309
-2.7105
0.0676666
-0.392258
-2.49991
1.4926
0.920095
-2.47111
-3.06879
1.88018
-0.706243
0.0918201
1.34267
-1.22804
2.2805
-2.73774
1.15092
2.37225
-0.0291903
0.143001
2.31155
-1.51289
-0.821309
2.19253
3.0636
-1.72125
0.353542
0.748351
0.434114
-0.328888
-0.0919155
0.766362
0.459281
-0.134887
0.15098
-0.557467
-0.661282
-0.5062
-0.215237
0.20269
0.0471837
0.716806
-1.1257
1.00495
-0.3222
0.446384
-0.800119
0.525869
-0.178293
-1.3489
0.289374
0.0812197
-0.6471
0.0560719
0.507182
0.482366
0.643397
0.455883
-1.88877
0.176437
0.377062
-0.32713
0.650392
0.848239
0.285262
0.483588
-0.35278
-2.75546
-0.653509
0.00151293
-0.37961
1.31799
0.134031
0.841118
0.328864
-1.47772
0.238705
-0.477101
0.49598
0.559861
-0.060145
0.421014
-0.173845
-1.53149
-0.489096
0.145084
-0.500355
0.37533
-0.371192
0.506599
0.568737
-0.238116
-0.651398
0.619574
-0.927438
1.65766
-0.653599
-1.24228
0.0843999
-0.711594
-1.28161
0.724118
0.44796
-0.903706
-1.71328
1.00636
-1.70565
-0.591169
0.368202
-0.490383
0.257483
-0.43291
-0.164067
-1.02425
0.0444397
0.149124
0.113981
0.0173374
0.0718916
0.264698
0.246951
0.345246
-0.163677
-0.721437
0.266859
0.195796
-0.398112
0.0788194
0.20547
0.692342
0.54655
-0.630646
0.586015
0.497966
0.808086
-0.0622801
-0.225091
-0.273371
0.0216327
-0.824674
0.0793253
-0.245631
-0.589772
0.0621306
0.235819
-0.101784
0.00695065
0.0828201
0.664152
0.245853
-0.374483
0.226693
-0.446812
-0.249422
0.404237
0.41087
-0.311602
-0.0224185
-0.533193
0.17076
-0.392761
0.00634949
-0.0666107
-0.336467
-0.138617
0.00317006
0.113974
-0.0279205
-0.0653701
0.354693
-0.119771
0.357366
0.110164
0.179679
-0.187412
-0.165003
-1.07903
-0.0436157
0.101515
0.222046
0.128212
0.343551
0.219849
0.221051
0.131246
0.249127
-0.0647255
0.00303589
-0.494065
-0.269368
-0.128252
0.0441079
-0.0618437
-0.268114
0.650427
0.0833577
-0.244679
-0.196168
0.278526
0.431651
0.478842
-0.321265
0.640226
0.125545
0.011665
0.532818
0.0955691
-0.134277
0.0669574
0.00698558
0.354697
-0.37997
0.370065
-0.0645114
0.457849
-0.202464
0.083136
0.319385
0.0167917
-0.190093
0.0699567
-0.29575
-0.0134619
-0.152498
0.297712
0.173163
0.167669
-0.125258
0.119312
0.0887029
-0.0627511
-0.154078
0.0882343
-0.6122
-0.689499
-0.251115
0.0121656
0.0713702
0.219368
-0.0814742
-0.348079
0.0976971
-0.0503177
0.219882
0.600378
-0.0455942
-0.183682
-0.0664403
-0.00404262
-0.055321
-0.0299847
-0.0864368
0.625422
-0.324337
0.319674
-0.00935473
0.481441
-0.0837035
0.265579
-0.350339
0.253888
0.176021
-0.0575605
0.00988306
-0.0104338
-0.260277
0.117387
-0.17274
-0.0679031
-0.189004
0.36237
0.163667
0.311805
-0.153528
0.161183
0.336324
-0.56003
0.619135
-0.128967
-0.148081
0.0729464
0.982927
-0.260402
-0.115729
-0.402101
0.229753
-0.197875
0.301996
-0.213939
-0.478761
-0.460562
0.344454
0.326224
0.423919
0.413747
-0.330676
-0.523202
0.0138088
-0.533765
0.159049
0.261876
0.772824
0.154971
1.1597
-0.518673
-0.33974
-0.221757
-0.209183
0.475137
0.461012
0.392823
0.473086
-0.488526
-0.578666
-0.888262
-0.19531
0.877246
-0.309443
0.161023
-0.468193
0.455654
-0.185713
-0.471621
0.0816974
0.319028
0.272299
0.520749
0.254659
0.46769
-0.316321
0.122247
-0.224107
0.0879116
-0.265265
-0.215687
0.0977451
0.157771
0.0469726
0.0285173
-0.819588
0.476731
-0.7113
0.132558
0.645625
1.09173
-0.165522
-0.538966
-0.268181
-0.00627935
-0.244723
-0.367143
-0.457684
-0.101868
0.0666505
0.617833
-0.55159
-0.204267
0.660722
0.28903
0.198934
-0.204134
0.703434
-0.530751
0.0857782
0.164294
0.278451
0.0277513
-0.393842
-0.41708
-0.33964
-0.743967
0.138652
-0.450138
-0.228285
0.0553449
0.371114
-0.0918874
0.283935
0.0303345
0.1231
0.2243
-0.626484
-0.318593
0.359491
-0.440372
-0.280392
-0.187992
0.144191
0.0702951
0.180052
-0.139837
0.721641
0.174312
0.21648
0.112435
-0.027245
-0.341402
0.138733
-0.114289
-0.0172522
-0.356097
0.353678
0.59471
-0.108278
0.107628
-0.0731691
0.0787075
-0.00492255
0.713233
-0.0418566
0.0373327
0.143712
-0.343706
0.453905
0.108611
-0.0677971
-0.0120081
-0.242352
0.0358243
-0.17415
-0.757867
-0.193702
0.170743
-0.145194
0.599886
-0.267454
0.225957
-0.0628312
0.508019
0.267579
-0.237978
-0.448592
-0.472901
-0.300143
-0.169242
-0.598227
0.107305
-0.17722
0.601675
-0.0416937
0.350641
0.333113
0.24286
-0.041802
-0.877786
0.27747
-0.44959
-0.273446
0.0135518
0.657571
-0.145431
-0.304002
-0.352984
-0.122359
0.152901
-0.0676455
-0.196758
0.0320925
-0.0512337
0.495013
-0.324828
-0.17128
0.810613
0.442783
-0.357107
0.845406
-0.243833
0.025575
-0.0333546
-0.410061
-0.423663
1.26061
0.0923102
-0.0704206
-0.598969
0.109423
-0.0783469
0.623862
0.568151
0.934383
-0.158879
-0.356468
-0.612423
-0.194893
1.85847
-0.023308
0.0164868
0.143645
-0.117881
0.271157
-0.291605
0.467679
0.00863517
0.22896
0.0751461
-0.0811135
-0.11904
-0.535421
-0.106893
-0.293887
-0.353238
0.590601
-0.0488074
0.908286
0.278397
0.379519
-0.3602
-0.129263
-0.384197
0.356547
-0.311243
-0.199141
0.147376
0.0357984
0.0541538
0.257792
0.116773
0.570168
-0.425298
-0.173276
0.270706
-0.138674
0.0123317
-0.138443
0.210468
0.11043
-0.327008
0.00956804
-0.410823
-0.029205
0.500014
0.264217
0.329136
-0.0925966
-0.30874
0.194974
0.502843
-0.134922
-0.0398553
-0.377594
-0.227816
-0.00149334
-0.269885
0.458717
-0.0376381
-0.136692
0.0552635
0.148276
0.159775
-0.203589
-0.00437953
0.0939536
-0.0496549
0.084923
-0.18477
-0.153507
-0.014473
0.155849
-0.090965
-0.171181
0.0696609
0.32412
-0.153021
-0.0446107
0.0164902
-0.200515
-0.135212
-0.23112
-0.135659
-0.381567
-0.128729
0.00731443
-0.299581
0.259962
0.0569671
-0.354533
-0.233782
0.0308024
-0.0772183
-0.52866
0.132205
-0.105655
-0.363798
0.181715
-0.0909627
-0.182664
0.0236389
-0.23632
-0.388767
0.0361636
0.321019
0.172362
0.0457803
-0.158603
-0.0290282
0.0248553
0.29476
0.237171
-0.267395
0.0901048
0.166431
0.35519
0.027678
-0.0152789
0.0850094
-0.0723775
0.411682
0.279149
-0.0243421
-0.242917
0.141467
0.216471
0.0912602
0.306948
-0.335088
0.194633
0.397147
0.397623
-0.00643264
-0.1767
0.108936
0.394641
-0.115097
0.0635235
0.00613196
0.0237923
0.0652746
-0.402606
-0.105681
-0.173355
0.000765215
-0.0716238
-0.17352
0.159115
-0.09214
-0.0364511
0.0659105
0.425398
-0.0301841
-0.321515
0.0125756
0.163648
0.551061
-0.244601
0.362008
-0.0664382
-0.367437
0.0488913
0.0875085
-0.0758989
-0.151454
0.0846099
0.634201
-0.214569
0.271049
-0.274124
-0.328393
0.0150713
0.325906
-0.509769
0.043716
0.221903
0.927139
-0.0126648
0.360352
-0.368984
-0.247085
0.118261
0.112469
0.339408
0.00140427
0.428015
0.3587
-0.0705357
0.0141959
-0.183986
0.334195
0.746046
0.0893233
0.242261
-0.304213
0.0666347
0.453136
-0.38206
-0.160096
-0.0877349
-0.281922
-0.081909
0.179482
0.15855
0.325455
0.0655091
0.12813
0.0724461
-0.34644
-0.034507
-0.0764552
0.172865
0.366521
0.290684
0.129534
0.16977
-0.0186576
-0.0584743
-0.077808
-0.0928121
-0.0186741
0.294013
0.0497874
-0.209956
-0.143772
0.186812
0.153132
0.0344586
0.0560153
-0.230624
0.0307866
0.163857
0.155225
-0.10089
-0.195279
0.550799
0.073907
-0.0582549
-0.0814996
-0.186984
0.211268
0.256424
0.232071
-0.187195
0.113632
0.408721
-0.183681
-0.197101
-0.0996685
-0.209648
0.238448
0.229887
0.429565
-0.0844529
0.0123622
0.432042
0.169583
0.147462
0.0880148
-0.245642
0.165231
0.311423
0.513938
0.0881309
-0.0688081
0.11904
-0.267708
0.154706
0.391799
-0.0536117
0.103323
0.35763
0.113613
0.107888
0.0113367
0.0122269
0.114679
0.135546
0.173246
0.0358431
-0.217154
0.150037
0.407755
-0.191315
-0.0374712
-0.111458
0.12514
0.102375
0.160184
0.489649
-0.385989
0.084225
0.105023
0.0599331
-0.0852124
-0.0917731
0.336546
0.333948
-0.0682501
0.0768177
-0.431398
0.356908
0.063396
0.0809002
-0.217548
-0.117038
0.2365
0.150369
0.0978516
-0.0716515
-0.212154
0.183493
0.449202
0.0790216
0.864869
-0.460274
-0.999434
-0.548828
-0.524129
0.135483
0.663953
-0.703717
-0.962969
0.324004
-0.206885
0.112156
0.290912
0.606875
0.0555513
0.195177
-0.271021
0.236594
0.251695
0.04608
-0.125125
-0.000318355
0.176437
0.277314
-0.187257
0.224315
0.10745
-0.00608962
0.216983
0.302816
-0.126684
0.11532
0.28748
0.339245
0.00334018
-0.0204028
-0.0456315
-0.0450494
0.221149
0.0700846
-0.322241
0.113665
0.0171855
0.393385
0.0740519
0.277817
-0.0190806
-0.168731
0.0558985
0.221526
0.521054
0.0808844
0.225625
-0.211069
-0.0935105
0.0210767
-0.183049
0.0729896
0.524023
0.173401
0.414996
-0.235816
0.435796
-0.0488617
-0.00746299
0.146045
-0.23729
0.229508
-0.41329
-0.306141
0.304332
-0.0740195
0.124759
0.220158
0.0178461
-0.00801968
-0.180277
-0.127934
-0.12137
-0.123975
0.0502691
-0.30913
0.38959
0.132586
0.136731
0.147168
-0.10653
0.0107032
-0.0857571
-0.172159
-0.0779459
-0.249172
0.073095
-0.130171
-0.0544124
-0.0175519
-0.0688106
0.219934
-0.132526
-0.193924
0.170211
-0.297193
0.323969
-0.186675
0.41686
0.120001
0.341997
-0.184276
-0.186852
-0.380394
0.762574
-0.322564
0.242662
0.264309
0.612283
0.272899
0.147823
-0.0673363
-0.0858046
-0.185391
0.369905
-0.237885
0.141249
0.000197889
0.246072
0.130479
0.0480832
0.0627951
-0.144425
-0.406951
0.0551831
-0.128096
0.0813986
-0.286287
-0.0052359
-0.059212
-0.100907
0.0673659
-0.182035
-0.45349
0.081295
-0.195427
0.26188
-0.137445
0.318649
0.262472
-0.189835
0.180075
0.0823784
-0.421881
0.28265
-0.230416
0.379341
-0.143455
0.177427
0.376861
-0.307665
0.123552
0.0276979
-0.271188
0.364435
-0.441855
0.451198
0.163158
0.290504
0.448376
-0.175515
0.0258024
-0.0545322
-0.240357
0.12073
-0.14136
0.0275139
0.139681
-0.0279077
0.0136763
0.0587666
-0.0879093
0.011277
0.111493
0.220734
-0.0045787
-0.112587
0.179431
-0.0857325
0.153197
0.189954
0.08263
0.00668983
0.198494
0.0994821
-0.048759
-0.0457358
0.0589392
0.172139
0.0596399
0.270767
0.115633
-0.218614
0.198239
0.294048
-0.192099
-0.096703
-0.0295484
-0.0123585
-0.0309947
-0.0128412
-0.104685
0.0566172
0.0687164
0.0261389
-0.0158928
-0.121611
0.0538244
0.0514061
0.0447652
0.0755107
0.143183
-0.112359
0.132554
0.241137
-0.029355
0.099276
0.0491335
0.059619
-0.157496
0.0404098
-0.00642511
0.0560286
0.152775
0.203953
0.107183
-0.101177
0.137836
0.327359
0.143341
0.0905627
0.00486242
-0.235046
0.171042
0.370237
0.00522413
-0.437392
0.0850234
0.139814
0.244925
0.0123541
0.0492497
-0.16537
-0.0129099
0.0674072
0.275217
-0.209234
0.269276
0.06219
0.346206
0.302944
-0.0251043
-0.0627526
0.0589702
0.278082
-0.0795901
0.288761
-0.254797
-0.276429
-0.206699
-0.256453
0.105052
0.166451
-0.216772
-0.154059
0.285699
-0.131047
0.232151
0.118837
0.173024
0.138296
0.0493504
-0.0870747
0.0103261
0.148585
-0.0959154
-0.216215
0.0380793
-0.0421712
0.100062
-0.0994634
0.0460935
-0.162418
0.0220088
0.192723
0.202245
0.0920032
-0.192432
0.0977227
0.296629
0.227649
0.248428
0.227066
-0.332503
0.204097
0.323794
-0.139488
-0.2063
0.229969
0.271776
0.116083
0.244098
-0.0802925
-0.195566
0.273037
0.205823
0.0255253
-0.0310037
0.134017
0.181766
0.116073
0.108187
-0.0397709
-0.0218786
0.0188408
0.0775409
0.0161873
0.143863
0.0182974
0.211403
0.0571403
0.157725
-0.0342888
-0.134392
0.193972
0.309091
-0.0360279
-0.107905
0.171718
0.1466
0.199087
0.089898
0.0200849
-0.20311
0.245272
0.203529
-0.173628
-0.0169453
0.175223
0.0552413
0.0749674
-0.0144487
-0.0694724
0.005217
0.0581079
0.0893034
-0.158897
0.00393404
0.129025
-0.0223191
-0.0171284
0.124078
-0.010254
0.0692633
-0.0858052
0.0631643
-0.0996405
0.270335
-0.209722
-0.195857
-0.253585
-0.188989
0.159916
0.0115442
-0.31435
-0.252758
-0.187218
0.120078
-0.118779
-0.226454
-0.0868361
-0.153038
0.0342749
0.122846
-0.261367
-0.111806
-0.190069
-0.0281722
-0.172171
-0.243145
-0.0724317
-0.311674
0.172123
0.154613
-0.439852
-0.360209
-0.0187597
0.530923
-0.750021
0.686794
0.675661
0.633495
1.36783
-0.129342
-0.446467
0.781666
1.07647
0.169304
0.0115467
0.146791
-0.232773
-0.136998
0.283774
0.0836395
0.19406
0.134143
-0.100565
-0.0450669
0.112251
0.32473
0.0523998
0.152163
0.397156
-0.332341
-0.0461506
0.236453
0.317983
0.0687725
0.0700304
0.300892
0.25891
0.320616
0.170843
0.0275602
-0.0832959
-0.16938
0.0215623
-0.130306
-0.263724
0.0493744
0.0786387
-0.0554756
-0.0106979
-0.155211
0.111884
0.284615
0.0280968
-0.0846921
-0.224407
-0.0647855
0.222301
0.0201311
-0.0512283
-0.0949189
-0.00701394
-0.00245592
0.0896897
-0.226012
-0.110343
0.0829379
0.13285
-0.0992936
0.187162
0.0127927
0.124018
-0.183838
0.153761
-0.375686
-0.380011
0.290978
0.152878
0.0413374
0.246559
-0.0215997
0.226233
0.0460516
0.143568
0.00146067
-0.263347
0.559842
0.0440415
0.0878921
0.18996
-0.20508
0.325426
-0.105488
0.00271227
-0.122306
-0.433703
0.218111
-0.0201448
0.369642
-0.0823642
0.155603
0.183872
-0.0397582
-0.173593
0.0767265
-0.342136
0.383499
0.306202
0.364791
0.0354033
-0.151245
0.163166
0.00674078
-0.1868
0.178658
0.322617
-1.16595
0.249677
0.617552
1.07758
0.144289
0.347351
-0.466062
-0.152157
0.187234
-0.160722
-0.492413
0.225381
-0.0154154
0.276759
-0.0907728
0.0326184
0.148215
-0.40574
-0.229941
0.0742959
-0.408693
0.429628
-0.325365
0.260311
0.231924
-0.0794234
0.218475
-0.389625
-0.231693
-0.390261
0.0436227
-0.0670467
-0.22571
-0.167275
-0.174033
0.224301
0.117608
-0.356781
-0.20355
-0.48318
0.403264
-0.090337
-0.224721
-0.321276
-0.0449349
0.107341
0.0764591
-0.100568
-0.0382944
0.0160417
0.415872
0.0820474
-0.0989736
-0.0511288
0.0617511
0.168972
0.0438765
-0.0990867
0.153691
-0.354682
-0.0602996
0.0295268
-0.198313
-0.370657
0.149311
-0.170853
0.357271
-0.0216412
-0.104755
0.0446193
0.4133
0.0519615
-0.306552
-0.281929
0.148418
-0.215599
0.168231
-0.109809
-0.293517
-0.187315
0.482363
0.132807
-0.219144
-0.242434
0.350343
-0.041609
0.377418
-0.0912614
-0.0770227
-0.0629991
0.214898
-0.0341707
-0.311594
0.0254953
0.113741
0.0449375
0.219996
0.027769
-0.242919
-0.0376119
0.104506
-0.177316
0.0795575
-0.164641
0.0147608
0.191697
-0.210486
0.24641
0.137031
0.272653
-0.0341093
0.306394
-0.358868
0.111957
-0.334802
-0.294947
0.152261
-0.199427
-0.283978
0.0385545
0.146503
-0.0996046
0.0594776
0.233878
0.11178
-0.0436051
-0.124897
-0.179334
0.0201447
0.0910269
0.197436
0.0596163
-0.0182696
0.230784
0.135256
-0.033662
-0.0926299
-0.0576751
0.0469995
0.227211
0.347291
0.556153
-0.196196
-0.13747
-0.0316911
-0.268132
-0.0128413
0.163919
-0.10242
-0.0041884
-0.122879
0.270675
-0.168369
-0.281185
-0.313756
-0.255491
0.0348322
-0.00435973
-0.209422
-0.303145
0.497096
-0.178839
0.129466
0.158375
0.381586
0.117574
-0.00842794
-0.00760424
0.190577
0.104343
-0.022873
0.391426
-0.305788
-0.00933025
-0.236113
-0.196767
0.10782
-0.101602
-0.10001
-0.0667973
0.00235067
-0.0404559
-0.185655
-0.105545
0.0357482
-0.0437001
0.117198
-0.0835421
0.180184
-0.046417
0.232355
-0.114854
-0.0362761
0.331536
0.310894
-0.136118
-0.0372396
-0.217487
0.172459
0.131963
0.0201612
-0.0523864
-0.120877
0.168123
-0.0740005
-0.0792418
0.17737
-0.102258
0.115752
0.030056
0.224874
0.176743
-0.0494151
0.122254
0.122758
0.0589789
-0.0472145
-0.143798
0.085081
0.0887406
0.00628769
0.42389
-0.0183402
0.259239
-0.102378
0.113981
0.0577607
0.131858
0.140108
-0.206828
-0.312284
0.496381
-0.110564
0.3467
0.0633661
0.326601
0.321615
0.00330645
-0.0787853
-0.108759
-0.312108
0.146002
-0.369095
0.327945
0.111548
0.127476
0.206953
-0.0160575
0.110133
0.0797532
-0.208854
0.332694
-0.137177
-0.0611504
-0.0574916
0.354773
-0.0863464
0.197612
-0.0434878
-0.133156
-0.0407589
-0.118706
-0.265121
0.100398
-0.204331
-0.0653324
0.303006
0.220654
-0.134021
0.119559
-0.241195
0.325737
-0.436248
0.358498
0.0778413
0.524312
0.22129
-0.220931
0.14482
-0.0209826
-0.0670888
0.0507289
-0.165649
0.0438352
-0.175358
0.0711863
0.0309096
0.183122
0.0385694
-0.0506491
-0.399716
0.0460966
-0.255131
-0.0479273
-0.143101
0.0768076
0.0151846
0.166454
-0.00401979
-0.0422676
-0.257698
0.205868
-0.325878
0.195723
0.111332
0.282042
0.368205
-0.20899
0.0613125
0.272031
-0.155372
0.073815
-0.25594
0.109364
-0.00140225
0.0781742
0.0958858
-0.0695445
-0.0303624
-0.00967714
-0.208114
0.158923
-0.353942
0.460508
-0.118621
0.300928
0.404365
-0.359039
0.223668
0.0165052
-0.253861
0.0943093
0.01971
0.11059
-0.118141
-0.022154
-0.0596176
-0.00510382
-0.038023
0.00769385
0.178603
-0.0354482
-0.105663
0.210771
-0.231946
-0.0148965
-0.253879
-0.218807
0.0514707
-0.117956
-0.0243011
-0.0262449
0.183133
0.057812
-0.0179908
0.138456
0.0183643
-0.0753683
-0.177254
0.0295549
0.083408
0.0841728
-0.103587
-0.00524261
-0.253435
0.0335692
0.0465566
-0.153197
0.106068
-0.086623
-0.00535991
0.0796937
0.114278
-0.0154664
-0.068421
0.178268
0.0690211
0.0793791
0.109076
-0.149984
-0.00399871
0.0163029
0.282919
-0.00680808
0.0960358
0.138185
0.175953
0.0806974
0.00215825
-0.182177
0.130034
0.175231
0.187622
0.10958
-0.0488362
-0.0758444
0.0295421
-0.0284839
-0.0742311
0.0862201
-0.137053
-0.105165
0.14025
-0.106994
-0.100233
0.143343
0.0527786
-0.0416667
0.106765
-0.104079
0.185494
0.126889
0.427483
0.02623
0.0373943
0.115504
0.22638
-0.0577374
-0.164097
-0.0150117
-0.0243066
-0.0891937
0.275157
0.0494475
-0.184243
0.246854
0.00534263
-0.0710534
0.0156428
-0.171397
0.0514015
0.224367
0.0955839
0.24302
0.0969637
-0.133869
-0.0105219
-0.0159966
-0.153094
0.00691289
-0.0424712
-0.101702
-0.0712464
-0.0755801
0.384966
-0.0385117
-0.39075
-0.419579
-0.215001
0.0509587
0.304522
-0.484922
-0.549061
-0.183562
0.159637
-0.146333
-0.187099
-0.11712
-0.312206
0.0918163
0.119099
-0.517031
-0.785165
-0.130924
-0.479679
0.0460561
0.943775
0.385689
-0.102651
0.171683
-0.705547
0.481043
0.646662
-0.00326738
-0.17973
-0.234423
-0.0313876
-0.184162
-0.0380044
0.214373
-8.94157e-05
-0.181752
-0.178832
0.0594469
-0.0515752
0.203753
-0.233312
-0.311963
0.0114158
-0.176676
0.270761
-0.156935
-0.277407
0.351515
-0.0159863
0.108582
-0.377618
0.0911104
-0.0484178
-0.337957
0.512939
-0.229046
-0.60879
0.125926
0.258066
-0.158503
-0.197365
0.0423511
-0.0088691
0.367925
-0.0625796
-0.043332
-0.317892
-0.0155012
0.157825
-0.271274
-0.193202
-0.245666
0.0217463
0.238147
-0.137475
0.273584
-0.0320964
-0.153774
0.215147
-0.163691
-0.243037
-0.183687
-0.351825
-0.169907
0.388478
0.0780224
-0.31678
0.0326126
0.121665
0.0468558
0.0257073
0.280835
-0.0451493
0.158611
-0.190091
0.0237377
-0.209065
0.0967754
0.113802
0.0481874
0.110522
0.096223
-0.0714336
0.0636523
-0.0917821
-0.151228
-0.199198
0.392564
-0.293081
0.0630545
-0.130818
0.0101369
-0.197518
-0.0731119
0.105533
-0.176859
-0.117395
0.0563551
-0.372654
-0.116513
-0.206219
0.0845768
-0.202023
-0.0925067
0.399026
-0.269154
-0.0298639
0.207833
-0.316748
-0.0945971
-0.20152
-0.00871507
-0.0436517
-0.0305538
0.178878
-0.119156
-0.0617221
0.0321008
-0.210097
0.0375089
-0.161604
-0.0784094
-0.127798
-0.101502
0.233319
-0.0924196
-0.151883
-0.0536808
-0.0890097
0.0442901
-0.110028
-0.0487215
0.0221503
0.00824782
0.109787
-0.12351
-0.119849
0.0986187
-0.130585
-0.0365169
-0.322195
-0.00089348
-0.0392776
-0.108743
0.201992
-0.1083
-0.147865
-0.0919794
-0.0277722
-0.101827
0.0281026
0.14995
-0.0504656
0.10277
-0.0183512
-0.0888346
0.0547614
0.137853
0.0614433
-0.0276242
0.00920708
-0.125203
-0.0252991
0.0131365
0.00978893
0.0790684
-0.13844
-0.0194077
-0.132202
-0.0107873
-0.0477333
-0.108357
-0.133899
0.146377
0.110479
-0.0172645
-0.0922254
-0.0132008
-0.0615425
-0.031044
-0.234764
0.0217504
-0.0540747
-0.080487
0.209386
-0.0388848
-0.0434477
0.00948901
-0.282376
-0.0865935
-0.210181
-0.132269
-0.180293
-0.0935655
0.161591
-0.0735053
-0.0289998
-0.00390342
0.0622936
-0.0137742
-0.189621
-0.0518817
0.270184
0.159496
0.0117097
0.158306
-0.35008
0.0883272
0.228319
-0.367049
-0.0581003
-0.0316924
0.0704213
-0.308348
-0.193038
-0.0939953
0.0390869
0.0487384
0.155424
-0.353838
0.162598
-0.140336
-0.157394
-0.379129
-0.226081
0.176002
0.0444218
-0.230379
-0.15852
-0.00300661
-0.171784
-0.0910956
0.0271279
-0.0724985
0.0596406
0.243324
-0.0307288
0.0870183
0.130016
0.0229291
0.0525981
0.0168855
0.168959
0.277008
0.0192078
-0.0537293
-0.220719
0.220593
0.162511
0.0191801
0.0998617
-0.248013
0.0934352
0.04096
-0.173901
0.207371
-0.0777633
-0.0616494
-0.0210342
-0.234617
0.17945
-0.269254
-0.115001
-0.478102
-0.30267
0.127066
0.104688
-0.0455531
-0.17984
-0.0433981
-0.0256519
-0.122478
0.13734
0.157207
-0.283315
0.184041
-0.245278
0.0864511
0.101604
0.0203581
-0.476178
0.0332528
0.44983
0.352085
0.036557
-0.005478
-0.237226
0.422738
0.413051
-0.125091
0.18226
-0.0681575
-0.211607
-0.0976154
-0.167752
0.0562927
0.204722
-0.152829
-0.293713
-0.230039
0.22363
-0.314458
-0.170382
-0.313805
-0.020636
0.230785
-0.0825779
-0.116787
-0.116712
0.190312
-0.107607
-0.0136416
-0.00702388
-0.063291
-0.0920867
-0.306188
0.125755
0.223353
-0.264364
-0.285933
-0.0446044
-0.416581
0.168285
0.171897
0.230281
0.144044
0.0218351
-0.266478
-0.0157947
-0.0190686
-0.0431625
-0.313504
0.0103864
0.111126
0.310559
0.0118288
0.269234
-0.0645499
-0.0884075
0.0200738
0.0352955
0.157648
0.0057933
-0.255162
0.00895637
0.0202902
-0.0170505
0.202938
-0.282941
-0.199387
-0.199876
-0.301434
0.166105
-0.0919266
0.0882357
0.046784
0.0560942
0.0674795
-0.0365961
-0.048842
0.0518992
0.084901
-0.0244098
-0.139021
-0.0680751
-0.106244
0.0859185
0.154095
-0.306216
-0.172932
0.152235
-0.210378
0.234833
0.158531
0.214119
0.317925
0.15385
-0.267646
0.222802
0.07818
-0.366652
0.278445
-0.097465
-0.419242
-0.483543
-0.209107
-0.225606
0.430572
-0.379073
-0.389958
0.0603434
-0.406563
0.167705
0.0354817
0.0123158
0.209652
-0.240231
-0.0214445
0.183296
0.0375416
-0.134614
0.227893
-0.0872062
-0.289389
-0.212604
-0.228844
-0.138813
0.335957
-0.29073
-0.4115
0.151868
0.0856593
-0.141701
0.0360022
0.218956
-0.154497
0.149045
0.0201405
-0.218152
-0.0685495
0.0827052
0.140359
-0.321044
-0.103608
-0.0312257
0.393635
-0.174854
0.13815
0.093338
-0.437079
-0.396217
0.237414
-0.296209
0.153244
0.0916605
0.287289
0.00789688
0.109735
-0.160995
-0.219096
-0.190466
0.223271
-0.00626096
0.19932
-0.0485141
0.149143
0.180461
-0.0637811
0.0976048
-0.0865797
-0.0415663
0.196596
0.0242743
0.245301
-0.294246
0.235079
0.320928
0.0119852
0.245681
0.00397911
-0.242977
-0.0513822
-0.0209022
0.28796
-0.204577
0.0497038
0.122932
-0.0892111
0.0451676
-0.119382
-0.144012
-0.168229
-0.200152
0.0325444
-0.165024
-0.179453
0.014812
0.024162
0.162359
-0.185022
-0.206618
0.0836377
0.14008
0.235343
-0.333438
-0.160083
0.363589
-0.0897651
0.115896
0.0393526
-0.154725
0.0607641
0.340623
-0.158549
-0.0209302
-0.108847
-0.0358627
-0.0174569
-0.0310375
-0.0407738
-0.178035
-0.034304
-0.189189
0.127995
-0.0586734
0.13189
0.226957
-0.0459904
0.0120275
-0.204702
-0.256658
0.0673539
-0.109824
0.289014
-0.32898
0.0272725
0.250589
0.0195334
0.191297
-0.217366
-0.334172
0.15703
0.254095
0.194133
-0.450696
-0.0676822
0.206739
-0.0883415
0.41355
-0.319218
-0.160364
-0.0893852
0.0521409
-0.121126
0.248531
-0.322101
0.302029
0.484645
-0.299637
0.205771
0.247888
-0.212579
-0.152708
0.0695967
0.0526604
-0.282675
-0.0619763
-0.0442074
-0.139371
0.278133
0.0360265
-0.212809
-0.0634949
-0.138133
0.23109
0.0227014
-0.10514
0.33936
-0.347977
0.208578
0.278884
0.161329
-0.0576921
-0.369126
0.119604
0.480065
0.209057
0.189763
-0.136115
-0.357175
0.27949
0.162775
0.340419
-0.0624662
0.424327
-0.147058
0.139476
0.190565
-0.163076
0.269086
-0.187632
-0.110215
-0.0292249
1.01325
0.095466
-0.796948
-0.891131
0.110899
-0.266661
0.714334
-0.196483
-0.36364
-0.0122171
-0.222461
0.622721
-0.119129
-0.0105383
0.0316021
-0.143018
0.168651
-0.236578
-0.155435
0.634987
-0.0948342
0.198757
0.214955
0.488017
-0.03322
-0.142357
-0.0111793
-0.196183
0.0189014
0.224795
-0.0168108
0.174458
0.115172
0.136459
0.13904
-0.332633
0.0277816
-0.162468
0.0268255
0.119973
-0.239528
-0.051486
0.0661127
0.159196
0.0895279
0.198246
0.0557825
-0.31687
-0.104469
0.127862
-0.226626
0.109697
0.216465
0.122815
-0.148943
0.172676
-0.141852
0.0599932
0.0687768
0.118166
-0.1247
0.221417
-0.302118
0.214981
-0.158909
-0.10674
0.19487
-0.316095
0.0213985
0.277379
0.0917483
-0.0301052
-0.202138
0.190363
0.0404091
-0.217203
-0.0261084
-0.162175
-0.0797586
0.0594238
0.227883
0.154716
-0.166192
0.184873
0.126932
-0.215562
0.0207614
-0.212395
-0.048182
0.183713
0.202835
0.195612
-0.246373
0.0551546
0.11877
-0.258679
0.142081
-0.100364
-0.200523
0.0907412
0.263738
0.219445
-0.0485139
0.0168899
0.0213288
-0.0138349
0.124376
-0.0846517
-0.183936
0.00548055
0.415447
-0.00690259
-0.0294547
-0.00652079
0.352407
-0.0993781
-0.0860223
0.0757308
-0.0789766
-0.0592885
-0.00630952
0.0142047
-0.279131
0.326525
0.0069428
-0.154603
0.124508
-0.279379
0.16348
0.190784
0.0889672
-0.212825
0.121022
-0.0550861
0.115945
0.153395
-0.183689
0.175161
0.200491
0.0266612
0.0915739
-0.016582
-0.203084
0.221092
0.173423
-0.327634
-0.0876512
-0.0803413
0.0566887
0.101874
0.159476
-0.0344145
-0.290076
0.139919
0.051066
-0.0692308
-0.0397802
-0.0763854
0.0932821
0.0743724
0.0359565
0.0724773
0.0637997
0.10174
0.0555375
0.121664
-0.0457152
-0.0880058
0.136992
0.0569115
0.0601513
0.163014
-0.0276679
0.136236
0.102855
0.249464
0.343535
-0.21613
-0.136269
0.348333
0.210969
0.126301
-0.159305
0.271233
0.0755842
0.0262214
0.267008
-0.0999963
-0.049684
0.116406
0.251646
0.397782
0.455974
0.0585534
-0.2906
0.111786
-0.0463043
-0.256866
0.157168
-0.318423
-0.392647
0.177176
0.240682
-0.00278898
0.0161044
-0.191782
-0.188535
-0.398931
0.196512
0.161515
0.00826047
0.348648
0.220652
0.0398309
-0.0180849
-0.185614
-0.0468443
-0.21743
0.231795
-0.000468492
-0.129151
0.110544
-0.0392555
0.347655
-0.36657
0.0835523
0.047912
-0.0744852
0.280922
0.0560132
-0.0158249
0.111796
-0.0985558
-0.0669972
-0.0377093
0.0458446
0.0631095
-0.0530264
0.0729663
-0.145639
0.0584332
-0.140605
0.00227208
0.178181
-0.240873
-0.133353
0.0358961
-0.251167
0.37793
-0.0683302
-0.188173
0.204368
0.0562641
-0.00256835
0.00319654
0.328512
-0.138823
0.227227
-0.0566331
-0.00950704
-0.148037
0.181187
-0.219834
-0.0946556
0.255796
0.473298
-0.153144
0.206749
-0.192128
0.145942
0.191817
0.483648
-0.0826169
0.405482
0.425502
0.594975
0.112323
-0.139414
-0.0726998
0.400466
0.357799
0.00159281
0.0494427
0.516971
-0.0449565
-0.465209
-0.589253
-0.119506
-0.105873
0.21198
0.195658
-0.550892
-0.0260532
-0.348891
0.107815
-0.355909
-0.082534
0.457793
-0.250443
0.2655
0.0405976
-0.373419
-0.0634502
0.139341
-0.0642477
-0.19202
-0.268873
-0.00765427
-0.0478952
0.136573
0.11242
-0.0331938
-0.0402794
-0.230847
0.0842974
-0.396079
-0.124753
0.0328175
-0.334822
0.364596
-0.030007
-0.467857
0.186276
0.146144
-0.168453
-0.265017
-0.227856
-0.135285
-0.0654134
0.357779
-0.134559
-0.257954
-0.133962
-0.341445
-0.0479782
-0.105884
0.0975076
0.295535
0.170496
-0.136408
-0.0443634
-0.129332
-0.0379976
-0.0149402
-0.0845035
-0.301062
0.0304774
-0.105974
-0.000574037
0.124683
-0.214245
-0.486171
0.168499
-0.166867
0.00376234
-0.0545907
0.220568
-0.0223747
-0.00516134
0.187699
-0.367987
-0.350179
0.233141
-0.0521956
0.165668
-0.0379853
0.219761
-0.081737
-0.110648
0.0730161
-0.0200898
-0.034761
0.0489458
-0.154157
0.125479
-0.124475
0.275506
0.0880386
-0.262083
0.252118
-0.322022
-0.446762
0.153383
-0.28793
-0.043746
0.137986
0.147514
0.01845
0.088178
-0.184776
-0.201968
-0.162399
-0.504751
-1.50408
-0.0481635
-0.102027
-0.0417764
-0.368871
-0.0932221
1.55936
0.622385
0.240555
-0.19487
-0.306558
-0.569304
1.03109
-0.439937
-0.695857
1.65876
-0.00678397
-0.612738
-0.317048
0.426358
-0.640163
-0.582283
-0.288667
-0.512757
-0.00155222
0.211734
-0.142892
0.805952
0.68097
0.720371
-0.555546
-0.75213
-0.0792017
0.556031
0.143051
-0.483744
0.538138
0.696578
0.209534
0.493292
-0.0857192
-0.360936
0.0220408
-0.749713
-0.673072
-0.725523
0.471038
0.756568
0.0399732
0.0103979
-0.154733
0.0838174
0.0189061
0.155443
0.064736
-0.113992
-0.508678
0.214218
-0.125661
0.0858628
0.231875
0.133401
-0.554146
-2.33673
0.461338
-0.441064
1.51828
0.458326
-0.596526
-0.565166
0.730089
-0.781606
0.147313
-1.06162
-0.737493
0.759529
-0.590484
0.772673
0.166764
2.76619
-0.0570606
-0.611527
-0.0752577
0.464191
-0.637989
-0.595983
-0.0548763
-0.525021
0.135751
0.305321
-0.0773275
0.622212
0.718986
0.678512
-0.432819
-0.424203
-0.156147
0.167105
-0.00735018
0.0794713
5.27693e-05
0.0145042
0.195258
0.00677321
-0.156981
-0.00944439
0.130851
0.0790636
0.250967
0.0388674
0.0431768
-2.32839
-0.270448
0.00196023
0.0637488
-0.0335889
-0.0253899
0.024274
0.338159
0.190734
0.161265
-0.168312
0.585375
-0.17928
-0.254651
-0.210036
-0.0342678
0.762564
-1.19161
-0.0258461
-0.500835
0.573319
-0.898176
-0.22174
-0.676183
-0.384651
1.18059
-0.338924
-0.934603
0.457664
0.908008
0.103302
-0.66646
0.048638
-0.4849
0.46843
-1.31509
-0.54784
0.62964
0.415999
-0.732668
0.625129
-0.154407
1.01351
0.745536
-0.690162
0.535864
-0.733752
-0.0798706
-2.4868
0.0853586
0.55951
0.323047
-0.589977
0.717207
0.628864
0.187422
0.462412
-0.224862
-0.37617
0.0804786
-0.676229
-0.78551
-0.725561
0.703472
0.625951
-0.0460214
0.360366
0.173404
-0.47355
0.416694
0.620239
0.133303
0.506743
0.123128
-0.306699
0.158072
-0.624065
-0.596037
-0.639833
0.379875
0.674293
1.2032
-0.168071
-1.21069
0.0825379
-0.469452
-0.140642
-0.441643
-0.468452
-0.300548
1.31467
0.447019
0.0408431
-0.963198
0.26315
0.0799026
-0.103805
0.278545
0.126887
-1.41385
-0.109724
-0.0613912
-0.0512762
-0.876094
-0.170058
-0.15855
1.27155
0.226494
-0.166252
-0.516386
-0.070114
-0.0904985
0.245403
0.788512
-0.586365
1.35138
0.382653
-0.577824
-0.46075
0.680224
-0.521701
0.254288
-0.672126
-0.744085
0.586123
-0.304459
0.64286
-0.00240552
1.93399
0.250492
-0.0182603
0.25781
0.167548
-0.262589
0.207821
-0.227534
0.175941
-0.184551
0.0391925
-0.185992
-0.326961
0.0646959
-0.123315
0.205157
-0.103139
-0.301083
0.445353
-0.0527499
-0.354616
0.287475
-0.0939074
-0.0572126
0.151619
-0.0828253
-0.00888973
0.0082579
0.0259924
-0.295115
0.118835
0.0377968
-0.330272
-0.0647802
-0.0396562
0.108064
-0.213111
-0.313665
0.389741
-0.0644826
-0.0756845
0.239842
-0.026497
0.0943071
-0.0159489
-0.199588
0.0390387
-0.139446
0.09164
-0.0508888
0.100027
-0.0308251
-0.246858
0.0253627
-0.135163
0.171397
-0.107867
-0.259241
0.335902
0.0342349
-0.138145
-0.0733231
0.0658925
-0.052112
0.0453587
-0.0285502
0.0458093
-0.115669
0.199286
-0.022317
-0.0811166
-0.0426728
-0.0411531
0.0460397
-0.248685
0.0439175
0.17589
-0.038825
0.258054
0.112157
0.00228078
0.127138
-0.133567
-0.0497959
0.326272
-0.02831
0.0749846
-0.146825
0.147318
-0.199904
0.115402
-0.0905713
-0.295736
0.121238
-0.0145244
0.253601
0.109304
-0.255561
0.267971
-0.0221857
-0.0266118
0.0216996
-0.0183217
-0.0621758
0.139016
-0.0783438
0.0345652
-0.305026
0.164044
-0.13833
0.00124043
0.00370213
-0.311841
0.0456416
-0.115298
0.206592
-0.0235709
-0.364953
0.328309
0.0782411
-0.103172
0.0642269
-0.0399265
-0.0116924
0.151295
-0.0300869
0.0818181
-0.247739
0.187046
-0.0847739
-0.0180615
-0.00103184
-0.289055
0.0182657
-0.0784628
0.0830158
0.0604607
-0.137621
0.131879
0.0293102
-0.0241523
0.186005
-0.147998
-0.069858
0.123995
0.0783197
0.0321886
-0.229315
0.126621
-0.168659
0.152589
-0.0719354
-0.261209
0.0938485
-0.0378179
0.218268
0.0826436
-0.124205
0.139979
0.0590401
-0.135905
0.116724
-0.0108842
0.0836502
-0.0962017
-0.162143
0.108458
-0.330233
0.225591
0.0252928
-0.0740573
-0.0936468
-0.256938
0.146778
-0.184036
0.225711
0.173219
-0.201641
0.072218
0.150089
-0.140195
0.0483651
0.158388
0.177432
-0.0262292
-0.255676
0.0889641
-0.195982
0.12467
-0.028414
-0.0304097
-0.0849775
-0.117935
0.169274
-0.196489
0.0119121
0.0680893
-0.108116
-0.00551469
0.0140865
-0.199806
0.121972
0.0414816
0.149223
-0.126496
-0.177169
0.0351792
-0.140626
0.125405
0.17402
-0.244211
-0.0507923
-0.0687243
0.0447896
-0.111979
-0.0505755
0.0527775
-0.0797332
-0.115093
0.272785
-0.0169987
0.0355395
-0.319684
0.330213
0.122627
-0.107811
-0.215967
0.123726
-0.200898
0.149992
0.204126
-0.0141711
-0.220722
0.319067
0.345768
-0.26618
0.0349997
0.357937
0.20789
-0.0998716
0.129794
-0.158093
-0.00894009
0.127833
0.0518076
0.00447397
-0.128272
-0.0485504
-0.000233558
-0.0710197
0.0145033
0.182266
-0.0175446
0.0207403
0.0631804
-0.0412285
0.0245439
0.0298361
-0.0329288
0.0620526
-0.0386046
-0.0250324
-0.0280361
0.184208
-0.0679151
0.0306809
-0.0265749
-0.00593503
-0.0310304
-0.00374318
-0.100707
0.247121
0.00380528
-0.0228903
-0.0409283
-0.0380796
-0.111697
-0.0772975
-0.0910199
0.0119363
-0.161914
0.0163464
-0.0133657
0.0381844
0.117834
0.052253
-0.18517
0.0338928
-0.0513428
0.0382216
0.125737
0.0554867
-0.116297
0.0689722
0.112066
-0.012851
0.00592687
0.109332
0.0638644
-0.103066
-0.0767141
-0.0869179
-0.136738
0.278457
0.0553786
-0.0886665
-0.15776
0.0134313
-0.164188
0.0888675
0.139741
0.043748
-0.134353
0.0998859
0.072735
-0.147729
0.0548825
0.123336
0.0162487
-0.0293316
0.0572972
-0.03046
0.18261
0.0889201
-0.131296
0.117535
0.162662
-0.0918698
0.0624184
-0.125629
-0.110261
0.233568
0.0608756
-0.144987
-0.112615
-0.0152329
-0.102794
-0.0723021
-0.0924777
0.118573
-0.185052
0.0515399
-0.163463
0.356157
0.215597
-0.0668029
-0.227335
0.103645
-0.108009
0.0373057
0.0975496
0.16014
-0.139299
0.256066
0.125674
-0.15882
0.0912619
0.0808268
0.132001
0.0493327
-0.00676069
-0.1064
-0.173893
0.222028
0.0797442
-0.0491444
-0.208964
0.0128471
-0.158048
0.10303
0.0575441
0.152476
-0.119547
0.132969
0.180923
-0.159476
0.127564
0.186487
0.0239708
-0.0706278
0.0608814
-0.124358
0.0595216
0.0668532
-0.0486831
-0.0308096
0.00714613
-0.0641913
0.0825476
-0.00869034
0.0475993
0.00315166
0.0943476
-0.00863461
0.0236175
0.0637658
-0.060206
0.0369351
0.0751279
0.0700404
0.0189157
0.00745583
-0.019835
0.0251461
-0.0117257
-0.00212207
0.0958542
-0.00032137
0.146861
-0.0733821
0.0166865
0.0800942
0.00302133
0.0847351
-0.0104997
0.110944
-0.130696
0.0101822
0.0570249
0.0024831
-0.012056
0.0637014
-0.173292
0.0940308
-0.0856077
-0.102087
0.106849
-0.0910441
0.00731603
-0.0193445
-0.00812858
0.191699
0.0506844
0.0933351
0.0406232
0.0158325
-0.000874132
0.0908239
0.105464
0.107647
-0.00493018
0.119823
0.0575558
-0.150718
-0.277008
0.178231
-0.307966
-0.0146646
0.146304
0.0555495
0.0644052
0.385313
-0.700356
-0.21178
0.351092
0.0797945
0.12594
-0.000315665
0.145817
0.114315
-1.06653
0.0486466
0.0400301
-0.228852
-0.0732106
0.0713683
-0.222477
0.0086206
0.111338
0.00387617
-0.0101949
0.334455
-0.558256
-0.163417
0.37435
0.105771
0.0757405
-0.122618
0.189736
0.111721
-0.627212
0.0453583
0.0276518
-0.207995
0.0184791
0.121682
-0.160878
-0.00476251
-0.0217937
-0.0299603
0.0797812
0.29195
-0.210685
-0.110125
0.346135
0.115552
0.06998
0.00221384
0.023063
0.113753
-0.293229
-0.0220194
-0.0558626
-0.120461
0.0650635
-0.0227201
-0.0690547
0.10181
-0.0509288
-0.0950621
0.0637311
0.199477
-0.165079
0.0347944
0.134482
0.0289742
0.00111461
0.0403992
0.166383
0.0164885
-0.13162
0.0686961
0.0308612
-0.0843441
0.0204352
0.0785826
-0.0761296
0.0459883
0.000104368
-0.143219
0.0763626
0.156993
-0.134016
-0.0307341
0.216619
0.106334
0.0720937
0.0716561
0.0365881
-0.00413201
-0.278641
0.0587628
-0.0416654
-0.0558937
0.0610431
0.0478596
0.0536897
0.0261703
0.0138107
-0.138795
0.128557
0.0841634
-0.271146
-0.042115
-0.0757315
0.0819148
-0.0829232
0.112472
0.101319
-0.0439558
-0.127239
0.0415591
-0.104246
-0.0150931
-0.0289828
0.0329591
0.123916
0.0173611
0.136633
-0.0897574
0.123439
0.0754638
-0.298698
-0.100113
-0.171395
-0.0192141
0.0417741
0.0620194
0.128125
0.00930982
-0.0628219
0.07525
-0.119513
-0.0982813
0.0129077
-0.0396972
0.0679872
0.0043036
0.127212
-0.0909972
0.173396
0.0132118
-0.367566
-0.0227723
-0.0639281
0.108318
0.0115328
0.0968504
0.104534
-0.0136697
-0.0935895
0.0452701
-0.147309
-0.00830246
-0.12759
0.113659
0.0776557
-0.0167031
0.0206654
0.0313034
0.0825134
0.169136
-0.314945
-0.132452
0.0590427
0.139883
0.0405098
0.0667182
0.0344403
0.0491564
-0.346134
-0.0707228
-0.00308475
-0.00502675
-0.594818
-0.0083221
0.0281578
0.0409325
-0.0595587
0.0925637
-0.0438118
0.0147855
-0.467886
-0.0137993
0.173324
0.0380771
0.222185
-0.197504
0.209621
0.154622
-0.455353
0.0682869
0.139295
-0.125513
-0.431678
0.0418373
-0.140843
-0.0130114
-0.0789452
0.230197
-0.102001
0.172171
-0.633891
-0.0511202
0.260539
0.191806
0.135801
-0.201551
0.285918
0.215063
-0.718246
0.137947
0.150227
-0.438868
0.285231
-0.292283
-0.110664
0.0996397
0.211423
-0.111941
0.161832
-0.207516
-0.175874
0.0209931
0.201911
-0.343453
-0.294083
0.205641
0.00316605
-0.271854
-0.194414
0.04221
-0.162019
0.173651
-0.00838221
-0.0675136
0.00370136
-0.0174211
0.0248532
0.104325
-0.0374251
0.0160159
-0.0120064
-0.0231401
-0.00800513
-0.0257425
0.019976
0.0125582
0.0908807
-0.0410519
-0.000640059
-0.0684302
-0.0293177
-0.00687324
-0.0397336
-0.109524
0.0951131
-0.0629147
-0.0913318
0.0271225
0.0141178
0.011527
0.102606
-0.0772103
-0.057043
0.0801842
0.0582849
-0.0400473
0.0705817
0.125342
0.105166
-0.0251687
0.0727041
0.0256434
0.164631
-0.15447
-0.136044
0.0622181
0.164084
-0.0669593
0.0899513
-0.0783199
-0.154548
0.0535812
0.0611016
-0.161585
-0.127195
0.0792187
-0.0378755
-0.0796961
-0.0916813
0.0477736
0.00745062
0.0911164
0.0691484
-0.225462
-0.0726108
0.0533732
0.140692
-0.0954965
0.147497
-0.0995004
-0.118785
0.0620237
0.137584
-0.123803
-0.0501944
0.186342
0.0368152
-0.116492
-0.0272418
-0.0373554
-0.0808232
0.112368
-0.128066
-0.0832814
0.0585474
-0.109614
-0.128219
0.0430618
0.0165104
0.114387
0.106399
-0.0910036
-0.00045769
0.155025
0.0879795
0.046409
0.031075
0.121759
0.0498582
-0.0366082
0.206629
-0.0352859
0.0873254
-0.290632
-0.172539
0.0727497
0.179021
-0.11505
0.17608
-0.0110528
-0.139568
-0.0807493
0.11177
-0.156865
-0.11037
0.0652951
-0.131513
-0.0500099
-0.0454319
-0.0491243
0.0438081
0.136261
0.223266
-0.213946
-0.0907453
0.126254
0.187438
-0.0634211
0.192363
-0.0948261
-0.118016
-0.124267
0.0513475
-0.12617
-0.204816
0.180297
-0.147691
-0.23042
0.0101293
-0.00221412
-0.0683758
0.152558
-0.111129
-0.0796465
0.00228289
0.0304196
0.0168133
0.0180976
-0.00406962
-0.0279355
-0.0249397
0.128811
-0.0506893
0.0433914
-0.0429562
-0.00490165
0.0317618
-0.0219843
0.0068476
0.015522
-0.10094
0.0298777
0.070594
0.0113888
-0.0140133
-0.0171277
-0.125501
-0.0117817
-0.0844895
0.0159363
-0.0650574
-0.00228203
-0.0360089
-0.0473204
0.00400855
-0.0860592
0.0920896
-0.058046
-0.0551802
0.0504262
-0.0156893
-0.0443447
0.138591
-0.116408
-0.0243027
0.071913
-0.0401086
-0.050636
0.113147
-0.0561255
-0.105238
-0.0245856
0.055385
-0.0704223
-0.107732
-0.00357979
-0.0323646
-0.05456
-0.107576
-0.0726641
-0.0167064
0.0640821
-0.337434
-0.406217
0.411968
0.0531284
-0.0696621
-0.216405
0.153349
-0.154228
0.167681
0.305948
-0.100855
-0.237001
0.435253
0.377485
-0.20176
0.0589796
0.353227
0.204338
-0.0185263
0.148995
-0.20365
0.00689968
0.177845
-0.0526391
0.0519915
-0.0479324
-0.0572312
-0.0561193
0.0179633
-0.127264
0.0992329
0.0364905
-0.00281922
0.0266402
-0.145334
-0.0184973
0.077968
-0.0537563
0.103752
-0.00335298
-0.0337044
-0.0686517
0.160693
-0.071696
-0.0759613
0.0674526
0.0615687
-0.133566
0.0646007
-0.0493199
0.212069
0.00561344
-0.0132432
-0.0320738
0.102784
-0.0251026
-0.0756872
0.0398409
0.158135
-0.073684
-0.137544
-0.134413
0.198045
0.0417433
-0.0349376
-0.0968778
0.03855
-0.170887
0.0934904
0.106907
0.0140247
-0.0303485
0.124022
0.172514
-0.0890603
0.059367
0.061728
0.145247
0.0175588
-0.0445052
-0.144156
-0.116855
0.294616
0.101445
-0.155314
-0.20783
0.0841092
-0.208344
0.107295
0.0664926
-0.0672049
-0.194093
0.0103818
0.121201
-0.227104
0.0397661
0.102014
0.0377471
0.0567902
0.192731
-0.15476
0.0421653
0.167645
-0.0780333
0.0370722
0.0987325
-0.0234578
-0.107265
-0.0529943
-0.0233015
0.165319
0.096625
-0.124963
-0.0840379
-0.0271039
-0.0305614
-0.125335
-0.00285623
0.0704624
-0.132298
-0.0578158
-0.109085
0.343966
0.177542
0.0151855
-0.206197
0.13128
-0.211732
0.103779
0.152957
0.0245416
-0.144605
0.14822
0.113985
-0.0791597
0.0920022
0.00943155
0.0715889
0.049512
-0.00660217
-0.184081
-0.26714
0.360703
0.144103
-0.142318
-0.205627
0.0180115
-0.276377
0.169042
0.163988
0.143851
-0.0626885
0.0871755
0.225275
-0.215071
0.175351
0.225176
-0.0312282
-0.0561655
0.102123
-0.289034
0.0325962
0.196916
-0.00595276
-0.0757489
-0.0118729
-0.0417632
-0.00379737
-0.0184217
0.0576412
-0.0978941
0.0524885
-0.0638333
0.0445968
0.0041759
-0.0615012
0.0653382
0.0243912
-0.0209894
0.0758546
-0.0876653
-0.0586817
0.0441517
-0.138407
0.0010834
0.164541
-0.0306674
0.050392
0.00399437
-0.0311762
0.0567029
0.0996501
0.0294037
-0.00359526
0.137419
-0.0578571
0.0539214
-0.0282569
0.000705682
0.0259332
0.0766717
-0.202155
0.156687
-0.00270999
-0.132068
0.0252616
-0.0184128
-0.175699
-0.0130214
0.195275
-0.0121005
-0.0481915
0.0710446
0.108241
0.00744151
0.0335185
0.10198
0.088009
0.106516
0.0860421
-0.0552024
0.129991
-0.298446
0.32538
0.163842
-0.155119
-0.235566
0.147445
-0.16104
0.132664
0.165303
-0.090571
-0.230232
0.278089
0.300165
-0.241289
0.00329549
0.336344
0.19287
-0.0805771
0.122724
-0.178297
0.0496908
0.131801
-0.0217965
0.0128581
-0.142034
-0.0679763
-0.0588827
-0.0308308
0.0200972
0.106984
-0.00170787
-0.0585741
0.0357039
-0.127472
0.0355533
0.0605722
-0.104559
0.0826546
0.0547947
-0.0376505
-0.0683442
0.235485
-0.0454653
-0.093061
-0.0155246
0.0136852
-0.0377256
-0.00551669
-0.00021475
0.227662
0.0025895
0.0507465
-0.0886036
-0.0682787
-0.0154636
-0.0458487
-0.0437348
0.0193742
-0.0958684
-0.0587614
-0.0322144
0.106652
0.163246
0.0708168
-0.133145
0.0719881
-0.084014
0.00724021
0.108853
0.116645
-0.121937
0.138879
0.171429
-0.0420582
-0.0325455
0.154747
0.1226
-0.035765
-0.0980884
-0.138903
-0.155991
0.334809
0.0741866
-0.101963
-0.187626
0.0610737
-0.214954
0.0692262
0.187815
0.0202158
-0.174328
0.144147
0.117948
-0.221124
0.0733969
0.14937
0.0157818
-0.0312293
-0.010309
-0.043015
0.128768
0.116326
-0.0696396
0.119514
0.0870125
-0.0273318
0.106772
-0.0979072
-0.0550144
0.158722
0.00508097
-0.111576
-0.112285
-0.037615
-0.0748487
-0.0618001
-0.129512
0.0303261
-0.188334
0.0262666
-0.176341
0.341636
0.230029
-0.105418
-0.218771
0.0896378
-0.19303
0.0370851
0.12841
0.181378
-0.174476
0.244239
0.130299
-0.106964
0.136333
0.0249225
0.112136
0.0286564
0.0745634
-0.108193
-0.251191
0.236337
0.17787
-0.108565
-0.213606
0.0570725
-0.240133
0.129734
0.163973
0.229488
-0.206591
0.226422
0.219888
-0.169717
0.183949
0.225808
0.0220069
0.000915234
0.0308946
-0.141952
0.0249719
0.0818234
0.0463332
-0.00991309
-0.0266553
-0.058058
0.0393193
-0.0125007
0.0915933
0.0779817
0.0202916
0.00542683
0.041503
0.0358478
-0.00767431
0.00267114
0.0923941
0.0238824
0.0158317
-0.0168956
-0.135237
0.00495104
0.0445317
-0.0107728
0.123691
0.00633481
0.136623
-0.0112983
0.0661482
0.0116629
-0.00228309
0.109477
0.00193342
0.082503
-0.0512088
0.0446165
0.0765419
0.0462083
0.0611414
-0.0110986
-0.183205
0.0360371
-0.066348
-0.0901335
0.0735124
-0.0933373
-0.00463209
-0.0415676
0.064482
0.139981
0.028881
0.0819143
0.0471808
0.0326427
-0.046169
0.115793
0.0673638
0.166423
0.025616
0.0905783
0.267858
-0.104153
-0.274953
0.0651312
-0.0986656
0.157388
0.162052
0.142406
-0.0651651
0.219158
-0.416858
-0.201997
0.214336
0.0234668
0.265766
0.112098
-0.128422
0.0525197
-0.664555
-0.29849
-0.104892
-0.0780493
-0.0360001
0.0713719
-0.0195359
0.00754081
0.0572254
0.0074131
0.0216207
0.178629
-0.254539
-0.114972
0.187711
0.107615
0.0656681
0.0053807
-0.02533
-0.0157794
-0.386349
-0.226398
-0.105407
-0.195941
-0.0913158
-0.00248782
-0.13852
0.0810933
0.0288572
0.0156964
0.0302346
0.227391
-0.111633
-0.111241
0.242625
0.169993
0.241561
0.0841931
0.0286094
0.0561262
-0.277377
-0.266629
-0.029789
-0.107997
0.0255156
-0.0219686
-0.113639
0.0254591
-0.0458741
-0.0827086
0.0272249
0.17155
0.0314057
0.0150777
0.157086
0.00749414
0.0627054
0.0932682
-0.00712724
0.149065
-0.153514
-0.0611935
-0.0722883
-0.0744049
0.0667636
-0.110479
0.121488
0.0601749
-0.0480729
-0.107848
0.0931226
-0.0342649
-0.112032
0.00932998
0.0012402
0.0778006
-0.0712444
0.112003
0.0519927
-0.0423823
-0.042532
-0.078427
0.0281669
-0.00757657
-0.00783505
-0.0315335
0.102564
-0.0190758
-0.0490977
-0.254688
0.0742927
-0.00653966
-0.218036
0.0112105
-0.0804176
0.167975
0.010047
0.158382
0.0107258
-0.0933052
-0.172051
-0.0478124
-0.124232
-0.259023
0.197164
0.0170626
0.0768633
-0.0471873
0.065664
-0.284065
0.159969
-0.0420442
-0.223289
-0.101849
0.0738015
0.0887399
-0.12676
0.248588
0.0434289
0.00648148
-0.0433783
-0.0476811
-0.136505
-0.0600326
0.156216
-0.0957293
0.0529817
0.0649731
0.0258446
-0.300287
0.189596
-0.0340067
-0.231447
0.0297903
-0.204435
-0.00199859
-0.100388
0.121836
0.0109279
-0.111561
-0.0918306
0.106075
-0.0770695
-0.172877
0.0773649
-0.0374469
-0.166523
0.101679
-0.0304903
-0.10375
0.0345388
0.181974
-0.277589
-0.00354609
-0.0121844
0.0409722
-0.0195835
0.076657
0.107352
-0.0139815
-0.255582
0.0829017
-0.0333702
0.0632642
-0.12094
-0.0878608
0.0113554
0.12859
0.0327623
-0.211609
0.131565
-0.0119205
-0.425447
-0.000377905
-0.168601
0.0685588
0.00767028
0.0519652
0.0808199
-0.202561
-0.48986
0.118763
-0.0543806
-0.00538511
-0.0917097
-0.0310269
-0.155968
0.0031498
-0.0802561
-0.0699529
0.076627
0.03654
-0.508628
0.0552266
-0.0736475
0.0584633
0.00755047
0.0276806
0.0976544
-0.173441
-0.619527
0.315778
-0.01389
-0.164972
-0.283233
0.287077
0.152844
-0.120549
-0.242372
0.0974657
-0.271942
0.243884
0.215778
-0.140343
-0.232857
0.24998
0.301803
-0.23073
-0.0693128
0.259284
0.152954
-0.0609403
0.240028
-0.195757
-0.169479
0.0836035
0.107254
-0.114869
-0.0401561
0.00288114
0.00618701
0.00681573
0.112467
0.0109486
-0.0186292
0.252127
0.0501831
0.0178496
0.0109728
0.0880648
0.212923
0.0875472
0.0855959
-0.0121514
0.119292
0.0577051
-0.139674
0.149312
0.0961023
-0.0145741
0.0237171
-0.0692386
-0.147293
0.0704872
0.0261674
-0.0895824
-0.0855219
0.0702681
-0.0869082
-0.141856
-0.00554661
0.0162149
-0.17861
0.0267767
-0.128965
0.116971
0.246131
-0.0530278
-0.240751
0.152811
-0.123643
0.206954
0.225715
-0.0110169
-0.163118
0.0815184
0.226236
-0.0768971
0.117521
0.184128
0.034577
0.0131846
0.0923815
-0.227651
0.0199847
0.236467
0.137945
0.0329769
-0.238816
0.127767
-0.208258
0.134501
-0.0256356
-0.0472303
-0.181443
0.0681382
0.0988127
-0.179814
0.0260663
0.00733658
-0.0242299
0.0752679
0.104315
-0.150588
0.191638
0.00690131
-0.115769
0.128707
0.106374
-0.00638744
-0.0402242
-0.057107
-0.114208
-0.126188
0.0397557
-0.184554
-0.155158
-0.024743
-0.0103049
-0.0667647
-0.00861212
0.0100744
-0.0660653
-0.0119856
-0.0253417
0.271574
0.234025
-0.0239517
-0.232019
0.080795
-0.148648
0.0577046
0.0616153
0.00356276
-0.155976
0.106796
0.11787
-0.118478
0.111711
-0.0442522
0.0295253
0.0819678
-0.0206952
-0.186489
-0.27089
0.353449
0.264658
-0.146066
-0.261605
0.191561
-0.221079
0.172964
0.10238
0.0260595
-0.252621
0.194354
0.233769
-0.304112
0.161153
0.225885
0.0106666
0.0167356
0.0860654
-0.262128
0.116933
0.108924
-0.0444254
-0.0701095
-0.0184477
-0.0941707
0.0328342
0.0660723
0.0132599
-0.146893
0.125766
-0.0636315
0.0386092
-0.0719052
0.013042
-0.01628
-0.043825
0.0126804
0.168646
-0.0202515
-0.0124879
-0.0253077
-0.0444869
0.0582653
0.115449
-0.0235209
0.133776
-0.00270606
0.0307291
-0.0300489
0.0383008
0.131998
0.0202967
0.0232193
-0.126764
0.112399
0.131229
-0.0381546
0.0906437
0.0378721
-0.125289
0.045122
-0.0406762
-0.0692661
0.132524
0.0791481
-0.0329714
-0.0375725
-0.00375605
-0.0335902
-0.012452
0.0791902
-0.0156609
0.0575763
0.022618
0.0328206
0.136592
0.0858181
0.0514647
0.00453223
0.535097
0.134906
-0.189718
0.0934015
0.077498
-0.0139643
0.0589789
0.245956
-0.103761
-0.038532
0.0541694
-0.112944
-0.0150128
-0.0711614
0.061277
-0.0925127
-0.157344
0.114347
-0.142028
-0.120421
0.101017
-0.0959164
-0.0375146
0.249157
-0.0720086
-0.0526417
0.0901917
0.137568
-0.082969
0.165226
0.0222104
-0.174811
0.286801
0.151926
0.0155311
-0.19044
0.00160862
0.282357
-0.0946111
-0.0539557
-0.0650955
-0.0598971
0.0200098
0.0536732
-0.0390039
-0.00145166
0.0393455
0.0675476
-0.0306124
-0.0217591
0.0574239
-0.0369769
0.107727
0.0201341
-0.0929974
-0.0762318
0.0524221
0.198382
0.00517557
0.0454466
-0.0148543
0.0737646
-0.0558608
0.163472
0.112423
-0.164098
0.0501039
0.0529185
-0.100102
-0.105572
0.240798
-0.141707
0.0974915
0.00405953
-0.0688796
-0.122776
-0.0392552
0.123772
0.0820273
-0.161956
0.0139568
-0.0314322
-0.111755
0.0867959
-0.132802
0.114265
0.0131616
0.19517
-0.180512
0.0500988
0.0972241
-0.00420926
0.227414
-0.09656
0.0318601
-0.167277
-0.0605715
0.241639
-0.0064163
-0.0701586
0.0337261
-0.110359
0.120293
0.0906315
-0.132629
-0.0200645
-0.00125478
0.168234
0.0133662
0.101762
-0.0881876
-0.124303
0.242056
0.152405
-0.0610286
-0.170626
0.139465
0.207141
-0.0313584
0.112591
0.0199636
0.00587288
0.10145
0.129375
0.00447202
-0.0729947
0.0350027
-0.0337809
-0.0569215
-0.111518
0.146755
-0.108932
0.0930661
0.0218364
-0.0825352
0.0151244
0.00820145
0.0392355
0.0391361
-0.0754223
-0.0308652
0.057138
-0.155965
-0.0763817
0.0414113
0.107422
-0.0384677
0.124256
-0.172478
-0.116018
0.158406
-0.0341745
0.101633
-0.159558
-0.0420435
-0.0328264
-0.110111
0.0872901
0.150482
-0.0658201
0.0780578
-0.215719
0.120626
0.0465378
0.0849999
0.024745
0.0710187
-0.0137896
0.0197462
-0.0282211
0.238736
-0.198963
0.27454
0.0451683
-0.178499
-0.0561155
0.149429
0.200638
0.120277
-0.0115899
-0.0785791
-0.00739911
0.120523
-0.00397404
0.00343028
0.0625108
-0.00456945
-0.0581455
-0.00960597
-0.1663
0.166807
-0.0778047
0.0825379
-0.064471
-0.138287
0.00340624
-0.0188182
0.111259
0.137779
-0.0655973
0.0703552
0.095701
-0.0391377
-0.0701962
-0.0738215
0.164948
-0.107893
0.091708
-0.157591
-0.166958
0.335519
0.0281899
-0.0224096
-0.155272
0.0385023
0.00690123
-0.163063
0.000704833
0.161471
-0.085278
0.0715315
0.0816966
0.114923
0.179265
-0.168989
0.273572
0.0241405
-0.177295
-0.214625
0.0265123
-0.381699
0.571422
0.311459
-0.423322
-0.111179
-0.157107
0.127727
-0.0230825
-0.241607
1.07305
0.0625201
-0.0464972
0.148403
0.0894008
-0.0541188
0.197515
-0.0564923
-0.0605672
-0.117129
0.0722589
-0.261693
0.416953
0.139889
-0.342541
-0.0831263
-0.140874
0.0950069
-0.00644115
-0.287889
0.580894
0.0689584
-0.0908085
0.13802
0.0170427
-0.0366884
0.153675
-0.0157755
-0.0342619
-0.0842565
0.0552575
-0.207709
0.214845
0.15736
-0.377815
-0.0849331
-0.0974847
0.104747
-0.0211133
-0.226057
0.367416
0.0924226
-0.0135768
-0.000526423
-0.112196
-0.00112205
0.190436
-0.0518132
-0.0457565
0.132467
-0.0275595
-0.140028
0.145948
0.0796633
-0.126238
0.0203255
-0.00988305
0.00450554
-0.0496639
-0.0740826
0.228388
-0.0324211
-0.0530113
0.0388816
-0.137022
0.00599407
0.0576454
-0.0623534
0.0514352
0.211028
-0.00990183
-0.0205187
0.147528
-0.061793
-0.105896
0.0169627
-0.019661
-0.0286616
0.0765906
-0.0151648
0.155176
-0.0638518
0.00341727
0.10082
-0.130468
-0.0498082
-0.0821398
0.115236
-0.0642781
0.26597
-0.121449
-0.0512687
0.233569
0.0653714
-0.0258033
-0.0404687
0.0209763
-0.0831702
-0.0879168
-0.0162645
0.162165
-0.00705718
0.134116
0.0312926
-0.107015
-0.0728109
-0.0996001
0.0413214
-0.11763
0.198359
-0.072158
0.0158531
0.249417
0.0973187
0.0752819
0.0822501
0.0320504
-0.039488
-0.0114878
-0.0530994
0.0956132
-0.0480242
0.14748
0.0261423
-0.0744429
0.00817746
-0.0720577
-0.0455592
-0.0904868
0.156119
-0.0929029
0.0230457
0.192517
0.127403
0.00864367
-0.00745229
-0.00287558
-0.0465593
0.0966786
-0.0110483
0.137417
0.0552752
0.210791
-0.0223968
0.0260001
-0.036713
0.0131099
-0.011265
-0.0488583
-0.00216249
-0.0949939
-0.108434
0.247999
0.144738
0.00386866
-0.0929366
0.0154166
-0.0195321
-0.0779296
-0.00244865
0.315544
-0.106356
0.0894938
0.0790717
0.28518
0.0673565
0.00982168
-0.0697297
0.0463906
0.0402582
0.0436737
-0.0171586
0.34348
0.00607214
-0.192039
-0.0409227
-0.0544958
0.0943829
-0.131985
-0.152701
0.441154
-0.173107
-0.133753
0.196363
0.173883
0.102596
0.164379
-0.139734
0.0427534
0.0189037
0.0622245
-0.109245
0.5767
-0.0793911
-0.150196
-0.128572
-0.0549936
0.203521
-0.257203
-0.122172
0.60319
-0.285557
-0.161768
0.395735
0.000228685
0.120224
-0.00376952
-0.0672957
-0.0902936
-0.119731
-0.008987
0.0584611
0.0859194
-0.0311353
0.0522947
0.0448463
0.133567
-0.0656928
0.0101344
0.112858
-0.0410252
-0.0276359
0.202078
-0.0115403
0.0767935
-0.0419903
-0.0181212
0.0279855
-0.0385397
0.0573453
-0.00631305
-0.0673274
-0.0652492
0.0669876
-0.00485455
-0.0643574
-0.0695889
0.136617
0.153924
-0.0654605
-0.0109441
-0.00891428
-0.0614221
0.0705205
0.209776
-0.125182
-0.000300673
0.103555
-0.00317805
0.0244264
0.161707
-0.14354
-0.111058
-0.00574765
-0.0301644
-0.182305
-0.12326
0.138212
-0.0359288
-0.204513
-0.0353124
-0.0938665
-0.154235
0.0294292
-0.0234504
0.135
0.078254
-0.0717937
-0.0967748
0.0755079
0.0513536
0.0742392
0.135629
0.00506178
-0.160679
0.045876
0.147697
-0.00687811
0.1434
0.132328
0.0325499
0.0365724
-0.0595937
-0.064829
0.209439
-0.0936516
-0.0507517
0.075557
-0.0709935
-0.104329
0.166483
-0.0702367
-0.110877
-0.0879376
0.0015653
-0.21201
0.0252949
0.0909374
-0.0336623
-0.151862
-0.109514
-0.0343096
-0.0174778
0.0918923
0.202331
-0.235721
-0.145662
0.0459746
0.0881835
-0.200335
0.137167
-0.274892
-0.171972
0.00773721
0.224259
-0.132003
-0.28563
0.216948
-0.0584629
-0.286229
-0.0790741
0.0808316
-0.0621893
0.22676
0.117034
-0.0366841
0.0558467
0.0817638
-0.115561
0.0489782
0.209598
-0.0348973
0.0453582
0.025066
-0.0681788
0.0796842
0.0845412
0.0934402
-0.0840673
-0.0537844
0.105781
-0.0901083
-0.112915
0.00270572
-0.129895
0.0998284
0.0879588
-0.0421927
-0.120571
0.1427
0.0773425
0.0581253
0.153289
-0.111976
-0.117184
0.0751556
0.165782
-0.0809627
0.0261142
0.148521
0.0361423
-0.0224345
0.00973466
-0.144991
0.131393
-0.220121
-0.0348374
0.00898368
0.121482
0.0215071
0.341865
-0.152129
-0.00528112
-0.10957
0.0157839
0.0654828
-0.0583888
0.239564
-0.0725102
-0.176647
0.018893
-0.0661548
-0.133477
0.0758016
0.230721
-0.178468
0.0568945
-0.014844
0.0254765
0.00192083
0.217929
-0.151453
-0.0172915
0.0861737
0.0287406
-0.125783
-0.0580363
0.234716
0.0789078
-0.121852
-0.0771837
-0.0818561
-0.160858
-0.0109124
0.042446
0.0356458
0.0763183
-0.0458763
-0.0505476
0.127631
0.0434202
0.0186331
0.123203
-0.0194789
-0.15722
0.04846
0.0947076
0.0786801
0.0987407
-0.0084486
0.0984813
-0.0272377
-0.0589647
-0.0596396
-0.200883
0.28983
-0.305318
-0.168888
0.0884153
0.243096
-0.129351
0.245588
-0.233107
-0.144775
0.109082
0.239582
-0.362595
-0.380515
0.244518
0.0551005
-0.32043
-0.272902
-0.0273349
-0.191208
0.182105
-0.00293179
-0.0359706
0.0168881
0.11191
0.0316366
0.0241643
-0.0499084
-0.000847341
-0.0579119
-0.00481524
-0.0126024
-0.0432875
-0.0374041
-0.0104222
0.0195418
-0.0545286
-0.0603179
-0.193008
-0.120548
0.0302299
-0.185993
-0.0707455
0.148294
-0.129035
0.0482105
0.0907006
0.0135905
0.124593
0.207588
-0.059481
-0.120361
0.168856
0.182069
-0.0286962
0.0597578
0.178179
0.211381
-0.109825
0.115103
-0.0497462
0.124144
-0.0658821
-0.166638
0.0295806
0.14402
-0.148569
0.057486
-0.153437
-0.298816
0.120736
0.133364
-0.125673
-0.238138
-0.0242687
0.045478
-0.201302
-0.139568
0.0582291
-0.0131904
0.0935287
0.013041
-0.224694
-0.109088
-0.0770553
0.303371
-0.117808
0.162579
-0.0583354
0.0154124
0.0810161
0.183067
-0.0438914
-0.0410144
0.233784
-0.0633301
-0.124628
0.0384523
-0.0494466
-0.00349192
0.1429
-0.234357
-0.107317
0.0744094
-0.204476
-0.164732
-0.00755118
-0.113798
0.131193
0.119615
-0.0781469
0.0704311
0.134326
0.119694
0.0330991
0.113731
0.106458
0.0811658
-0.0212322
0.236281
0.012514
0.0497052
-0.323121
-0.296687
0.136785
0.277999
-0.154642
0.227209
-0.0276507
-0.155292
-0.192007
0.159649
-0.200181
-0.117124
0.146707
-0.179686
-0.0102772
-0.0145208
-0.0172807
0.022193
0.261444
0.375111
-0.334347
-0.256244
0.167921
0.307642
-0.0990393
0.181688
-0.126753
-0.215498
-0.229433
0.176772
-0.353208
-0.250981
0.257491
-0.195294
-0.253256
-0.0716952
0.0360268
-0.0248121
0.282938
-0.13468
0.0244418
-0.0229893
0.0161158
-0.0288037
0.0765225
0.0144143
-0.0594118
-0.0992833
0.0765407
-0.0267378
0.0954815
-0.0546659
0.0066319
0.000894018
0.0455295
-0.0587312
0.0208843
-0.0902556
0.0724599
0.129363
0.00208536
-0.0851039
0.0412078
-0.0558027
-0.0814753
-0.15699
0.01565
-0.164856
0.0334231
-0.0269448
-0.148417
-0.0185306
-0.0941204
0.0101507
-0.0620732
-0.0894302
0.093821
-0.0390332
0.0116451
0.157892
-0.00239448
0.0535819
0.0897643
-0.166185
-0.0506392
0.0682602
-0.085183
-0.0726236
0.0182043
0.0346964
-0.06184
-0.0807549
0.00895354
0.0441486
-0.173788
-0.11038
-0.096296
-0.0264863
-0.0285538
-0.575102
0.24242
-0.144419
-0.226727
0.0923287
0.208387
-0.234568
0.301048
-0.278679
-0.166069
-0.00506944
0.196524
-0.0825755
-0.240388
0.114205
-0.375952
-0.172464
0.101269
-0.0468406
-0.0630016
0.27839
-0.389728
0.211197
0.195298
-0.400803
-0.101491
0.209741
-0.261047
0.323012
0.506476
-0.280696
-0.0910748
0.38701
0.247198
-0.0468431
-0.118689
0.322263
0.306627
-0.195295
0.514269
-0.0747112
-0.0624796
0.00553228
0.0176784
0.0925851
-0.040308
0.0813789
0.0155342
0.0925624
-0.017873
-0.253083
-0.0254506
-0.0366877
0.0437558
-0.000614037
0.0715723
0.100255
0.139034
-0.105894
0.12223
0.00598388
0.0689268
0.0880107
-0.0104508
-0.105568
0.0988424
0.00801542
0.0791138
0.0655689
-0.0132415
-0.152085
0.11102
-0.103138
-0.029408
-0.0188383
-0.234003
0.0182694
0.0645193
0.116791
0.397213
0.0087278
0.0372706
-0.146861
0.170836
-0.257091
0.00296251
-0.0153164
0.0284529
0.0427907
0.0952266
-0.179588
0.201072
-0.0673538
-0.0769901
0.236795
-0.0994169
-0.155203
0.150025
0.143421
0.240501
-0.0405933
0.0304605
-0.00123608
0.0301347
-0.0989889
-0.0473838
-0.0247343
0.00324722
0.0380113
0.131746
-0.173225
-0.0282352
0.0308943
0.0150571
0.0675801
-0.15699
-0.025795
0.183683
-0.0755579
0.142381
-0.0355638
0.192351
-0.170365
-0.0703353
-0.000239649
0.0864481
-0.194603
0.400786
-0.0736545
0.034597
-0.280659
0.186686
-0.0432009
-0.0911131
0.0907861
-0.345457
-0.0287241
0.105936
-0.0611712
0.184338
0.24757
0.31068
-0.171908
-0.0754996
0.238483
0.00433706
-0.143104
0.208204
-0.294895
-0.252425
-0.175388
0.157334
-0.113831
-0.183387
0.0676612
-0.370504
-0.320488
0.134103
0.0449815
-0.0841178
0.0946294
-0.0313185
0.162092
-0.0131297
-0.0998305
-0.0113511
-0.0289383
-0.0186233
0.130908
0.0878869
-0.182674
-0.0346431
0.148932
0.0863198
-0.111262
-0.0601371
0.106085
0.00491603
-0.0534302
0.290353
-0.0206791
-0.0362808
0.114898
0.0793874
-0.287793
-0.216858
-0.0499749
0.181558
0.071624
0.256743
-0.111233
-0.004898
0.138945
0.087043
-0.146572
-0.103788
0.149725
0.176584
-0.0521242
0.179513
0.109431
-0.188689
0.0966388
0.0624109
-0.179942
-0.0508477
0.0613594
0.0411851
0.116338
0.0833256
-0.128834
-0.042689
0.00577283
0.00804955
-0.0559365
-0.00649965
0.158605
0.0164525
-0.168552
0.397759
-0.00801135
0.397967
0.267862
-0.362013
-0.162443
0.124323
0.242193
-0.130617
0.221677
-0.185738
-0.126183
0.145208
0.282281
-0.290825
-0.251222
0.285764
0.149201
-0.281052
-0.147176
0.11667
-0.24188
0.162053
0.00619199
-0.202473
-0.0846024
0.0517096
0.126133
0.0585876
0.0429573
-0.0539483
-0.0838015
-0.0500378
0.0236253
-0.0755863
-0.0746402
0.0729759
-0.09187
-0.115898
0.0191707
-0.0807557
-0.110585
0.0899098
-0.0155066
-0.0284673
0.0202799
0.0269518
0.00447503
0.0400347
-0.0155174
0.0390675
0.0164229
-0.137816
-0.0952855
-0.00908067
0.0878896
-0.0820186
0.126017
0.105398
0.0211036
-0.00557307
0.138661
-0.0547061
0.0984511
-0.110142
-0.229841
-0.0185114
0.226896
-0.151874
0.0905112
-0.17598
-0.21268
0.0888496
0.204171
-0.150209
-0.227929
0.0609426
0.0582191
-0.207797
-0.108896
0.0249573
-0.0336988
0.152155
0.027574
-0.316685
-0.154586
-0.0254693
0.298006
-0.0349391
0.250602
-0.0335402
0.0704049
0.0811082
0.124898
-0.00843661
-0.00743556
0.256698
-0.0664785
0.00656609
0.109328
0.0360974
-0.0355739
0.125813
-0.147485
-0.0832728
0.0957799
-0.121656
-0.176524
-0.0113037
-0.0528375
0.0405502
0.144132
-0.171292
0.0171307
0.147479
0.053078
0.0666756
0.0747997
0.021104
0.0713149
-0.0356096
0.109819
-0.0355557
0.171599
-0.346923
-0.375338
0.120783
0.357552
-0.178497
0.163354
-0.0407859
-0.157784
-0.269849
0.258491
-0.334115
-0.170283
0.211937
-0.167152
-0.00501655
-0.0875217
-0.00565867
-0.0014635
0.266676
0.27819
-0.332787
-0.332916
0.149513
0.342864
-0.214246
0.234198
-0.101933
-0.133448
-0.288344
0.359764
-0.27963
-0.286902
0.238133
-0.291
-0.269181
-0.0282773
-0.00821714
0.0956215
0.313412
-0.0509189
-0.0559701
-0.0344529
-0.0155249
0.0117126
0.0305145
-0.0795988
-0.00425481
-0.028766
-0.109751
-0.0787446
-0.00963097
0.0155358
0.0071242
-0.0144847
0.0974793
-0.0693675
0.0410829
0.0112949
0.0616228
0.173332
-0.00619957
-0.00147565
0.00575558
-0.191026
-0.0842018
-0.13879
0.0228664
-0.0763673
0.015733
-0.0295635
-0.170342
-0.0285872
-0.0650525
0.082779
-0.154914
-0.224429
0.0486189
-0.000233739
-0.0555327
0.174897
0.0297674
0.00835625
0.0459708
-0.167033
-0.0569508
-0.0209946
0.0481849
-0.0913727
-0.0890161
-0.0200586
-0.0920638
-0.0833612
0.00675656
0.0775515
-0.206516
-0.0747457
-0.0932897
-0.0465893
-0.0396293
-0.575587
-0.0477014
0.0150838
0.0160628
0.0525468
0.0426668
0.0697446
-0.0715308
-0.00843204
-0.0319625
0.235532
-0.096165
0.0543681
0.0478515
0.073887
0.228877
0.0742374
0.0715872
0.242561
-0.166998
-0.0854714
0.109198
-0.118966
-0.0886908
0.114767
0.0803672
-0.040661
0.0259985
-0.0642921
-0.16496
0.210237
0.0109999
-0.111525
-0.0495953
0.0909283
0.0315524
-0.055495
0.00445863
0.209883
-0.157221
0.0637214
0.00967461
-0.114876
-0.0447813
0.0430292
0.0521629
0.035786
0.00530131
-0.0316684
0.0356234
0.136728
-0.0843062
-0.0135663
0.0194594
0.14165
-0.000873004
0.0730417
0.140194
0.159693
-0.0743717
-0.0103543
-0.00329028
-0.111084
-0.1149
0.247579
0.0429248
-0.0789552
-0.0236946
-0.0836517
-0.122635
0.0867649
0.0185014
-0.0453648
-0.0863741
0.120678
-0.012102
0.0129363
0.0678668
0.103577
-0.188718
0.115844
0.0323711
-0.0111112
-0.132952
0.236921
0.0145385
0.024537
-0.0832621
-0.0372485
-0.116023
0.164137
-0.128135
-0.0678626
-0.018647
-0.0328559
0.100721
0.0500108
-0.0234149
0.130678
-0.125316
0.0274703
0.0118275
-0.028913
-0.00626391
0.111629
-0.0201093
-7.48973e-05
0.0216433
-0.0776514
-0.0357422
0.18978
-0.0751293
-0.0365501
0.0581697
0.0256594
0.00732246
0.0153513
0.086202
0.13785
-0.179306
4.14857e-05
0.00225953
-0.0841614
0.0111054
0.116224
0.00802569
0.0377569
-0.0222197
-0.0729988
-0.0534101
0.246413
-0.116204
0.0313431
-0.0413095
0.121342
0.100405
-0.037936
0.10199
0.168237
-0.164925
-0.00943932
0.0815649
-0.0166954
-0.014315
0.0597712
-0.0478415
-0.0438568
-0.0131764
0.0179721
-0.0744208
0.273572
-0.137975
0.0357177
-0.00370747
-0.00297196
0.0479292
0.0217425
0.00108815
0.049569
-0.0986131
0.0115118
0.0556581
-0.127073
0.00784327
0.00168272
-0.0113687
-0.0384241
0.0979695
-0.0869249
-0.0213258
0.122738
-0.031652
0.0457024
-0.0666531
0.0886733
-0.0590396
-0.0699165
0.112008
0.121399
-0.117886
0.141843
0.0301986
-0.0771848
0.0419495
0.198631
0.0370729
0.0968123
0.0144728
-0.14749
-0.198687
0.392865
-0.189028
0.0579892
-0.045923
0.106393
0.170742
-0.102756
0.0798629
0.294724
-0.382879
-0.0555433
0.136158
-0.0646187
-0.0508484
0.150304
0.0594713
0.078703
0.00792817
-0.0537908
-0.226324
0.426083
-0.0893718
-0.070201
-0.0998266
0.0812396
0.10939
-0.101234
-0.0235849
0.259767
-0.391088
-0.00993155
-0.292065
1.42836
0.311581
0.0990656
0.278587
-1.59396
0.568461
0.0863733
-1.02629
0.071727
-0.450586
-0.189376
0.0274247
0.830287
0.896662
-0.312634
-0.481241
-0.618856
1.1212
0.644861
0.164625
-0.306121
-0.540787
0.433221
-0.780803
0.302601
0.939744
-0.303499
0.294339
-0.345195
-1.15246
0.0370123
-0.83076
-0.233895
0.250461
0.131117
-0.311182
-0.163542
0.103422
0.203703
-0.639736
-0.187809
-1.82754
0.272524
0.756669
1.47295
-1.00336
-0.485577
-0.075833
-0.47586
0.459894
-0.213975
-0.629427
-0.306915
0.214057
0.408217
0.623177
-0.487496
0.164575
0.969333
0.028837
0.46157
-1.25818
-0.775462
-0.217577
-0.437219
-0.800298
-0.222958
0.450596
-1.17198
-1.11491
0.366845
-0.0334859
-0.51916
0.376715
-0.219986
0.427705
0.439227
-0.21751
-0.445264
0.745205
0.216367
-0.528979
-0.170029
0.572935
-0.575857
1.0317
-0.883891
-0.403484
-0.107062
0.236332
-0.143407
0.672397
0.715449
0.886856
-0.0830047
-0.316516
-0.916949
0.249212
-0.4298
-0.298175
0.414057
-0.410017
0.21379
0.797704
0.0459249
-0.462193
0.231206
-2.24179
0.144293
-0.427181
-0.800046
1.47228
-0.490216
-1.33007
0.206336
-0.390486
0.474937
0.292915
-0.932577
0.412604
-1.04813
0.145566
0.0979029
0.49622
-1.21978
1.283
0.129077
0.956375
0.140254
-0.690423
-0.326313
0.217612
0.0487618
-0.439707
-0.212791
1.37804
1.35456
-0.316531
0.289036
-0.0469735
-0.420464
-0.229009
-0.888298
0.358328
-0.0747989
0.0518466
-0.103968
-1.24571
-0.984422
-0.482222
-0.506261
-0.510172
0.219563
-0.204376
0.13311
0.175912
-0.197985
-0.58646
-0.448782
0.375831
-0.446229
-0.366905
0.628398
-0.538543
0.75742
0.491844
0.932179
0.190704
1.07457
1.14279
1.2948
0.671741
-1.35896
-1.22867
-0.811851
-0.905393
-0.439462
-0.434042
0.0476169
-0.177456
-1.1388
-2.27667
-1.86654
0.605861
-0.507212
-1.14117
0.837548
0.441318
1.16288
0.711739
-0.25515
-0.0845942
-1.05461
0.67819
0.064202
-0.357979
-0.250956
0.352323
-1.5741
0.293495
0.686334
-0.150274
1.0142
-0.758586
-0.314358
0.0736939
0.500891
0.162735
-1.1265
0.469906
0.363682
0.197047
0.34574
0.559463
0.0637374
-1.2328
0.711005
-2.61788
0.713944
0.564198
1.06992
0.866632
0.360775
0.303403
-0.330308
0.596519
0.0221612
-1.14048
-0.942283
0.716462
-0.509356
-0.683845
0.294489
-0.633049
0.954434
0.584546
-0.8979
-0.329984
-0.676551
-0.314363
0.457147
0.372062
0.591028
0.306855
0.00854469
0.43506
0.37554
-0.310214
0.597868
0.0136791
1.09784
0.715613
-1.5455
-0.131091
0.649018
-0.828894
0.198191
-0.453916
0.188786
0.632557
0.297827
1.3815
-0.646466
0.27384
-0.0386244
-1.75988
-1.16224
-0.698941
-0.193777
-1.00781
0.862842
-0.588862
-0.302008
1.96105
1.53469
-0.765962
0.698462
-0.145273
-0.940569
0.373647
-0.75914
-0.34023
0.134005
0.549196
0.395
-0.389558
-0.771546
0.58195
-0.323094
0.606824
1.21943
-0.462422
-0.48081
0.0308123
-0.20941
0.000158088
0.941917
0.813528
-1.6672
-0.33489
1.80438
-0.46499
0.361408
-2.00801
-0.120988
0.510382
0.489711
1.627
2.10869
2.82054
0.457044
-1.65938
-1.44219
0.027807
-0.346252
0.957764
-0.512152
0.443827
0.773378
0.807135
0.621511
0.273215
0.385906
-0.324898
0.186271
-0.740477
-0.271981
-0.72265
-0.0113931
0.178122
-0.457381
-1.00206
-1.23293
0.749702
0.300485
0.683357
1.01477
0.111339
0.448709
-0.10761