0.324684
-0.0571866
0.21265
-0.508277
0.118541
-0.198402
1.5193
-0.790557
1.25994
-1.30646
1.07224
-0.178747
0.469049
0.323628
-1.05392
-0.355832
-0.545638
1.23733
-0.838863
1.33031
-1.33478
0.306367
-1.1091
-2.17454
-0.0976527
0.496487
-0.0950135
1.82983
-1.81753
2.31903
-0.722916
0.569817
2.17946
0.107758
-0.750932
0.954742
0.0839604
-1.1291
-0.931518
0.868708
-0.285369
0.827144
-0.575056
0.0657522
0.770156
-1.37801
-0.408321
-0.314089
-0.504589
-0.617069
-0.370898
-0.608116
-0.246224
0.256548
-0.800557
0.834407
1.70841
-0.522734
0.63261
1.50942
-0.601043
-1.92441
0.170999
-1.55477
1.20397
0.153579
-0.504656
1.86884
-0.695819
0.608998
0.492865
1.18648
0.495037
0.137434
-1.22267
1.15656
-2.87957
0.23561
0.384877
-2.97105
0.934305
-0.119474
-0.115566
1.21318
0.180884
-0.797473
-0.512435
-1.92841
-2.35547
-3.13744
-0.491969
3.56842
0.265321
-0.495159
5.04902
0.58917
3.51053
-2.46647
1.90472
-0.386416
0.177482
0.117994
-2.05645
-0.0151582
-0.00513095
-0.90859
0.867648
-0.125597
-0.00429444
-1.41903
1.73052
2.01439
0.873903
-0.334474
0.40964
0.535293
-1.88292
-2.02472
-2.16343
1.94931
0.396713
1.29817
-0.0923957
-0.750731
1.52344
0.85171
-0.559518
1.2779
-1.28459
0.0227278
-0.135775
-0.190239
-0.160792
-3.09954
2.17113
1.15862
0.174306
-0.557596
0.924654
1.90823
2.87401
-1.56263
3.22039
-0.508847
1.45923
-1.16173
-0.310478
-1.16579
-0.194821
0.870005
0.537004
-1.75405
-0.09017
-1.98234
0.113768
-0.85664
1.95082
-0.644986
1.02723
0.259301
-0.775295
-0.256116
1.18255
-0.0400516
0.830334
-0.738355
-4.25549
0.0685529
0.948537
0.413528
0.221081
2.53793
3.2247
4.43325
-2.90795
0.636015
0.842459
4.74576
0.830247
-1.23191
-0.10465
0.489968
-3.43688
-3.90878
-5.17113
3.7857
-0.490685
-0.358486
0.851847
-1.30191
0.738515
-1.12464
-0.093838
-1.0987
-1.60187
-1.22073
0.619231
-0.418344
-0.608287
0.332132
-0.186184
-1.06254
0.618653
-0.698431
1.2399
1.01572
-0.0538139
0.195763
0.00543066
0.0846302
1.42854
-0.431874
0.383264
0.0805962
0.826035
0.397729
0.117251
0.585957
-0.406072
0.0695453
-0.398827
-0.504515
-0.939557
0.33906
0.256833
0.0345582
-0.253367
-1.11402
-0.470249
0.830607
-0.3561
0.288373
0.727806
-0.483082
1.10348
-0.74873
0.0271913
-0.765049
-0.997239
-0.849203
0.740621
-0.212826
1.33317
-0.496661
-0.168111
0.18295
0.109602
0.365118
-0.909368
-0.0864125
0.553338
-0.151134
0.253977
0.480735
-0.612497
-0.214212
-0.0861713
0.62317
0.104283
0.775291
-0.39485
0.788732
0.744791
0.0281994
-0.835018
0.709743
0.596292
0.325091
-0.4404
-0.778833
0.311753
0.401193
0.0578872
0.0902904
0.245095
0.387837
1.37031
0.558782
0.318382
0.135518
1.51907
0.656007
0.767908
1.18259
-1.15555
-1.47002
1.33601
-0.240881
1.14962
0.525858
1.37021
-0.390602
0.260119
0.765341
1.14784
0.363434
-0.206952
-0.883442
0.508645
0.193801
-0.135064
-0.463089
-0.0473966
-0.0921659
0.774911
0.493757
0.000853317
-0.380599
0.00887391
0.0257405
-0.030414
0.281081
-0.0475262
-0.00255935
0.0455769
0.149902
-0.136854
-0.166537
-0.166039
-0.00529301
-0.0205745
-0.00570786
-0.056964
-0.222351
0.164783
0.267521
-0.223456
0.359934
-0.176621
-0.12626
0.168236
0.100072
-0.412751
-0.0593259
-0.288475
-0.140492
-0.280407
0.0412687
-0.0993253
-0.074208
-0.118995
-0.102999
0.0440208
0.229399
0.0233166
-0.270905
-0.198416
-0.0436064
-0.0176566
-0.00594429
-0.439781
0.0665337
0.192214
0.116661
-0.0634706
-0.372332
0.0595906
0.241726
-0.559473
-0.100588
-0.163563
0.299866
0.0139304
0.345259
-0.335178
-0.386042
0.0752817
0.571018
-0.271115
-0.383486
0.125997
0.192731
0.0891237
0.494394
-0.691723
-0.376428
0.490681
0.675564
-0.258866
-0.0495078
-0.190739
-0.0876793
-0.519091
0.0868008
0.163954
0.0149467
0.0218158
0.48216
-0.599281
-0.0431942
0.0701586
-0.135198
-0.184657
0.416335
-0.413772
-0.262442
0.211669
0.26605
-0.565972
-0.137229
0.20455
-0.124115
-0.42136
0.558852
-0.28286
0.228845
-0.0701284
0.173805
-0.44249
-0.285837
-0.151335
-0.0447197
0.113964
-0.137952
-0.181263
0.730986
-0.138154
0.644542
-0.424959
-0.125787
-0.201284
0.0717791
-0.153369
0.119978
0.0410039
0.146061
-0.426081
0.680412
0.0479249
-0.155865
0.136203
-0.381787
0.146849
0.330356
0.446831
0.204223
-0.00105623
0.439807
-0.403923
-0.279991
-0.0644455
0.0698895
0.031593
0.536574
0.107149
-0.196833
0.333946
-0.240637
-0.050802
-0.400922
-0.278392
0.0603387
0.0313674
0.23726
0.2407
-0.376449
-0.118283
0.102995
0.293799
-0.366862
-0.27125
0.434852
0.780983
0.349125
0.0997166
-0.571152
-0.84754
0.156435
-0.356369
-0.106821
-0.0479757
0.240991
-0.462038
0.102418
-0.686739
-0.654239
0.19423
-0.567488
-0.00210841
-0.0699196
-0.422779
0.465352
-0.292942
0.403343
0.152052
-0.683071
0.25808
-0.328492
-0.076706
-0.229739
-0.203093
-0.216183
-0.410965
0.0245689
0.362575
-0.56664
0.0313457
0.225124
-0.418799
-0.236717
0.0274711
0.135873
-0.378707
0.560031
-0.423046
-0.215965
-0.290994
0.0392197
0.000861856
-0.178573
-0.13486
0.0802925
-0.309928
0.432848
0.0975169
-0.57743
-0.174484
0.319887
0.189344
-0.20639
-0.200819
-0.104972
-0.166289
0.232251
-0.481043
-0.184041
-0.0131988
-0.600758
0.55906
0.104145
-0.10306
-0.140485
0.289627
0.601349
-0.476214
-0.458051
0.0282289
-0.187408
-0.0921277
-0.50769
0.312188
0.104105
-0.129402
0.260881
-0.0994709
-0.191175
0.495741
0.143317
0.108359
-0.00477503
-0.882498
-0.159949
-0.202926
0.702691
0.012941
-0.178025
0.0303899
-0.605579
0.442181
-0.441142
-0.477067
-0.0313048
-0.425222
0.117854
0.319044
-0.465444
-0.0264213
-0.244556
0.479697
-0.259922
0.387214
0.0299735
-0.286763
-0.0556564
0.0925601
-0.0860139
0.551556
0.389566
-0.077646
0.168486
-0.111775
0.0199998
-0.183932
0.297678
0.574618
0.163809
0.226925
-0.337156
0.245415
0.023082
0.0247894
-0.167859
0.258601
0.156005
0.328016
-0.140653
-0.0772823
0.00211515
0.467165
-0.194927
0.140527
0.12451
-0.377757
-0.149567
0.597572
-0.188413
-0.112256
-0.109878
0.461182
-0.261463
-0.371168
0.0917977
0.0349016
-0.302579
0.540961
-0.0671938
-0.0738194
-0.151776
0.179184
-0.369311
-0.657761
0.135317
-0.431559
0.178154
0.0903037
-0.289732
0.0065342
-0.0485224
0.267433
0.281252
-0.227905
0.27006
0.202025
-0.468227
-0.629226
0.350484
-0.0369344
0.357844
0.265833
0.270521
-0.245671
0.114909
-0.0410223
0.0951123
-0.176348
0.335427
0.086925
0.445967
0.115039
0.296967
-0.092377
-0.337687
0.346152
-0.0911656
-0.0657308
0.356505
-0.077692
0.366275
0.0954412
0.102081
-0.223288
0.677351
-0.151522
0.200609
-0.476857
0.423987
0.570772
0.231644
0.548841
0.579855
-0.256272
0.36474
-0.184881
0.289972
-0.366192
0.215214
0.218572
-0.105126
0.210226
0.0722127
0.214562
0.0192067
0.121115
0.266912
0.323378
0.123336
-0.327126
0.208382
-0.508913
-0.11431
-0.296103
-0.139733
0.0156494
-0.0409196
-0.677719
0.131923
0.209565
-0.140635
0.125625
0.433919
-0.146129
-0.0711256
-0.148409
-0.0594936
-0.152595
-0.0013854
0.279701
0.0710136
-0.132171
0.0519291
-0.23293
0.276198
-0.0792785
0.166614
-0.358672
0.0716879
-0.0716858
0.374277
0.332471
0.32236
0.0551436
-0.275193
-0.326764
-0.0266332
0.48191
-0.00363858
-0.0935753
-0.079194
-0.828404
0.059441
-0.0156599
0.114661
-0.188383
-0.158076
0.0865944
-0.010843
0.0857294
-0.0561283
-0.315387
0.00911778
0.0981168
0.0448341
-0.129422
-0.0680005
0.741484
0.70533
-1.65199
0.650169
0.302337
-0.0237537
1.09839
-0.0498513
0.061702
0.425189
0.411263
0.223792
-0.810423
0.307094
0.189459
0.0349919
0.905672
-0.414783
0.104687
0.0461776
0.730626
0.110235
0.0582345
-0.129005
-0.0278857
-0.0686108
0.497586
-0.0193495
-0.15182
0.193314
0.0761491
-0.167381
-0.218757
0.0504258
0.0291719
-0.0813544
0.692926
0.410887
-0.419809
-0.224244
0.44559
0.290803
-0.374376
0.253416
-0.130981
-0.209856
0.0233476
0.200872
-0.0251433
0.0387547
-0.0471819
-0.336624
-0.389413
-0.111041
-0.369966
0.260648
-0.127111
0.402594
-0.151249
-0.279427
0.3596
-0.343176
-0.311104
0.431842
-0.317109
0.500062
0.340105
0.207053
0.0206331
-0.261854
0.113464
-0.511621
-0.0930672
0.159884
-0.119395
0.0552281
-0.0938836
0.498355
-0.161985
-0.180513
0.0435233
0.236096
0.26058
0.0163386
-0.134726
0.22073
-0.480754
0.765357
-0.562069
-0.0371597
-0.0231876
-0.0860516
0.0498713
0.339277
-0.50739
0.0839676
0.260927
0.821061
-0.551384
-0.408918
0.0487756
-0.350159
-0.200152
0.30242
-0.341534
0.164548
0.17138
-0.206632
-0.567609
-0.607664
0.434708
0.297375
0.836344
0.0503521
0.242588
0.670778
0.0440866
0.604095
-0.271304
-0.836977
0.287782
0.24615
0.816339
0.0548047
0.26644
0.0453137
-0.257204
0.482781
0.0836273
-0.315988
0.60679
0.160303
0.118818
-0.3851
0.213963
0.120469
0.130029
0.191521
-0.0170687
-0.374478
0.309477
-0.206691
0.500418
-0.172149
0.284399
0.0673541
-0.25823
0.219047
0.166012
-0.594864
0.539453
-0.174907
0.268761
-0.36355
-0.231971
-0.0102868
0.323755
-0.0754273
0.179038
-0.641608
-0.00456593
0.0957162
0.511426
-0.408699
-0.148768
-0.0552961
-0.232331
0.0134523
-0.0544867
0.16157
0.0238161
0.0389094
-0.119267
-0.358763
4.91806e-05
0.0421257
0.238204
-0.611719
-0.0765857
0.0869469
0.222824
-0.228178
-0.280131
-0.0520652
-0.0944621
-0.032381
0.243535
-0.382883
0.20971
-0.327955
0.181581
-0.0852776
-0.138615
-0.0692098
-0.165277
-0.289803
0.0512691
0.168607
0.192274
-0.222443
-0.00505444
0.168538
0.039573
-0.0510139
-0.0964703
-0.118018
-0.305472
0.099165
0.334987
-0.788031
-0.124221
0.0626362
0.06399
-0.824731
-0.0512632
0.18703
-0.131261
-0.0889968
-0.988576
-0.0668539
0.119462
0.441653
0.419728
0.278761
-0.00504413
0.112585
-0.0467269
-0.074296
0.0274064
-0.603041
-0.331827
0.11264
-0.0331104
0.284421
0.139812
-0.165262
0.245294
-0.104865
0.423232
-0.347531
0.290173
-0.241152
0.0105441
0.349887
0.251891
-0.472573
0.215922
-0.172904
0.102231
-0.649314
-0.312836
0.171481
-0.171697
0.190967
0.125126
-0.524407
0.163488
-0.238657
0.0385946
-0.690116
-0.293193
0.309767
-0.505704
0.139815
0.741289
-0.448181
0.222325
0.0439259
0.65614
-0.414465
0.255383
0.173499
-0.267675
0.110283
0.360737
-0.515702
0.53424
0.576855
0.0576493
-0.557752
0.221882
-0.24704
-0.0315474
0.504618
0.748727
-0.469534
0.00125458
-0.700216
-0.350598
-0.100003
-0.21146
0.541382
-0.323987
-0.209336
0.388644
-0.243936
0.172536
-0.0594702
0.0804618
-0.095112
0.174187
-0.0232295
-0.217147
-0.437175
0.232317
-0.191578
0.151253
-0.0955357
0.225753
-0.4912
0.428069
-0.0504721
-0.0697986
-0.666417
0.372613
-0.339451
-0.206805
0.339957
-0.409962
-0.468606
0.149655
-0.285445
-0.122379
0.226279
0.323572
-0.664511
0.110979
-0.00063034
-0.498007
-0.112408
-0.190627
-0.364317
0.232039
0.139615
0.772662
-0.207122
-0.0976193
0.0264244
-0.0869551
0.522315
0.521286
-0.359865
-0.157176
0.450492
0.804785
-0.406692
-0.178751
-0.341955
-0.356836
0.0307806
0.375851
-0.0396507
0.0860254
0.345179
0.4444
-0.524011
0.105437
-0.0339652
-0.234398
0.102354
0.0561968
-0.282812
-0.216851
0.162312
0.336637
-0.529801
-0.0407904
-0.162096
-0.500582
-0.00358033
-0.150938
-0.425542
0.0693319
-0.30845
0.365361
-0.409283
-0.0455043
0.313659
-0.395601
-0.290136
-0.392007
1.76744
0.399731
-0.727098
-0.998395
-0.1865
-0.173775
1.03184
1.90943
-0.337286
0.318904
-0.454838
-0.0897192
0.77819
0.882467
-0.034015
0.0902901
-1.08627
-0.65773
-0.0471924
0.11549
-0.355016
-0.00126444
0.193817
0.299749
-0.0427544
-0.143082
-0.603419
-0.298761
-0.228671
0.0840414
0.198794
-0.52788
-0.509799
0.155642
0.0740194
-0.187241
0.028019
0.2621
-0.220441
0.126502
-0.698197
-0.0820445
0.145529
0.0475076
-0.0330672
0.0246476
-0.624508
-0.165469
-0.518292
0.1235
-0.694654
0.143367
0.0760399
0.580868
0.241587
-0.136297
0.238939
0.228366
0.141267
-0.326088
-0.41907
-0.578379
-0.241957
0.242089
0.439104
-1.26414
0.344832
0.292045
-0.232202
0.637291
-0.857267
0.55801
0.3251
-0.203102
-0.10274
0.214582
0.0314625
0.710154
-0.0932328
0.210518
0.233041
-0.303718
0.479088
0.321418
0.516946
-0.376327
0.0558294
0.134077
-0.108826
0.0844241
0.85033
-0.727908
0.0689033
-0.0291429
0.596275
-0.413434
0.0717974
-0.220316
-0.114893
0.0756117
0.672353
0.0327315
0.216789
0.60187
0.574679
-0.102939
0.0364528
-0.25462
0.16083
-0.137704
-0.608626
0.525648
0.275914
-0.892733
-1.23138
-0.2025
-0.383861
0.771667
1.48165
-0.241201
0.506964
0.143552
0.307956
0.311506
-0.105035
-0.445715
0.259882
-0.18108
0.169962
-0.458845
0.800562
-0.466252
-0.0127667
0.318121
-0.30815
-0.129364
0.461611
-0.430184
-0.559376
0.12704
0.738465
-0.360895
-0.188588
-0.489432
-0.375555
-0.395723
0.144139
-0.362368
-0.0346463
-0.177485
0.161763
0.202886
-0.146127
0.287242
-0.17307
-0.479076
0.229892
-0.442677
0.116361
-0.430928
-0.046707
-0.321225
0.214416
-0.614674
-0.423742
-0.190218
-0.114723
-0.258612
-0.543649
-0.585471
-0.133919
0.344112
0.17989
-0.0949614
-0.0692193
-0.360712
0.265728
0.745023
-0.251514
0.564539
-0.156318
0.478973
-0.0232628
0.239566
-0.158032
-0.1202
0.132999
-0.0660567
0.236274
0.175009
-0.270713
0.25419
0.208045
0.299833
-0.489458
-0.504844
-0.140077
-0.0296096
0.372964
0.502374
-0.118866
-0.0340066
-0.71194
-0.443761
0.0242033
0.440125
0.104843
-0.0279737
-0.428257
-0.537037
0.179651
0.144299
0.0773195
0.304983
0.139336
-0.446408
0.000401852
-0.377559
0.337204
0.432604
-0.310225
-0.0986088
-0.198898
-0.0775704
-0.0556853
0.0756737
0.106442
-0.102569
0.122241
0.0771052
-0.20164
-0.0675483
0.219537
-0.0102622
-0.0677439
-0.154013
-0.247324
0.325616
0.483714
0.328813
0.23456
-0.0943792
0.128151
0.41116
0.153574
0.180116
0.375219
0.127203
0.566365
0.250391
0.339309
-0.159874
0.0429067
0.158602
0.561223
0.331789
0.118553
-0.0135901
0.114348
-0.00455335
0.258338
0.143751
0.445018
0.271266
-0.309063
0.352899
0.262278
-0.323807
0.273803
-0.0356063
-0.218002
-0.0122931
0.380728
0.1098
-0.34722
-0.0472524
-0.0856499
-0.00766423
0.300896
-0.128102
0.117357
0.0852404
-0.0095724
-0.00334733
-0.782632
0.288856
-0.579541
-0.513463
-0.975298
0.797195
0.403123
0.312348
-0.420453
-0.786851
1.24279
-0.25133
-0.526312
0.371386
0.714659
0.105645
-0.377213
0.341273
-0.93115
-0.940464
-0.853759
1.13943
-0.384859
-0.597608
0.393575
0.810959
0.304048
0.0720214
0.568104
-0.688263
-1.34259
0.387008
-0.503177
-0.165081
0.532839
0.204791
-0.95513
-0.259384
0.672144
-0.276907
0.153554
-0.00581234
-0.666465
-0.323566
-0.415094
-0.33202
-0.433454
-0.25679
-0.298152
0.687852
-0.417903
1.16589
0.21629
0.785274
-0.53929
-0.298385
-0.549252
0.802745
-0.511788
0.166743
-0.506991
-0.330669
-0.323467
0.736427
0.185581
-0.509866
-0.0819332
-0.935598
0.118945
-0.0601671
-0.442526
-0.750482
-0.196106
1.24393
0.844133
0.704638
-0.805724
1.19376
-1.03006
-1.33834
0.123839
-0.0183116
-1.85632
-0.684411
1.67415
-0.285068
0.129519
0.790115
0.694533
-0.0204822
1.0204
0.239076
0.474018
-0.617384
0.252178
0.118547
0.323609
0.963678
-1.19907
0.0121546
0.534529
-0.310757
-0.606733
-0.421651
-0.210413
-0.396591
0.649263
1.17195
-0.985128
0.777818
-0.0916215
-0.432853
-0.605779
-0.283951
0.72807
0.0225877
0.251531
1.03884
0.0391897
0.182528
0.162617
0.047846
0.0482995
0.207482
0.0584821
-0.128525
-0.166946
0.163128
-0.555947
0.310557
-0.125981
-0.0383305
-0.260678
0.082544
-0.470427
0.195594
-0.140447
0.130568
0.204565
0.147177
-0.141723
0.277265
0.0324909
-0.0616362
-0.28143
0.238455
-0.137933
-0.561195
-0.050879
0.239605
-0.136348
-0.220929
-0.0220708
-0.00735935
-0.22472
0.134788
-0.42153
-0.177822
-0.586099
0.232644
-0.56186
-0.056853
-0.371085
-0.151871
-0.0871958
0.0977958
-0.506574
-0.00936533
-0.278695
0.515504
-0.385535
0.0429091
-0.147875
-0.309684
-0.229227
0.17252
-0.0281727
-0.104735
-0.314437
0.0680792
-0.0596695
-0.275499
-0.0573814
-0.660674
-0.316242
0.411376
0.245422
-0.0665999
-0.454217
0.184189
-0.173072
-0.0022963
-0.301177
-0.196595
0.205005
0.138492
0.245978
0.238508
-0.349501
0.10315
-0.301598
-0.224115
-0.347791
-0.290862
0.211679
0.249955
0.437972
0.119318
-0.321521
0.0443291
-0.31175
-0.113954
-0.359759
-0.260189
-0.0868319
0.166592
0.602876
-0.151785
0.711952
1.28751
-0.349905
-0.0954555
0.673707
0.870613
0.283937
-0.968949
0.192889
-0.96465
-1.06641
0.0469268
0.294695
-0.0740344
-0.384007
-0.238402
-0.0564128
-0.0594667
0.103471
-0.302022
-0.174048
-0.0880986
0.273514
0.171483
-0.544626
-0.342122
0.00750175
0.382996
0.16838
0.310728
0.0520178
0.175132
0.0379011
0.0452229
-0.268419
0.176611
0.0516867
-0.314914
0.0792983
0.470614
-0.622468
0.0831638
0.190433
-0.0428702
-0.0769739
-0.18903
0.00211389
0.125632
-0.115483
0.657524
-0.248733
0.0616692
-0.132669
-0.22284
-0.3065
-0.0044356
-0.0241349
-0.0762175
-0.0611122
0.255788
-0.402756
-0.295342
-0.243323
0.118399
-0.0967823
-0.0400168
-0.0454407
-0.203605
0.169445
0.274276
-0.393301
0.425036
0.285538
-0.252915
-0.138853
0.0487138
0.0693137
0.100783
-0.132102
0.570138
-0.167919
0.18811
-0.0419262
-0.0994574
-0.432729
0.0493798
0.330038
0.32512
0.126915
-0.0813929
-0.18488
0.225409
0.251812
0.138458
0.00392528
-0.0646973
-0.195453
-0.00600045
0.0259367
0.111715
-0.622779
0.0592425
0.0180603
-0.120162
-0.10104
0.0810261
-0.168007
0.0708779
0.0807957
-0.142068
0.00989705
-0.766507
-0.179499
-0.149686
0.175419
0.106201
-0.265786
0.185734
0.340833
-0.627136
1.0542
0.107121
0.199653
0.189476
0.0920497
0.186415
0.229337
0.267044
0.0918754
-0.022278
0.00513309
0.0491061
-0.297102
0.280228
-0.300162
-0.384164
-0.197591
-0.158789
-0.173089
0.267277
-0.490492
-0.099095
-0.0648761
0.36781
0.101249
-0.185978
-0.211155
0.168068
-0.133688
-0.0186321
-0.192553
0.309144
0.128421
0.333516
0.0423713
-0.445268
0.0470417
0.37189
-0.464581
-0.0390945
-0.366083
-0.277897
-0.221336
0.458032
0.105335
-0.174072
-0.298688
0.173681
0.114655
-0.352335
-0.097962
0.371937
-0.298419
-0.124583
-0.39272
-0.624829
-0.0219642
0.157959
-0.0460874
0.0307668
0.144676
0.106725
0.0949068
-0.228433
-0.175689
0.331044
0.0771543
0.293803
-0.224709
-0.01467
0.011469
-0.301626
0.081412
-0.199538
-0.203592
0.243717
0.107154
0.100784
0.126934
-0.130566
0.147344
-0.0471022
-0.341379
0.0804231
-0.0747804
-0.105399
-0.213068
0.0894011
0.206484
-0.207791
0.194571
0.212288
-0.0328474
-0.385635
-0.0372632
-0.116468
0.0678158
0.439711
0.0166592
-0.392046
0.55655
0.132779
-0.387277
-0.708558
0.258902
0.320651
-0.708954
-0.406514
0.0626735
0.277102
0.00818969
0.0419546
0.513765
0.0486831
-0.0383328
0.0580158
-0.115633
-0.0526289
0.283032
0.136469
-0.321892
-0.25084
-0.177757
-0.0790475
0.146025
0.308608
-0.181944
-0.0514288
0.234766
0.0703429
-0.143779
-0.078901
0.036917
-0.468451
0.243344
0.322985
-0.20065
-0.502281
-0.027081
-0.00929699
-0.0179941
0.139985
0.266403
-0.316099
0.280112
-0.13652
-0.276614
-0.424603
-0.364387
0.0757172
0.134244
-0.0505444
0.13318
-0.275501
-0.010205
-0.0470994
-0.22261
-0.487703
-0.0528804
-0.0526422
0.175718
-0.347633
-0.132098
-0.266817
0.259057
0.145273
-0.344691
-0.253995
-0.105295
-0.0685936
0.244785
-0.211766
-0.286398
0.0199861
0.0139203
0.117256
0.101197
-0.0205547
-0.210421
0.0877357
-0.0939217
-0.198453
-0.137572
-0.323313
-0.063909
-0.0230959
-0.0899095
-0.388449
0.248638
-0.106188
-0.0716023
-0.412703
0.120854
0.200736
0.020722
0.0281969
0.279416
0.0432022
-0.0459333
0.173651
-0.0618461
-0.115239
0.146224
0.254274
-0.134
-0.203097
0.335161
0.513663
-0.246547
-0.412066
0.655677
-0.442874
-0.201686
0.217211
-0.0486546
0.233904
-0.380279
0.0555904
-0.18939
0.0649692
0.58556
0.146849
-0.4909
0.175896
0.199485
0.35682
-0.114356
-0.0825065
0.0236142
0.0687985
0.264719
-0.0522766
-0.281812
0.171111
0.0963314
0.00394659
-0.235597
-0.0929169
-0.0113243
0.0591961
0.2003
-0.0497612
0.35618
0.18698
0.473727
-0.174245
-0.082221
0.265408
0.450751
0.532593
0.0863923
-0.31253
-0.114323
0.101377
0.52454
-0.136922
0.151536
0.56997
0.342262
0.219967
0.0532193
0.181862
-0.142104
-0.119903
0.500753
-0.245027
-0.196025
0.196591
0.428504
0.0489045
-0.125194
0.114708
-0.224962
-0.125162
0.319072
-0.0491917
-0.108034
0.489165
0.265118
0.457405
0.128197
-0.306934
-0.100864
-0.176069
0.122359
0.225179
-0.215348
0.150974
0.00161769
0.157508
-0.0109668
0.00946431
-0.172876
0.107127
0.196293
-0.218822
0.144792
0.195791
0.265829
0.334953
0.108351
-0.308584
0.202976
0.491209
-0.204131
0.132824
-0.230036
0.103917
-0.0996383
0.13826
0.371643
-0.271799
0.0466759
0.184781
-0.110629
0.129585
0.0991796
0.0576031
-0.0070768
0.143515
0.301515
-0.485588
0.000483102
0.271662
-0.143856
1.07316
-0.5521
-0.455814
0.619763
0.871399
0.380466
-0.631187
0.115197
-0.962146
-0.596881
0.202305
-0.384266
-0.0515912
-0.13527
0.375833
-0.00971689
-0.293928
0.181136
-0.237717
-0.116324
0.193681
-0.136981
0.0797121
-0.3532
0.00862248
0.0338412
-0.383032
0.0937406
0.149372
-0.163809
0.408964
-0.356168
-0.0430579
0.149229
0.48185
0.423616
-0.0880956
-0.247785
-0.356414
-0.17568
0.135636
0.109394
0.390661
-0.384721
0.0596116
0.141207
-0.054307
0.0522201
0.296414
0.137151
0.256029
0.185578
0.346559
-0.064063
0.248806
-0.320127
0.00725991
0.330511
0.298908
-0.251284
0.200395
-0.256948
0.529414
0.280806
0.114702
-0.017123
-0.0340297
-0.0898145
0.196606
0.0870468
0.0406356
-0.113443
0.0856769
-0.0425214
0.0850166
-0.0851679
-0.138955
0.0647121
0.165564
-0.0242545
0.294702
-0.0132211
0.5142
-0.392252
0.256843
0.00587636
-0.00111423
0.135807
0.173842
0.0242754
-0.0308431
-0.310723
0.175868
-0.151729
0.127504
0.275484
-0.151043
-0.153627
0.114586
-0.109
-0.483358
-0.087009
0.4395
-0.576718
-0.44856
0.272511
0.179987
-0.400752
0.301417
0.455442
-0.376355
0.16392
-0.0932399
-0.134409
-0.0583871
0.154162
0.202279
-0.0775081
0.113348
-0.404832
-0.247544
0.296673
-0.347856
-0.134164
-0.0216542
0.405434
0.267967
0.13256
0.0401525
-0.158432
0.143661
0.250128
-0.0778937
-0.0200559
0.036466
0.172065
0.0769696
0.244448
0.162312
-0.026354
0.208642
0.169422
-0.0663807
0.0376227
-0.148311
0.119118
0.312056
0.27058
-0.273214
-0.0773506
0.287141
0.100781
-0.0119758
0.145193
-0.0563497
-0.0357968
0.0691846
0.107514
-0.127041
0.224033
0.264661
-0.190382
0.0990321
0.103804
-0.371361
-0.141683
0.0766456
0.107065
-0.146268
0.12893
0.394632
-0.128455
0.122362
0.0338058
-0.125115
-0.0700573
0.0838397
0.342271
-0.0886531
-0.0356092
0.174552
-0.095664
0.0809976
-0.407846
-0.172269
-0.0762211
0.140727
0.28444
-0.186268
-0.113921
0.268608
-0.103128
0.0458499
-0.271099
-0.134896
-0.12248
0.270517
0.315089
-0.049143
-0.0692263
0.275322
-0.185269
0.0648349
-0.247238
-0.146885
-0.167707
0.114511
0.158834
0.00330535
0.0514163
0.114841
-0.169182
-0.169008
0.00484399
-0.339394
-0.0528781
0.23981
0.226159
-0.132545
0.0745231
0.505971
0.0741368
-0.0319553
0.166689
-0.283013
-0.558616
0.0868813
0.193355
-0.42918
0.335988
-1.13647
0.0266408
-0.230283
-0.246649
0.269946
-0.689091
-0.249309
-0.0343467
-0.464218
-0.0856331
-0.825236
-0.0374226
-0.0247297
0.121222
-0.00139935
-0.215667
0.0569915
0.386778
0.122587
-0.290268
-0.551686
0.401574
-0.435677
0.226444
-0.0131449
-0.431735
-0.446848
0.0397031
-0.15571
0.309532
0.143404
-0.157733
-0.0669306
-0.0673172
-0.123708
-0.267563
-0.178103
0.108766
-0.107639
0.107909
0.135484
-0.407582
0.143888
0.0574478
-0.134391
0.026443
-0.034861
0.183199
-0.171593
0.025715
-0.119082
-0.289001
0.0299429
-0.103859
0.241648
0.0838429
-0.230571
-0.262161
0.180641
0.0683731
0.207017
-0.0828252
-0.150784
-0.208847
-0.250556
0.086228
-0.00825028
0.0262369
0.00469374
0.162354
-0.0154082
0.155401
0.345282
0.0530654
0.337459
0.102636
0.15143
0.201597
0.355352
-0.323617
-0.267242
0.104383
0.119444
-0.285257
-0.578004
0.181197
0.416529
-0.0936006
0.0974933
-0.0818087
-1.00098
0.299744
0.0136199
0.458445
-0.639166
0.639957
-0.14975
-0.306415
0.134915
0.369237
-0.989229
-0.193088
0.735717
0.0868858
0.191391
-0.118853
-0.311655
-0.0493647
-0.0496327
-0.314028
0.255429
-0.708855
-0.41896
-0.135183
-0.0378447
0.164169
-0.241086
-0.100696
-0.0115877
-0.0368745
0.169405
-0.134446
0.263236
0.272308
0.0438073
0.262059
0.0329761
0.0332433
-0.0831164
-0.289407
0.00920504
0.0625645
-0.478842
0.1206
0.133667
0.00951989
-0.0161354
-0.0286414
-0.186679
-0.0783932
-0.0986934
0.0907308
-0.252749
0.10036
0.0125578
-0.115489
0.0787307
-0.00383437
-0.126759
0.10876
-0.0113658
0.021718
-0.0942142
-0.143565
0.0413648
-0.00341099
-0.0241802
-0.0490971
-0.263959
0.256993
0.0565018
-0.0834754
0.0444493
-0.134474
0.323661
-0.304828
-0.0010976
-0.296408
-0.261082
0.0589449
0.110837
0.0877842
-0.13197
0.0794368
0.137451
-0.252111
-0.0478875
0.0903126
-0.196074
0.0916905
-0.0768869
-0.197718
-0.117351
0.142869
0.0950994
-0.0344086
-0.145831
0.0692781
-0.314503
-0.126699
0.259152
-0.1164
-0.365804
0.136918
0.0705061
-0.100762
-0.0461817
0.14039
-0.354388
-0.337726
0.288278
-0.176768
-0.399932
0.0158366
-0.14804
0.133001
0.078381
-0.0492135
-0.329276
-0.268483
0.163564
-0.188759
-0.26833
-0.409629
-0.0460651
0.216542
0.940871
0.153732
-0.195519
-0.279479
0.170845
-0.315587
1.70027
-0.3441
-0.398397
0.343175
0.459111
-0.0371695
-0.34952
-0.148556
0.259121
-0.0182227
0.790988
0.133998
0.00152411
0.275107
0.679272
0.0841619
-0.137864
-0.455906
0.121545
0.115183
0.740719
0.279724
-0.43727
-0.306103
0.256079
-0.0649922
-0.0462226
-0.0192504
0.0956287
-0.0803755
0.118839
0.276189
-0.277683
-0.137934
-0.106547
-0.0294404
0.156524
0.388367
0.327461
-0.563466
0.48716
0.379854
-0.334006
-0.0663117
0.00861451
0.0217433
0.0875061
0.56984
-0.137096
-0.438672
0.0126671
0.199134
-0.010233
0.0345947
0.421197
-0.132183
0.228092
-0.101077
0.225783
0.0912225
0.189425
0.140182
0.282426
0.127901
-0.179366
-0.119748
0.164651
0.0403654
-0.0498001
0.303596
0.193304
-0.0282436
0.092469
-0.0393626
-0.102131
0.052447
0.27619
0.158608
-0.208175
0.0844007
-0.0596027
-0.240326
-0.0286032
-0.303962
-0.0726244
-0.145157
0.0885691
0.130031
-0.340904
0.0599991
-0.139054
-0.0983993
0.211292
-0.294992
-0.0322265
-0.0866721
0.378718
-0.287665
-0.105021
0.235199
0.32768
0.133811
0.478501
1.45717
-0.0297108
1.1011
-0.275483
-0.367968
-0.327588
1.09849
-0.0371427
-1.71243
-0.308962
0.974427
0.0999045
0.0106067
0.077559
-0.102201
0.186999
-0.137964
0.102413
-0.293346
-0.0529876
-0.153235
2.89688
-0.00062454
-0.905412
0.0274045
-0.280708
-0.693455
-0.275744
-0.12771
-1.83191
-0.16718
-1.32979
-1.77284
1.23026
1.02083
0.789881
-0.699625
-0.994193
-2.48985
0.893794
0.0259489
-1.41466
-0.0310443
-3.65571
0.197522
-0.529415
-0.663748
1.20501
-0.422269
-0.0106662
-0.109362
-0.765249
0.240538
-0.218378
-1.69564
0.689793
-1.10396
0.259285
0.273631
0.943997
0.820949
0.665534
-0.617148
-0.52275
0.366415
0.804019
0.183188
0.129138
-0.0709978
-0.550775
-1.47034
-1.89694
0.165636
-0.0306123
-0.221043
-1.13027
-0.179092
0.254643
-0.021443
0.0138923
0.248005
-1.24794
-0.905666
-0.293104
-0.277795
0.225534
-2.28721
-0.711914
-0.239271
0.194035
-0.032312
0.0042008
-0.0433414
0.0923174
-0.000347696
0.161207
0.0562655
-0.112725
-2.93551
-0.147248
-0.0312148
-0.14922
0.0104475
1.9008
1.2193
-0.0859026
0.0948849
-0.159352
1.549
0.445152
-0.345436
0.253232
0.265256
-0.364973
-0.162628
-0.131213
-0.00459401
0.0504903
0.302125
-0.230104
-0.0216922
0.165094
0.177455
-0.175508
0.0316354
-0.224159
0.0563525
0.00743939
-0.0947204
-0.140776
0.0951651
-0.168935
-0.132674
-0.010267
0.09836
-0.157757
0.11857
0.165532
-0.178623
0.0748413
0.162164
-0.247291
-0.303434
0.114632
-0.264645
0.0056629
-0.0777732
-0.0798896
-0.139294
0.277681
0.044365
-0.0496927
-0.0443527
-0.219209
0.0320468
-0.351319
-0.0537221
-0.0887411
-0.0793847
0.0496848
0.363723
-0.783405
-0.780414
0.344668
0.0365782
0.252191
0.161707
-0.012179
-0.306532
0.778256
0.12083
-0.281156
-0.311313
-0.0278656
0.105658
-0.0402804
0.111036
0.0494915
-0.0344133
0.228156
0.467948
-0.460121
-0.493898
0.11886
0.10329
-0.270154
0.0716667
-0.0187492
-0.277442
0.414387
0.461431
-0.00632119
0.00262722
-0.284499
0.0572233
-0.0775996
0.0349112
-0.0559474
-0.274417
-0.0195881
0.271009
-0.134416
-0.0645515
-0.0220332
0.0926263
-0.0416985
0.110464
0.00639979
-0.117454
0.17453
0.343951
0.289112
0.407243
-0.431651
0.0381165
-0.369059
0.0568578
0.00885643
-0.0767576
-0.359005
0.739857
-0.274264
-0.0770051
-0.171775
-0.0752829
0.145874
-0.219516
0.186247
-0.0861909
0.190099
0.113888
-0.230681
-0.156375
-0.24344
0.0620673
0.117858
-0.0330547
0.196603
-0.0253576
0.0659456
0.172019
-0.203268
-0.21746
-0.317008
0.0923169
0.0965177
0.099661
0.291139
0.1164
0.15357
0.211044
-0.213098
-0.321838
-0.402608
0.0881766
0.0257262
0.147377
0.281865
-0.0298401
0.0165611
0.299315
-0.161769
-0.271537
-0.310412
0.0367624
-0.0751628
-0.0495395
0.0892076
-0.109786
-0.0590021
0.284404
-0.229372
-0.296586
-0.27939
-0.00313555
-0.0334023
0.0416331
0.0225875
-0.216452
-0.00390108
0.362341
-0.158124
-0.200081
-0.251482
-0.0521078
-0.024111
0.0409392
0.200589
-0.0721146
0.0636441
0.256246
-0.246835
-0.127894
-0.205233
-0.113348
-0.0969807
0.0488596
0.253523
0.0671441
0.108173
0.198995
-0.226017
-0.0989746
-0.198866
-0.0928209
-0.0189762
0.0486795
0.288475
0.173936
0.162416
0.126957
-0.277099
-0.0808947
-0.161949
-0.154155
-0.0649637
0.163683
0.411249
0.284515
0.300013
0.181443
-0.214108
0.0453846
-0.122501
-0.183744
-0.169781
0.16439
0.480594
0.422838
0.331064
0.0498614
0.658909
-0.413701
0.206852
0.137814
-0.205565
0.00320288
0.0993933
-0.0185057
-0.0762753
0.25575
-0.176343
-0.237373
0.148626
0.137971
-0.0764114
0.102072
0.153672
0.15315
-0.0533526
0.0348372
-0.214213
0.0548863
-0.134042
-0.160187
0.121952
0.206681
0.199822
0.0823003
0.0153229
-0.194643
0.1424
0.0512184
-0.0941923
-0.184115
0.0632615
0.0640572
0.102717
0.14182
-0.0543156
-0.0606645
0.0975503
0.0222366
-0.217416
-0.184191
0.137852
-0.0720449
0.0500456
-0.064178
-0.0730628
-0.114035
0.164688
0.0223807
-0.3952
-0.426034
0.250206
0.0453264
0.510319
0.27111
0.0192341
-0.0403091
0.361369
0.095809
-0.407156
-0.404853
0.3323
-0.0872671
0.352146
0.0954124
-0.0502139
-0.133519
0.406854
0.0172545
0.015083
-0.0229363
-0.0688632
0.0871509
0.050036
-0.0329908
-0.0400037
-0.0096475
0.0082633
0.253167
-0.199257
-0.208343
0.122892
0.0613873
0.28589
0.0696768
-0.0729265
-0.291567
0.159802
0.138699
0.0970687
0.0735166
-0.0487169
0.120852
0.0708142
-0.00977421
0.035301
-0.0895933
-0.0604091
0.0465645
0.0661871
0.0770163
-0.138075
-0.0319873
0.133814
0.0286559
0.171818
0.00522943
-0.0919824
0.516228
0.303704
-0.229601
-0.266997
0.062953
0.114077
-0.102318
0.156776
0.328766
-0.270134
0.292911
0.294948
-0.127007
-0.143154
0.0070875
0.108517
-0.167127
0.166073
0.190733
-0.150452
0.178257
0.189536
-0.0430282
-0.0352053
-0.0817504
0.0811698
-0.130207
0.0545501
0.117433
-0.0146857
0.127103
0.197879
-0.0432557
0.0344049
-0.157095
0.134798
-0.23101
0.0201833
0.0600942
-0.0561213
0.0300069
0.30403
-0.00942461
0.0142864
-0.198936
0.268337
-0.157409
0.0557244
0.0104914
-0.145699
-0.00591709
0.0125136
0.296419
0.332886
-0.357995
0.138588
-0.390644
0.072356
0.00953715
0.199652
-0.217764
0.121449
0.10053
0.110464
-0.196702
0.00777212
-0.178012
0.0573561
0.0757533
-0.0622213
-0.00499544
0.0328173
-0.0493911
0.0425303
-0.120172
0.0245739
-0.222071
-0.011533
-0.0676072
-0.0325644
0.0326249
0.000999511
0.146018
0.202286
-0.288335
0.210176
-0.398138
0.0214988
-0.0091426
0.0256957
-0.17675
0.047936
0.0625588
0.0817546
-0.150324
-0.0907376
-0.173205
-0.0510363
0.0185532
-0.0825917
-0.0923545
0.257836
0.0154216
0.0255926
-0.093265
0.0721924
-0.306043
-0.155093
-0.156623
-0.232328
0.0166858
0.436218
-0.0477063
-0.119453
0.107595
-0.0063304
0.754862
0.442317
1.03792
1.30991
0.0108597
0.127799
0.0386596
-0.11659
0.0811181
0.161123
0.448654
0.32844
0.400892
0.63504
-0.0732167
0.0842063
0.113067
0.0641412
0.0393183
-0.0948733
0.100409
0.367194
0.265572
0.496518
-0.159509
0.029504
0.169158
0.110247
-0.005133
0.0227021
0.133048
0.247203
0.081711
0.365259
-0.0180775
0.076825
0.0510881
0.164517
0.0571156
0.099858
0.179003
0.305028
-0.0227535
0.313328
-0.011229
-0.00977256
0.114574
0.0644048
-0.0989442
0.100867
0.0636943
0.127295
0.0554306
0.359943
0.0143309
0.0662784
0.033321
0.0206172
0.00974675
-0.0114057
0.146688
0.155508
0.082091
0.225661
-0.137263
0.19559
-0.0713843
-0.0439324
-0.123405
-0.0493306
-0.116167
0.28286
0.0782397
0.290812
0.117823
0.194524
-0.0360981
0.0656843
-0.060371
-0.248678
-0.411455
0.30662
0.121094
0.319011
0.235647
0.17734
0.0346511
0.0605316
-0.00250549
-0.291345
-0.239163
0.200765
0.0840593
0.290686
0.391906
0.0836586
-0.397661
0.0421295
-0.053336
-0.483301
-0.223759
0.0201293
0.350854
0.717901
0.342155
0.09436
0.632551
0.0653068
0.192848
0.210928
0.0709489
0.365927
0.177677
0.721103
1.21603
-0.108958
-0.0115878
0.0889483
0.0702376
0.0399141
0.205374
0.126177
0.242359
0.0878761
0.718136
-0.113603
0.0763882
0.190764
0.229006
0.0528551
-0.0553114
-0.249705
0.29145
-0.00274929
0.657233
-0.090284
0.20942
0.186385
0.13104
-0.121187
0.232977
-0.246985
0.287131
-0.107381
0.524385
-0.179799
0.269161
0.153306
0.10526
-0.0943251
0.0941871
-0.0586948
0.237516
-0.170075
0.327736
-0.206014
0.0762754
0.0939032
-0.119512
-0.230706
0.077964
-0.123991
0.141972
-0.252924
0.0874654
-0.0977587
0.315322
0.17519
0.0657125
-0.0374373
-0.115625
-0.060242
0.0474944
-0.223535
0.293029
-0.27203
0.188295
0.15078
-0.066656
-0.190803
-0.130903
-0.0270609
0.15125
0.136442
0.377792
-0.112161
0.296702
0.108395
0.0700037
-0.12537
-0.289291
-0.170724
0.136104
0.0230555
0.530998
0.0515632
0.224593
0.256933
0.160696
0.115401
-0.25012
-0.213754
0.0983776
0.0435808
0.611204
0.0717298
-0.0131437
-0.0505689
0.206502
0.155206
-0.510597
-0.122964
-0.110163
0.336458
0.722933
-0.00313231
-0.129575
0.557221
-0.221281
0.123092
0.124785
-0.317448
-0.0740312
-0.177347
-0.0341875
0.029606
0.332005
-0.224939
-0.0195533
0.029948
0.0967842
-0.165261
0.021494
-0.14025
0.0650015
-0.0764659
0.0796525
-0.0791765
0.0519214
-0.181557
-0.15263
0.0674058
-0.026098
-0.0135653
0.0920848
0.0812671
0.0774893
0.140295
0.128147
-0.248038
-0.26784
0.210579
-0.17994
0.155516
-0.039047
-0.127295
0.0131445
0.332486
-0.0434945
-0.0538863
-0.0362876
-0.0838507
-0.0326533
-0.153866
0.00567819
-0.165609
0.0176956
0.0797448
0.27598
-0.58935
-0.602881
0.283582
-0.035526
0.24965
0.156579
-0.0947084
-0.138204
0.573153
0.108678
-0.228995
-0.30389
0.0864595
-0.0608167
0.0827977
0.0477696
-0.0489418
0.00222532
0.270899
0.233439
-0.41729
-0.420921
0.134742
-0.0872062
0.0253722
0.0626553
-0.134467
-0.126308
0.402132
0.364446
-0.0418064
-0.0941856
-0.154229
0.0264308
0.0114231
0.0286774
-0.0934287
-0.188095
0.0870299
0.193268
-0.254332
-0.174377
0.0564378
0.0577931
0.027977
-0.0512007
0.00125925
-0.0645321
0.245544
0.22018
0.154019
0.138326
-0.308452
-0.0362481
-0.227953
-0.125976
0.01429
-0.0472214
-0.195168
0.573808
0.0206777
-0.273739
-0.32392
0.014726
0.233873
-0.334542
0.468106
0.47058
-0.0411708
0.180845
0.011267
-0.392479
-0.474261
0.156976
0.049061
-0.0440849
0.451882
0.430185
-0.0421769
0.377544
0.013737
-0.270988
-0.354967
0.251961
0.0520749
0.067987
0.279237
0.310858
-0.0806597
0.253043
0.121224
-0.377292
-0.449133
0.303561
-0.152197
0.154937
0.164414
0.213302
-0.18714
0.427752
0.205291
-0.229926
-0.32698
0.146747
-0.105957
-0.0571562
0.147862
0.136914
-0.167209
0.315354
0.0254057
-0.35481
-0.348359
0.113611
-0.0203987
0.184497
0.134619
0.0988532
-0.125397
0.339087
0.0463489
-0.156295
-0.142964
0.0654899
-0.03729
0.0577897
0.0432239
0.0601451
-0.0588119
0.103538
-0.0205212
-0.284439
-0.235605
0.119962
0.0187742
0.0733918
0.143825
0.2479
-0.0756241
0.166184
-0.271771
-0.0338036
-0.0612335
-0.0524796
0.130294
-0.0495727
0.227396
0.247743
0.202245
-0.0131694
-0.323252
0.0141975
-0.110845
0.0397297
0.104418
0.077362
0.209724
0.267676
0.315717
0.0782129
-0.0441411
0.115364
-0.00243864
-0.0906689
0.0233992
0.120194
0.391594
0.480798
0.196966
-0.162909
0.40815
0.51237
-0.182748
-0.185219
0.248142
0.0926695
-0.118222
0.0384994
0.0868385
-0.38482
0.130811
0.188206
-0.131393
-0.139654
0.146863
-0.015409
0.0808187
-0.0148286
0.128753
-0.125865
0.229673
-0.0230979
0.425525
0.42329
-0.296861
-0.114909
-0.128195
-0.0195578
-0.0697087
0.200771
-0.431298
-0.0758559
0.226583
0.293874
-0.187291
-0.0490545
0.120387
-0.035233
0.08293
-0.00497533
-0.212428
-0.184077
0.2386
0.273121
-0.189296
0.0334351
0.164564
0.166799
0.207705
0.14704
-0.310349
-0.100849
0.44238
0.452906
-0.15907
-0.117941
-0.358759
-0.29272
0.0332075
0.0854712
-0.438535
-0.378515
0.597124
0.639799
-0.386097
0.0996657
-0.201279
0.0161924
0.198358
0.240873
-0.628785
-0.168524
0.0630497
-0.0446811
0.140501
-0.266027
0.19279
0.0719867
0.113793
0.162412
0.0356344
-0.443401
0.515336
0.391232
-0.25932
-0.071448
-0.108673
0.0956202
0.162753
0.394249
-0.462704
-0.247525
0.00437284
-0.0344202
0.0838575
-0.012747
0.186521
0.129247
0.0572498
0.175509
-0.0389962
-0.273673
0.0416022
0.0364567
0.118839
-0.0835968
0.16443
0.0348179
-0.0046271
0.102054
-0.0115024
-0.547336
0.154563
-0.256875
-0.00651042
0.296849
0.421454
0.112173
0.602391
1.02352
-0.162763
0.247529
-0.0445302
-0.139526
-0.0161699
0.204685
0.0841211
0.237394
0.165672
0.447099
0.0678793
0.13129
-0.110359
-0.180943
-0.140067
0.196949
-0.0742377
0.209988
-0.068732
0.454944
-0.00284703
0.266314
-0.177708
0.0648746
0.015142
0.14674
-0.139985
0.275958
-0.00352269
0.426591
-0.120817
0.107846
-0.148139
0.0539528
-0.0879061
0.236145
-0.164588
0.0976647
-0.0787419
0.453174
0.0399861
0.0254127
-0.0973269
-0.0127444
-0.16227
0.10869
-0.222552
-0.159312
-0.0788793
0.604226
-0.00805883
0.0662321
-0.11756
-0.111491
-0.215543
0.0317041
-0.44097
-0.0184603
-0.125695
0.447227
-0.0517272
0.292409
-0.279029
0.00118204
-0.102293
0.0366126
-0.364528
0.216793
0.0413721
0.416127
0.308992
0.0649975
-0.370005
-0.056966
-0.20511
-0.0989629
-0.564508
0.221222
0.0677552
0.443259
0.470803
0.159889
-0.45595
0.0130987
-0.219423
-0.193973
-0.390811
-0.0743915
0.0742861
0.57533
0.523896
0.181955
-0.849134
-0.169339
-0.310005
-0.266281
-0.217265
0.202921
0.362729
0.779883
0.548856
0.28517
0.373093
0.691559
0.328375
-0.441225
0.334121
-0.364619
-0.170367
1.17323
0.154394
0.299706
1.09626
0.149284
-0.572988
-1.42545
-0.696874
-0.0134559
-0.0302559
0.133394
0.541686
0.701292
1.20722
-1.05481
0.165125
-0.151697
0.0714656
0.309337
0.819091
0.625926
0.833728
-0.281713
0.0999278
0.227278
1.1491
-0.0509285
0.626917
-1.08055
-0.168856
-0.857279
-1.20488
0.101269
0.409357
0.318113
0.404992
0.361819
-0.875316
0.555527
0.798598
0.211583
-0.148871
-0.980661
-0.174534
0.180198
-0.369462
-1.33397
0.0898414
-1.31893
1.08273
0.508148
1.1768
-0.144315
0.176653
0.206372
-1.64739
0.758642
-0.186338
-0.803948
1.02734
0.608266
-0.709499
-1.08126
0.772856
-0.753388
-0.574103
0.214639
1.04672
0.600028
0.163971
-0.27007
-0.675098
-0.583783
-0.633366
1.12714
0.929245
0.260066
-0.0115907
-0.280728
-0.370295
-1.1757
-0.592834
0.235553
-0.479529
-0.929876
0.962685
1.03542
0.500884
0.126998
0.471626
0.423327
-0.144895
0.602405
-0.00543334
0.238383
0.0161697
1.2091
-1.01944
-0.736958
-0.876885
0.827161
-0.0529751
0.0922418
-0.854811
-0.442077
0.550962
-0.773195
-1.13198
0.112481
-0.446634
0.48528
-0.221595
0.522635
0.586818
0.46644
-0.0129781
-0.0879541
0.537404
-1.3765
0.229649
1.00108
0.739646
0.646914
0.554878
-0.422828
0.0117295
-0.115241
1.14193
-0.385286
-0.78925
-0.42895
1.30206
-0.00249571
-1.38739
0.97904
-0.13361
0.646084
0.677943
-1.00693
0.181309
-1.3804
-1.08426
-2.15286
0.516495
0.245072
0.936633
0.234398
-0.297056
-0.0163048
-0.120296
0.666557
-0.0687526
0.574088
1.33224
-0.541854
0.785308
-1.10233
1.0855
-0.388861
-0.119257
0.479357
-0.330619
-0.872139
0.2048
-1.34312
-2.41132
0.452562
0.621222
0.291794
1.52352
0.0262628
-0.151961
-0.139292
-0.331385
-0.818265
-0.413681
-0.127081
-1.03576
-0.802027
0.182277
0.00482221
1.1571
0.169735
0.929979
0.126284
0.695785
-0.393473
0.542846
0.752644
-1.02975
-1.1351
-0.390902
-0.937005
0.00693136
-0.557611
0.390743
0.0459684
-0.161103
2.28702
2.95579
-0.917627
-0.722745
1.15588
0.191591
1.17713
0.377337
0.244385
-0.10452
0.154557
0.0920264
0.788728
-0.121607
-0.634946
-1.13042
-1.30277
0.821584
-0.179353
-0.0512356
-0.424553
-0.107559
-0.687943
0.95125
1.61952
-0.426776
-0.820521
0.0519777
0.0774181
0.457965
-0.72272
-0.450333
-0.0140012
-0.0875364
0.235248
-0.258147
-0.0938379
-0.379747
0.283914
-0.937864
0.383821
-0.110194
0.467831
-0.172244
-0.395836
0.00936492
-1.89546
-1.87083
0.0812657
-0.198152
0.616039
1.0975
-0.299458
1.01793
-1.64606
0.110782
0.0308729
-0.858078
1.59723
1.82951
0.0600164
0.939829
-0.937392
-2.05135
0.13815
0.456214
-0.432542
0.394896
0.0437786
0.182722
-0.714651
-1.00962
0.00331155
0.909574
-0.633642
0.563387
-1.33916
0.812166
0.770129
-0.00361802
1.04812
-0.563747
1.52383
1.00084
-0.0275218
0.343693
-0.0808035
-0.317834
0.0950575
0.140796
0.290489
0.674925
0.755767
0.33568
-1.23256
-0.308767
1.24445
0.0174192
0.768059
-1.66048
-0.561657
1.14109
0.274462
1.10108
0.208176
2.42037
0.458305
-0.656344
-0.439742
-0.399906
0.0985054
0.103095
-0.141808
0.824959
0.669615
-2.31118
-2.10793
0.754788
-0.957428
-0.95688
1.07716
0.180712
1.81862
-0.0939884
-1.47351
-0.937922
-0.991523
-0.0536572
-0.342992
-1.16304
0.921036
0.453063
-0.660593
0.400141
0.595238
0.0332274