0.232257
0.0151344
0.722799
-0.428775
-0.580005
-0.971319
1.0698
0.332801
-0.943924
-0.532198
1.21178
0.161272
-0.125149
0.811401
-1.3033
0.289392
-0.817707
1.12553
0.782581
-0.495933
-0.846258
0.215239
-2.75269
0.382855
-2.97951
-0.196582
0.858502
2.54005
-1.0366
0.996258
-1.18879
-0.122283
0.36939
0.449604
1.25118
0.602694
-1.19364
-0.36823
-1.27738
-0.725049
-0.0467661
-0.735629
-0.926611
-0.000722805
0.863588
-0.662323
-0.124688
-0.652829
-0.608875
0.164725
-1.35798
-1.3023
-0.783551
-0.00992352
-0.758886
0.728723
-0.733081
-0.112068
2.19467
0.402912
1.81669
0.148879
-1.27815
2.10703
1.12858
0.592285
0.591399
-0.400795
0.850787
1.55359
0.0574282
-1.25775
0.79227
0.600983
1.70898
1.29631
-1.55776
2.40212
-4.39253
-1.03863
-2.81101
-0.315755
-1.31384
3.50356
-1.25169
1.16669
-0.903799
-1.24805
-1.89519
-1.84395
-0.179535
-1.85519
2.22999
0.799888
3.27124
-1.79654
0.428999
1.02596
-1.88479
0.742958
2.56015
-0.794171
5.54098
-4.18039
-0.478931
-4.94625
3.76111
0.328352
-0.771988
0.821363
2.72808
3.01655
2.1334
1.44362
0.934407
-0.805488
-0.699721
0.372844
-1.37598
3.21232
0.558094
-1.76766
-0.0353956
-0.0712458
0.186661
0.824199
0.872765
-0.166007
-0.352053
-1.91657
0.172005
1.26062
-0.85277
0.00669128
0.494808
1.93243
0.422922
-0.932795
-1.9007
-0.117353
0.33284
0.400636
1.71929
0.772954
3.14773
0.330632
5.07255
-3.77548
0.165911
-5.10199
3.69579
-0.107198
-0.650227
0.0870443
-3.89788
1.6871
-0.0530671
1.4905
-0.159887
0.78138
-3.28794
0.669127
0.256316
-0.898381
1.28358
2.53667
0.989966
1.27823
1.31379
-0.496574
-0.427316
0.483528
0.695865
-4.07949
1.03111
-0.910594
1.77774
2.1484
2.11357
-0.0304135
1.01282
0.0167766
-0.270192
-0.406132
-0.612513
2.66062
0.691235
-2.25763
2.666
-0.500149
2.57131
-0.669981
-0.00917731
-2.46276
0.442297
-4.56803
-0.903268
-1.8432
0.654098
-0.0539458
1.25431
-1.17443
0.0895389
-2.30897
1.97225
2.34196
-0.595876
1.22657
0.594369
1.71351
1.96972
1.42489
1.57954
1.705
-0.937595
0.829855
1.13499
-0.45271
-2.76252
0.0707774
0.410691
-0.120663
-0.112447
-0.250281
-0.353442
0.04596
0.158802
-0.102302
-0.621349
0.14972
-2.7025
2.40943
-0.295081
0.0678195
1.37739
0.998942
1.87196
-0.310794
-0.808511
-0.647385
0.148873
0.600181
0.989853
1.07287
1.27272
1.08648
0.750348
-1.14862
-0.8366
0.383718
-1.77819
0.924897
-0.146711
-0.572064
-1.0677
2.93414
-0.19188
1.23356
1.22196
1.87074
-0.243726
1.7318
0.929387
3.87562
-1.87382
0.157591
0.151519
-1.391
-1.09137
-2.00661
0.526714
1.4632
0.119426
-0.142176
-0.178828
-0.140272
-0.665868
-0.767508
0.678214
3.26166
1.0332
1.55672
-1.39755
1.13097
-2.05293
0.418732
1.56699
2.28063
1.31118
2.35108
2.56054
-0.456836
0.598281
0.877475
-0.439389
-3.0284
1.06335
-0.339617
0.744286
0.552774
0.875612
-0.296898
0.182391
0.624165
0.0905113
1.31841
0.43854
0.0472719
0.462689
0.305399
0.280443
-0.1169
0.263648
0.269606
0.491874
0.811833
0.691637
-0.10716
0.887017
0.310113
0.325348
-0.0588185
0.256709
0.548159
0.23069
0.71262
0.443365
-0.134343
0.621253
0.256668
-0.0111399
-0.16369
-0.11004
0.338607
0.10249
0.602423
0.582501
-0.430504
0.38793
-0.0729901
-0.0962332
0.0793533
0.350964
0.451216
0.00794113
0.471292
0.39868
-0.0508877
0.115487
-0.0263257
0.258317
-0.261445
0.157842
-0.131229
-0.12757
0.505173
0.324102
0.343015
0.253116
0.105217
-0.148369
0.159919
0.106983
-0.102293
0.352548
0.207284
0.25394
0.221565
0.299823
-0.494131
-0.251553
0.00128211
0.0848839
-0.0251438
-0.226514
0.253558
0.439243
-0.0913986
0.0925506
-0.700875
-0.489119
-0.129567
0.388998
0.115809
-0.0939588
0.0216218
0.772029
-0.070954
-0.166088
-0.772396
0.0839085
0.107004
0.282541
-0.00778043
-0.146008
0.452444
0.575358
-0.13141
0.414358
-1.10385
0.239268
0.140931
0.0259508
-0.120807
-0.253659
0.879753
0.385091
-0.987655
0.642497
-0.113156
-0.251687
0.980973
0.509656
0.0339376
0.544577
0.401552
-0.822883
0.36635
0.158141
0.939425
-0.118745
0.845867
0.35468
0.0946891
-0.4807
0.0982277
-0.113042
0.943783
0.313951
0.0846619
0.15406
0.193853
0.239805
-0.0138262
0.237635
-0.019672
-0.0108252
0.073533
1.16931
-0.293959
-0.857217
1.11053
1.02599
0.194284
1.88162
0.387172
-1.42591
1.15701
0.49499
0.422022
-0.317098
0.340785
0.558182
0.108476
0.0118714
0.221306
0.981888
0.204107
-0.0421476
0.260257
0.989798
0.125485
0.381324
-0.315639
-0.0327332
0.243208
-0.0443362
0.364893
0.115215
0.437725
0.00426678
0.572522
1.05623
0.0884702
0.88616
0.401319
-0.441638
0.226991
0.109905
0.198882
0.190553
-0.178825
-0.269459
-0.101297
0.0315696
0.495803
-1.22088
0.355795
0.346485
0.142038
-0.081159
-0.0658876
0.0966075
0.119013
0.547957
-0.167068
-0.464953
0.302016
-0.328716
0.0685549
-0.202784
0.128401
0.503439
-0.265185
-0.414629
0.0874446
0.110743
0.0380178
-0.0167498
-0.338171
0.289983
0.539726
0.27046
-0.0221225
-0.144485
-0.432572
-0.191949
-0.144085
0.783758
0.0258485
0.0604602
-0.503064
-0.0760606
-0.708013
0.0376366
-0.293796
0.129054
0.423465
0.837635
-0.0788884
0.373722
0.322145
0.152254
-0.408384
-0.290168
-0.0210987
-0.759778
-0.000342727
0.587148
-0.555202
0.29236
0.241099
-0.372328
-0.528392
-1.06514
-0.655108
-1.0616
0.131401
0.508517
-0.0967705
-0.397953
0.521083
-0.338975
-0.74589
-0.23542
-0.29767
-1.12519
-0.0404497
0.462571
0.551313
0.179919
-0.340913
-0.449088
-0.759739
0.755345
0.298001
-0.0619193
-0.660552
-0.0146414
-0.0809502
-0.135732
-0.0494215
-0.536067
-0.659167
0.170181
0.263581
-0.427344
-0.621729
-0.24641
-0.694772
-0.558661
0.425068
-0.440103
-0.320554
-0.205077
-0.592189
0.0957555
-0.714695
-0.325644
-0.355645
0.428552
-0.0697899
-0.991831
-0.283136
0.0242663
-0.741764
-0.164339
0.206336
0.576382
0.296631
-0.25747
-0.665894
-0.272688
-0.584275
-0.15737
-0.692768
-0.60502
0.203034
0.455519
0.0629076
-0.628393
-1.00863
-0.437535
-0.291547
-0.185732
-0.14062
0.18643
-0.518701
0.189723
0.136512
0.380818
-0.308698
-0.325953
-0.627301
-0.120635
-0.55508
-0.15307
-0.430394
0.0153921
-0.0802929
-0.0156546
0.687533
0.191487
1.08416
0.540647
0.690934
0.517328
0.60131
-0.601784
0.239166
-1.02637
-0.110165
1.32064
0.523543
-0.886989
-1.18646
-0.412454
-0.839578
0.485359
-0.512136
-0.079327
0.275075
-0.488573
0.28496
0.154182
0.0180527
0.556706
0.263476
0.18205
-0.0591898
-0.226887
0.423615
0.0586432
1.00339
0.874043
0.438776
0.252997
0.729917
-0.484189
0.623155
-0.182633
0.240768
-0.0596007
-0.0176943
0.0115959
0.00192605
0.754676
-0.281291
0.297886
-0.752844
-0.41768
-0.117292
-0.284385
0.561758
0.335276
-0.0181368
0.086678
-0.043052
-0.0518793
0.608122
0.0397097
0.213764
-0.0921779
0.425586
0.926343
0.154015
0.157017
0.677338
-0.204122
-0.0861059
0.357311
-0.134432
-0.520706
0.302861
0.736513
0.449153
-0.265295
0.55129
-0.153499
-0.529288
-0.602569
-0.29542
0.138994
0.68047
0.00795755
-0.750023
0.363744
-0.598344
-0.117547
-0.0406679
-0.0192951
0.797847
-0.348205
0.889597
0.0534962
-0.0932766
-0.0812041
-0.351489
-0.749156
0.418536
0.0503605
-0.377356
-0.0402522
0.225115
0.241725
0.0157043
0.0984889
0.286789
-0.498472
0.853139
0.54307
0.400273
0.150115
-0.543157
0.161629
1.1077
0.564917
0.611188
0.293287
-0.377909
0.727379
0.795361
0.738853
-0.528412
0.654886
1.17094
0.386302
0.381706
-0.0673172
-0.250147
-0.172324
-0.569179
-0.265811
0.490121
-0.392634
-0.68095
-0.928649
-1.70624
-0.916208
0.0793392
-0.0554616
0.989072
-0.304699
-0.28198
0.23593
0.0638936
-0.0592382
1.13121
-0.0825066
-1.30178
-0.263972
0.0149546
-0.122934
-0.0882143
0.22079
0.569638
-0.180463
0.26106
-0.235102
-0.22709
-1.04764
0.0453747
0.286649
0.537195
0.147171
-0.0421663
-0.421597
0.636114
-0.299126
-0.511508
-0.318623
-0.232254
-0.228545
-0.529227
0.106387
0.739447
-0.0188941
-0.528559
-0.629164
-0.39551
-0.159803
-0.0988188
0.558606
-0.185074
0.375131
0.600443
0.224881
-0.132345
-0.0262553
-0.164716
0.116138
-0.178653
0.00687413
-0.668925
0.415931
0.385072
0.491583
-0.177377
0.0962068
-0.563477
0.321224
-0.318751
-0.198938
0.00650159
-0.104643
0.197726
0.123119
-0.513612
-0.463516
-0.337571
-0.100877
-0.306934
1.3303
-0.183813
0.742957
0.128826
0.188772
0.570979
-0.201948
-0.0605919
-0.396276
0.622571
0.447982
0.253419
0.110517
0.295656
0.262856
0.484008
0.384434
0.203686
0.353788
0.839892
0.140993
0.019999
-0.186411
-0.0984018
0.633281
0.383007
-0.0912873
0.74898
0.0114716
0.432334
-0.11347
0.517464
-0.0270106
0.0666322
0.295332
0.554525
0.237173
0.382427
0.0938839
0.132095
0.166399
0.228536
0.0996247
-0.110257
0.688359
0.33444
0.471972
0.249807
0.969758
-0.0105161
-0.314455
0.626939
-0.282051
0.255765
0.382873
0.668794
0.16967
0.431436
0.86205
0.331554
-0.304625
0.404455
-0.0555873
0.292961
0.546644
0.525124
0.050172
-0.0151062
0.359773
0.370872
-0.280066
0.728543
-0.482754
0.231778
0.357282
0.29198
0.0374733
0.253249
0.572426
0.245866
0.0460596
0.194435
-0.129644
0.234399
-0.314162
0.482878
0.402437
-0.541335
0.606571
0.256554
-0.670921
0.70947
-0.279298
0.796024
0.0449065
0.489413
0.194797
-0.079717
0.940371
0.336493
-0.331904
0.411728
-0.338624
0.174236
0.0803602
0.0196326
-0.111156
0.125229
0.0399671
0.011119
-0.144324
-0.0827588
0.0546038
0.199572
0.139838
0.169051
0.39716
0.162341
0.503801
-0.188634
-2.84831
0.674844
0.371106
-0.0173335
-0.272898
0.421576
-0.144677
0.0413838
0.117428
-0.228865
0.278219
0.574505
-0.114147
-0.118657
0.122293
0.0525756
0.179292
0.864904
-0.189749
-0.641201
0.341834
-0.525099
-0.338521
0.52795
-0.300121
-0.156347
-0.574159
-0.888577
-1.12552
0.51905
-0.442563
0.174843
-0.610866
0.222087
-0.164446
0.145953
0.157879
0.712515
-0.166847
0.419002
-0.0119347
-0.450614
-0.645499
0.813227
-0.262546
-0.0185559
-0.346507
-0.716099
0.0298702
0.412647
0.266747
0.238731
-0.492891
0.560911
-0.546769
-0.269873
-0.199516
-0.0692758
0.368033
-0.100534
-0.327902
0.321943
-0.839095
0.828403
0.354135
-0.165999
-0.315083
-0.330696
-0.243651
1.17478
-0.283913
-0.157663
0.233898
-0.66853
-0.0421241
0.319168
0.387835
0.0734502
-0.114317
0.490533
0.326585
-0.580199
-0.588453
-0.25374
-0.0617725
0.353542
-0.374083
-0.217614
0.100591
0.401527
0.148995
0.102192
0.0529355
0.409567
-0.300479
0.390057
0.304271
0.388342
-0.233919
0.0950035
0.273365
-0.201736
-0.446262
-0.206222
-0.321431
-0.232744
0.0169376
-0.345891
0.29385
-0.223441
-0.0658708
0.130078
0.592459
-0.142013
-0.155796
-0.143708
0.761437
-0.252636
0.628896
0.680662
-0.784065
-0.046852
-0.469054
0.0489874
0.0540056
-0.18293
0.347615
-0.258971
-0.470207
-0.156754
0.159286
-0.0192963
0.253848
-0.368913
-0.445216
-0.194262
0.0434055
0.0866905
-0.295594
0.221236
-0.995718
0.0956848
0.141147
-0.451177
0.124855
-0.0468784
-0.386594
-0.081606
0.497143
-0.0273917
-0.231125
0.112135
-0.268599
-0.0699002
0.300966
0.277906
-0.309169
-0.211552
-0.162061
-0.337521
-0.280269
-0.238803
-0.0815395
-0.21574
-1.02245
0.0866521
-0.627135
-0.291263
-0.459957
-0.198815
-0.0323243
-0.0131053
-0.173792
-0.0313469
-0.128604
-0.324579
-0.547786
-0.260328
-0.439817
-0.247439
-0.782208
0.0532466
0.25598
-0.283075
-0.0169407
-0.0598443
-0.41109
0.032722
0.1661
-0.349936
-0.31209
-0.427688
-0.027603
-0.663551
0.570183
-0.394248
-0.191972
-0.411578
-0.459401
-0.820665
-0.420814
-0.331125
-0.103515
0.297468
0.357276
-0.112775
-0.568885
-0.263861
0.147562
-0.434966
-0.289356
-0.115997
-0.00328458
-0.183051
0.397703
-0.380974
-0.155728
-0.29509
-0.584406
-0.281311
-0.109797
-0.656347
1.94914
0.794362
-0.520111
0.0425944
0.175237
0.389321
0.680364
-0.416189
-0.428382
-0.0821121
-0.0777186
0.759132
-1.03383
-0.7668
-0.0424119
0.0269238
0.500764
0.294404
-0.190165
-0.486398
-0.0689309
-0.0724479
-1.12301
-0.024781
-0.647685
0.329078
0.0645416
-0.0550618
-0.511438
-0.408339
-1.25005
-0.453864
-0.400806
0.198017
-0.846216
0.286207
0.838205
-0.0876453
-0.672913
-0.108759
-0.417594
0.728072
-0.958329
-0.559239
-0.370401
0.960698
0.861449
1.23745
-0.0749408
-0.462609
-0.842938
0.607319
0.0233972
-0.131848
-0.288432
0.471866
0.47819
0.237705
0.514316
0.177085
-0.258339
-0.077783
-0.676191
-0.199111
-0.695765
0.477227
-0.336861
0.440977
0.126133
0.715651
-0.446282
0.342355
-0.313777
0.03067
-0.0713048
0.328083
0.529904
-0.159635
-0.211468
0.409695
-0.460619
-0.277439
0.11622
0.483369
0.551286
0.895331
0.720658
0.22786
0.0464155
0.632834
0.00166512
0.328717
-0.380925
-0.480227
-0.377831
-0.141112
0.622961
-0.0280105
-0.756123
-0.558448
-0.406109
1.02962
-0.65857
0.072911
-0.0986565
0.591669
0.784377
0.301585
0.112571
-0.46514
0.466257
1.23322
-0.284763
1.01904
0.0748671
-0.0612885
-0.695408
-0.166634
-1.48958
-0.0824718
0.389978
-0.155534
-0.690402
0.425356
-0.0693498
0.426534
-1.38582
-0.951497
0.0371477
0.586576
0.197274
0.113316
-0.359765
1.05647
-0.954145
1.12578
0.618956
0.122917
0.776621
0.896193
0.594284
0.332433
-0.586862
-0.237888
-0.326264
0.930469
-1.4332
-0.399376
-0.97312
0.175533
-0.226468
-0.202199
0.251279
0.562889
-0.207162
1.17055
-0.634089
-0.20494
-0.690591
0.178805
0.102479
0.486616
0.945561
-0.118953
-1.19527
0.209347
-0.0098311
0.460481
-0.589956
0.581166
-0.0543194
1.04673
-0.329313
0.00066741
-0.918897
0.0170958
-0.701193
-0.221604
-0.27446
0.547336
-0.339954
0.265087
0.0243324
0.0388332
-0.361169
0.320219
-0.410416
-0.236583
-0.168724
-0.229834
-0.505399
0.943224
0.211673
0.269462
-0.159436
0.477452
-0.711218
-0.251347
-0.564513
0.238149
-0.634553
0.255758
0.606535
-0.0779533
-0.435509
0.733441
0.117819
0.497483
-0.594851
0.13857
-0.436385
0.564945
0.27848
0.0596039
-0.863645
0.352748
0.24897
0.4025
-0.602118
0.55397
-0.21617
0.0523078
1.21269
-1.12981
-1.14767
0.279593
-1.12085
0.832336
-0.84327
0.457443
0.704536
-1.50314
0.377774
1.0119
-0.172075
1.06451
0.783041
-2.17241
0.580309
0.316235
-0.465363
1.07578
-2.28258
-0.793259
-0.881246
-0.299919
-0.19915
-1.72793
0.0617542
-2.31084
1.03022
-0.973445
0.110649
0.936908
0.343779
-0.605557
0.834345
0.5335
-0.14645
0.312422
1.89201
-0.616824
-1.54006
-0.585797
-1.4264
1.75326
-0.183412
-0.975487
-1.75551
0.182163
0.841412
0.536137
-1.88421
-0.879343
0.444819
-0.128878
2.09183
0.119436
-1.2624
-1.32745
0.129601
-0.928789
2.0377
-0.773354
0.0106698
-0.336323
-0.533217
1.12132
0.417784
-0.87211
0.281133
0.639164
-0.145929
-0.987623
-2.39675
-0.193023
-0.239472
0.376553
1.26431
-0.710432
1.91412
-0.246172
1.14775
1.12877
0.098433
0.21949
-0.0599819
-1.29027
-0.793745
1.30088
-1.45018
0.630637
-0.746097
-0.470522
1.89808
-0.826362
0.997246
0.183231
1.74533
-0.562098
0.586454
-1.40147
1.57193
0.632568
-0.0306048
1.61409
0.852104
-0.158911
-1.83667
-1.4578
0.249419
0.652493
0.18797
-0.557101
-0.285826
-1.93526
-0.491568
-0.512106
-1.10269
1.33348
0.881063
0.461921
0.120117
0.964718
-1.36088
-0.346446
0.632275
0.649261
3.72311
-1.07918
-0.529577
-1.22782
-2.34455
-0.272138
-0.912747
0.450551
1.24227
-1.41948
-2.45531
-0.67566
1.01346
0.150427
-0.817004
-0.290838
-0.0445924
-0.0447293
0.764424
-0.129976
0.104976
0.0653355
3.15965
1.07713
-0.781007
-1.0714
-0.775766
-1.52776
-0.246728
0.182264
0.106425
0.0680835
0.583977
-0.970235
-1.94933
0.567169
0.491552
-0.0839093
1.1972
0.082725
0.331063
-0.934637
-0.271149
0.093678
0.246086
-0.745357
0.372318
-0.3654
-0.0845499
0.143935
0.288035
0.466047
-0.307285
0.285748
-0.614273
1.68221
-0.970399
0.47368
-2.0055
-1.04704
1.36305
0.533226
0.620307
0.491293
1.15269
-1.12227
-1.67147
0.786502
-0.784976
-0.44421
-1.52172
0.195029
-1.38138
-1.37487
0.578459
-0.400527
0.610862
1.08284
1.25269
-0.25471
-2.77228
0.868573
0.249088
-0.692975
1.14921
-1.2139
0.317617
0.43127
-1.2111
-0.211099
-1.20862
-1.04097
0.294936
1.35233
2.05838
0.699764
-0.672957
0.411202
0.363245
-0.573153
-0.733491
0.782096
0.61931
0.490468
-1.95675
-0.641382
2.73913
-0.932159
0.269353
-0.893524
-0.158259
-0.514914
0.47923
2.37668
1.8175
3.73084
0.0527447
-2.5247
-1.738
-0.980512
-0.0589089
1.73023
-0.448472
-1.09186
1.27814
2.77626
0.461879
-1.00033
2.23301
1.97017
-0.302537
-0.221204
-1.13729
1.23636
0.892389
-0.128663
1.66836
-1.89655
-0.334322
-0.144622
-2.04306
-0.771761
1.0398
-0.037808
-1.2122
1.8129
-1.25835
1.01994
1.42544
1.80184
0.121804
0.55554
0.181003
-1.94019
-1.49648
-0.349011
-0.452663
0.0158514
0.18008
0.703325
-1.85477
-0.505325
1.39651
0.444145
0.168517
1.25036
0.666404
-0.605503
0.471427
1.71154
-1.01862
1.9886
1.74746
-2.00476
-0.0670257
0.670247
1.2199
-0.183012
-1.18685
-0.562707
0.470588
-0.136217
0.53762
0.652151
-0.82113
0.562581
-0.172903
-1.24339
0.338613
-0.624027
-1.17987
0.668216
0.327206
-0.302961
-1.77704
-0.877293
1.99643
0.0248582
-2.41971
0.642377
-0.381475
1.13349
0.733846
-0.763331
0.0791985
-3.30975
0.671552
-2.40143
0.670573
2.57383
1.65993
-0.423555
-0.0689279
0.528354
-0.0570413